<?xml version="1.0" encoding="ISO-8859-1"?>
<!-- This network was created in GeNIe Academic, which can be used for educational and research purposes only -->
<smile version="1.0" id="Unnamed" numsamples="1000" discsamples="10000">
	<nodes>
		<cpt id="VEngine_HP">
			<state id="s01_below_100" />
			<state id="s02_100_200" />
			<state id="s03_200_300" />
			<state id="s04_300_400" />
			<state id="s05_400_500" />
			<probabilities>0.01540404040404041 0.3095959595959596 0.460479797979798 0.2045875420875422 0.009932659932659935</probabilities>
		</cpt>
		<cpt id="Model" target="true">
			<state id="S09_mar" />
			<state id="S09_may" />
			<state id="S1_Series" />
			<state id="S1_Series_M" />
			<state id="S124_Spider" />
			<state id="S2" />
			<state id="S2_Series" />
			<state id="S200" />
			<state id="S3" />
			<state id="S3_Series" />
			<state id="S3_Series_Gran_Turismo" />
			<state id="S300" />
			<state id="S300M" />
			<state id="S350Z" />
			<state id="S370Z" />
			<state id="S4_Series" />
			<state id="S4_Series_Gran_Coupe" />
			<state id="S4C" />
			<state id="S5_Series" />
			<state id="S5_Series_Gran_Turismo" />
			<state id="S500" />
			<state id="S500X" />
			<state id="S6_Series" />
			<state id="S6_Series_Gran_Coupe" />
			<state id="S7_Series" />
			<state id="S718_Cayman" />
			<state id="S86" />
			<state id="S9_2X" />
			<state id="S9_3_Griffin" />
			<state id="S9_4X" />
			<state id="S9_7X" />
			<state id="S911" />
			<state id="A3" />
			<state id="A4" />
			<state id="SA4_allroad" />
			<state id="A5" />
			<state id="A6" />
			<state id="A7" />
			<state id="A8" />
			<state id="Acadia" />
			<state id="SAcadia_Limited" />
			<state id="Accent" />
			<state id="Accord" />
			<state id="SAccord_Crosstour" />
			<state id="SAccord_Hybrid" />
			<state id="SAccord_Plug_In_Hybrid" />
			<state id="SActiveHybrid_5" />
			<state id="SActiveHybrid_7" />
			<state id="allroad" />
			<state id="Sallroad_quattro" />
			<state id="Altima" />
			<state id="SAltima_Hybrid" />
			<state id="ATS" />
			<state id="SATS_Coupe" />
			<state id="SATS_V" />
			<state id="Avalon" />
			<state id="SAvalon_Hybrid" />
			<state id="Avenger" />
			<state id="Aveo" />
			<state id="Azera" />
			<state id="Aztek" />
			<state id="SB_Class_Electric_Drive" />
			<state id="SB9_Tribeca" />
			<state id="Beetle" />
			<state id="SBeetle_Convertible" />
			<state id="Bonneville" />
			<state id="Boxster" />
			<state id="BRZ" />
			<state id="SC_Class" />
			<state id="SC_Max_Hybrid" />
			<state id="C30" />
			<state id="C70" />
			<state id="Cadenza" />
			<state id="Camaro" />
			<state id="Camry" />
			<state id="SCamry_Hybrid" />
			<state id="SCaptiva_Sport" />
			<state id="Catera" />
			<state id="Cayenne" />
			<state id="Cayman" />
			<state id="SCayman_S" />
			<state id="CC" />
			<state id="Celica" />
			<state id="Challenger" />
			<state id="Charger" />
			<state id="Civic" />
			<state id="SCLA_Class" />
			<state id="SCLK_Class" />
			<state id="SCLS_Class" />
			<state id="Cobalt" />
			<state id="Concorde" />
			<state id="Continental" />
			<state id="SContour_SVT" />
			<state id="SCorolla_iM" />
			<state id="SCR_V" />
			<state id="SCR_Z" />
			<state id="Crossfire" />
			<state id="Crosstour" />
			<state id="Crosstrek" />
			<state id="Cruze" />
			<state id="SCT_200h" />
			<state id="CT6" />
			<state id="CTS" />
			<state id="SCTS_Coupe" />
			<state id="SCTS_Wagon" />
			<state id="SCX_3" />
			<state id="SCX_5" />
			<state id="SCX_7" />
			<state id="SCX_9" />
			<state id="SDiscovery_Sport" />
			<state id="Durango" />
			<state id="SE_Class" />
			<state id="Eclipse" />
			<state id="SEclipse_Spyder" />
			<state id="Edge" />
			<state id="Elantra" />
			<state id="SElantra_GT" />
			<state id="SElantra_Touring" />
			<state id="Element" />
			<state id="Elise" />
			<state id="Endeavor" />
			<state id="Equinox" />
			<state id="SES_300" />
			<state id="SES_300h" />
			<state id="SES_330" />
			<state id="SES_350" />
			<state id="Escape" />
			<state id="SEscape_Hybrid" />
			<state id="Evora" />
			<state id="EX" />
			<state id="EX35" />
			<state id="Exige" />
			<state id="Explorer" />
			<state id="Fiesta" />
			<state id="Firebird" />
			<state id="Fit" />
			<state id="Flex" />
			<state id="Focus" />
			<state id="SFocus_RS" />
			<state id="SFocus_ST" />
			<state id="Forester" />
			<state id="Forte" />
			<state id="Freelander" />
			<state id="Freestyle" />
			<state id="Fusion" />
			<state id="SFusion_Hybrid" />
			<state id="FX" />
			<state id="FX35" />
			<state id="SG_Convertible" />
			<state id="SG_Coupe" />
			<state id="SG_Sedan" />
			<state id="G20" />
			<state id="G3" />
			<state id="G35" />
			<state id="G37" />
			<state id="SG37_Convertible" />
			<state id="SG37_Coupe" />
			<state id="SG37_Sedan" />
			<state id="G6" />
			<state id="G8" />
			<state id="Genesis" />
			<state id="SGenesis_Coupe" />
			<state id="Ghibli" />
			<state id="SGL_Class" />
			<state id="SGLA_Class" />
			<state id="SGLC_Class" />
			<state id="SGLE_Class" />
			<state id="SGLE_Class_Coupe" />
			<state id="GLI" />
			<state id="SGLK_Class" />
			<state id="SGLS_Class" />
			<state id="Golf" />
			<state id="SGolf_Alltrack" />
			<state id="SGolf_GTI" />
			<state id="SGolf_R" />
			<state id="SGolf_SportWagen" />
			<state id="SGrand_Vitara" />
			<state id="SGS_200t" />
			<state id="SGS_300" />
			<state id="SGS_350" />
			<state id="SGS_450h" />
			<state id="GTI" />
			<state id="H3" />
			<state id="HHR" />
			<state id="Highlander" />
			<state id="SHighlander_Hybrid" />
			<state id="SHR_V" />
			<state id="SHS_250h" />
			<state id="i3" />
			<state id="I30" />
			<state id="I35" />
			<state id="Impala" />
			<state id="SImpala_Limited" />
			<state id="Impreza" />
			<state id="SImpreza_WRX" />
			<state id="Insight" />
			<state id="Intrepid" />
			<state id="SIS_200t" />
			<state id="SIS_250" />
			<state id="SIS_250_C" />
			<state id="SIS_300" />
			<state id="SIS_350" />
			<state id="SIS_350_C" />
			<state id="Jetta" />
			<state id="SJetta_GLI" />
			<state id="SJetta_Hybrid" />
			<state id="SJetta_SportWagen" />
			<state id="Journey" />
			<state id="Juke" />
			<state id="JX" />
			<state id="K900" />
			<state id="Lancer" />
			<state id="SLancer_Evolution" />
			<state id="SLancer_Sportback" />
			<state id="Legacy" />
			<state id="Levante" />
			<state id="LHS" />
			<state id="LR2" />
			<state id="LR4" />
			<state id="LS" />
			<state id="M" />
			<state id="SM_Class" />
			<state id="M2" />
			<state id="M3" />
			<state id="M35" />
			<state id="M37" />
			<state id="M4" />
			<state id="Macan" />
			<state id="Malibu" />
			<state id="SMalibu_Hybrid" />
			<state id="SMalibu_Maxx" />
			<state id="Matrix" />
			<state id="Maxima" />
			<state id="SMazdaspeed_3" />
			<state id="SMazdaspeed_6" />
			<state id="SMazdaspeed_MX_5_Miata" />
			<state id="SMazdaspeed_Protege" />
			<state id="Metro" />
			<state id="Millenia" />
			<state id="Mirage" />
			<state id="MKC" />
			<state id="MKS" />
			<state id="MKT" />
			<state id="MKX" />
			<state id="MKZ" />
			<state id="SMKZ_Hybrid" />
			<state id="SMonte_Carlo" />
			<state id="SMR2_Spyder" />
			<state id="Murano" />
			<state id="SMurano_CrossCabriolet" />
			<state id="Mustang" />
			<state id="SMX_5_Miata" />
			<state id="Navigator" />
			<state id="Neon" />
			<state id="SNew_Beetle" />
			<state id="Nitro" />
			<state id="SNX_200t" />
			<state id="SNX_300h" />
			<state id="Optima" />
			<state id="SOptima_Hybrid" />
			<state id="Outback" />
			<state id="Outlander" />
			<state id="SOutlander_Sport" />
			<state id="Pacifica" />
			<state id="Panamera" />
			<state id="Passat" />
			<state id="Pathfinder" />
			<state id="Pilot" />
			<state id="Prelude" />
			<state id="Prius" />
			<state id="SPrius_c" />
			<state id="SPrius_Prime" />
			<state id="SPrius_v" />
			<state id="Prowler" />
			<state id="Q3" />
			<state id="Q40" />
			<state id="Q5" />
			<state id="Q50" />
			<state id="SQ60_Convertible" />
			<state id="SQ60_Coupe" />
			<state id="Q7" />
			<state id="Q70" />
			<state id="QX4" />
			<state id="QX50" />
			<state id="QX60" />
			<state id="QX70" />
			<state id="SR_Class" />
			<state id="R32" />
			<state id="Rabbit" />
			<state id="SRange_Rover" />
			<state id="SRange_Rover_Evoque" />
			<state id="SRange_Rover_Sport" />
			<state id="RAV4" />
			<state id="SRAV4_Hybrid" />
			<state id="SRC_200t" />
			<state id="SRC_300" />
			<state id="SRC_350" />
			<state id="Reno" />
			<state id="Rio" />
			<state id="Rogue" />
			<state id="SRogue_Select" />
			<state id="SRX_300" />
			<state id="SRX_330" />
			<state id="SRX_350" />
			<state id="SRX_400h" />
			<state id="SRX_450h" />
			<state id="S2000" />
			<state id="S32" />
			<state id="S4" />
			<state id="S40" />
			<state id="S5" />
			<state id="S60" />
			<state id="SS60_Cross_Country" />
			<state id="S70" />
			<state id="S80" />
			<state id="S90" />
			<state id="SSanta_Fe" />
			<state id="SSanta_Fe_Sport" />
			<state id="SSC_300" />
			<state id="Sebring" />
			<state id="SSL_Class" />
			<state id="SSLC_Class" />
			<state id="SSLK_Class" />
			<state id="Solstice" />
			<state id="Sonata" />
			<state id="SSonata_Hybrid" />
			<state id="Sonic" />
			<state id="Sorento" />
			<state id="Spark" />
			<state id="SSpark_EV" />
			<state id="Sportage" />
			<state id="SQ5" />
			<state id="SRX" />
			<state id="Stratus" />
			<state id="STS" />
			<state id="Swift" />
			<state id="SX4" />
			<state id="Taurus" />
			<state id="STaurus_X" />
			<state id="Terrain" />
			<state id="Tiburon" />
			<state id="Tiguan" />
			<state id="Torrent" />
			<state id="Touareg" />
			<state id="STouareg_2" />
			<state id="Traverse" />
			<state id="Trax" />
			<state id="Tribeca" />
			<state id="Tribute" />
			<state id="STribute_Hybrid" />
			<state id="TT" />
			<state id="STT_RS" />
			<state id="TTS" />
			<state id="Tucson" />
			<state id="V40" />
			<state id="V50" />
			<state id="V60" />
			<state id="SV60_Cross_Country" />
			<state id="V70" />
			<state id="Veloster" />
			<state id="Venza" />
			<state id="Veracruz" />
			<state id="SVersa_Note" />
			<state id="Vibe" />
			<state id="WRX" />
			<state id="X1" />
			<state id="X3" />
			<state id="X4" />
			<state id="X5" />
			<state id="X6" />
			<state id="XC" />
			<state id="XC60" />
			<state id="XC70" />
			<state id="XC90" />
			<state id="XL7" />
			<state id="XT5" />
			<state id="XTS" />
			<state id="SXV_Crosstrek" />
			<state id="Yaris" />
			<state id="Z3" />
			<state id="Z4" />
			<state id="SZ4_M" />
			<state id="Zephyr" />
			<parents>VEngine_HP</parents>
			<probabilities>3.528332510055748e-05 3.528332510055748e-05 3.528332510055748e-05 3.528332510055748e-05 3.528332510055748e-05 3.528332510055748e-05 3.528332510055748e-05 3.528332510055748e-05 3.528332510055748e-05 3.528332510055748e-05 3.528332510055748e-05 3.528332510055748e-05 3.528332510055748e-05 3.528332510055748e-05 3.528332510055748e-05 3.528332510055748e-05 3.528332510055748e-05 3.528332510055748e-05 3.528332510055748e-05 3.528332510055748e-05 3.528332510055748e-05 3.528332510055748e-05 3.528332510055748e-05 3.528332510055748e-05 3.528332510055748e-05 3.528332510055748e-05 3.528332510055748e-05 3.528332510055748e-05 3.528332510055748e-05 3.528332510055748e-05 3.528332510055748e-05 3.528332510055748e-05 3.528332510055748e-05 3.528332510055748e-05 3.528332510055748e-05 3.528332510055748e-05 3.528332510055748e-05 3.528332510055748e-05 3.528332510055748e-05 3.528332510055748e-05 3.528332510055748e-05 3.528332510055748e-05 3.528332510055748e-05 3.528332510055748e-05 3.528332510055748e-05 3.528332510055748e-05 3.528332510055748e-05 3.528332510055748e-05 3.528332510055748e-05 3.528332510055748e-05 3.528332510055748e-05 3.528332510055748e-05 3.528332510055748e-05 3.528332510055748e-05 3.528332510055748e-05 3.528332510055748e-05 3.528332510055748e-05 3.528332510055748e-05 3.528332510055748e-05 3.528332510055748e-05 3.528332510055748e-05 3.528332510055748e-05 3.528332510055748e-05 3.528332510055748e-05 3.528332510055748e-05 3.528332510055748e-05 3.528332510055748e-05 3.528332510055748e-05 3.528332510055748e-05 3.528332510055748e-05 3.528332510055748e-05 3.528332510055748e-05 3.528332510055748e-05 3.528332510055748e-05 3.528332510055748e-05 3.528332510055748e-05 3.528332510055748e-05 3.528332510055748e-05 3.528332510055748e-05 3.528332510055748e-05 3.528332510055748e-05 3.528332510055748e-05 3.528332510055748e-05 3.528332510055748e-05 3.528332510055748e-05 3.528332510055748e-05 3.528332510055748e-05 3.528332510055748e-05 3.528332510055748e-05 3.528332510055748e-05 3.528332510055748e-05 3.528332510055748e-05 3.528332510055748e-05 3.528332510055748e-05 3.528332510055748e-05 3.528332510055748e-05 3.528332510055748e-05 3.528332510055748e-05 3.528332510055748e-05 3.528332510055748e-05 3.528332510055748e-05 3.528332510055748e-05 3.528332510055748e-05 3.528332510055748e-05 3.528332510055748e-05 3.528332510055748e-05 3.528332510055748e-05 3.528332510055748e-05 3.528332510055748e-05 3.528332510055748e-05 3.528332510055748e-05 3.528332510055748e-05 3.528332510055748e-05 3.528332510055748e-05 3.528332510055748e-05 3.528332510055748e-05 3.528332510055748e-05 3.528332510055748e-05 3.528332510055748e-05 3.528332510055748e-05 3.528332510055748e-05 3.528332510055748e-05 3.528332510055748e-05 3.528332510055748e-05 3.528332510055748e-05 3.528332510055748e-05 3.528332510055748e-05 3.528332510055748e-05 3.528332510055748e-05 3.528332510055748e-05 3.528332510055748e-05 3.528332510055748e-05 3.528332510055748e-05 3.528332510055748e-05 3.528332510055748e-05 3.528332510055748e-05 3.528332510055748e-05 3.528332510055748e-05 3.528332510055748e-05 3.528332510055748e-05 3.528332510055748e-05 3.528332510055748e-05 3.528332510055748e-05 3.528332510055748e-05 3.528332510055748e-05 3.528332510055748e-05 3.528332510055748e-05 3.528332510055748e-05 3.528332510055748e-05 3.528332510055748e-05 3.528332510055748e-05 3.528332510055748e-05 3.528332510055748e-05 3.528332510055748e-05 3.528332510055748e-05 3.528332510055748e-05 3.528332510055748e-05 3.528332510055748e-05 3.528332510055748e-05 3.528332510055748e-05 3.528332510055748e-05 3.528332510055748e-05 3.528332510055748e-05 3.528332510055748e-05 3.528332510055748e-05 3.528332510055748e-05 3.528332510055748e-05 3.528332510055748e-05 3.528332510055748e-05 3.528332510055748e-05 3.528332510055748e-05 3.528332510055748e-05 3.528332510055748e-05 3.528332510055748e-05 3.528332510055748e-05 3.528332510055748e-05 3.528332510055748e-05 3.528332510055748e-05 3.528332510055748e-05 3.528332510055748e-05 3.528332510055748e-05 3.528332510055748e-05 3.528332510055748e-05 3.528332510055748e-05 3.528332510055748e-05 3.528332510055748e-05 3.528332510055748e-05 3.528332510055748e-05 3.528332510055748e-05 3.528332510055748e-05 3.528332510055748e-05 3.528332510055748e-05 3.528332510055748e-05 3.528332510055748e-05 3.528332510055748e-05 0.2703055535953709 3.528332510055748e-05 3.528332510055748e-05 3.528332510055748e-05 3.528332510055748e-05 3.528332510055748e-05 3.528332510055748e-05 3.528332510055748e-05 3.528332510055748e-05 3.528332510055748e-05 3.528332510055748e-05 3.528332510055748e-05 3.528332510055748e-05 3.528332510055748e-05 3.528332510055748e-05 3.528332510055748e-05 3.528332510055748e-05 3.528332510055748e-05 3.528332510055748e-05 3.528332510055748e-05 3.528332510055748e-05 3.528332510055748e-05 3.528332510055748e-05 3.528332510055748e-05 3.528332510055748e-05 3.528332510055748e-05 3.528332510055748e-05 3.528332510055748e-05 3.528332510055748e-05 3.528332510055748e-05 3.528332510055748e-05 3.528332510055748e-05 3.528332510055748e-05 3.528332510055748e-05 3.528332510055748e-05 3.528332510055748e-05 3.528332510055748e-05 3.528332510055748e-05 3.528332510055748e-05 3.528332510055748e-05 3.528332510055748e-05 3.528332510055748e-05 0.02706231035212759 3.528332510055748e-05 0.1892244725142898 3.528332510055748e-05 3.528332510055748e-05 3.528332510055748e-05 3.528332510055748e-05 3.528332510055748e-05 3.528332510055748e-05 3.528332510055748e-05 3.528332510055748e-05 3.528332510055748e-05 3.528332510055748e-05 3.528332510055748e-05 3.528332510055748e-05 3.528332510055748e-05 3.528332510055748e-05 3.528332510055748e-05 3.528332510055748e-05 3.528332510055748e-05 3.528332510055748e-05 3.528332510055748e-05 3.528332510055748e-05 3.528332510055748e-05 3.528332510055748e-05 3.528332510055748e-05 3.528332510055748e-05 3.528332510055748e-05 3.528332510055748e-05 3.528332510055748e-05 3.528332510055748e-05 3.528332510055748e-05 3.528332510055748e-05 0.1757109590007763 3.528332510055748e-05 3.528332510055748e-05 3.528332510055748e-05 3.528332510055748e-05 3.528332510055748e-05 3.528332510055748e-05 3.528332510055748e-05 3.528332510055748e-05 3.528332510055748e-05 3.528332510055748e-05 3.528332510055748e-05 3.528332510055748e-05 3.528332510055748e-05 3.528332510055748e-05 3.528332510055748e-05 3.528332510055748e-05 3.528332510055748e-05 3.528332510055748e-05 3.528332510055748e-05 3.528332510055748e-05 3.528332510055748e-05 3.528332510055748e-05 3.528332510055748e-05 3.528332510055748e-05 3.528332510055748e-05 3.528332510055748e-05 3.528332510055748e-05 3.528332510055748e-05 3.528332510055748e-05 3.528332510055748e-05 3.528332510055748e-05 3.528332510055748e-05 3.528332510055748e-05 3.528332510055748e-05 3.528332510055748e-05 3.528332510055748e-05 3.528332510055748e-05 3.528332510055748e-05 3.528332510055748e-05 3.528332510055748e-05 3.528332510055748e-05 3.528332510055748e-05 3.528332510055748e-05 3.528332510055748e-05 3.528332510055748e-05 3.528332510055748e-05 3.528332510055748e-05 3.528332510055748e-05 3.528332510055748e-05 3.528332510055748e-05 3.528332510055748e-05 3.528332510055748e-05 3.528332510055748e-05 3.528332510055748e-05 3.528332510055748e-05 3.528332510055748e-05 3.528332510055748e-05 0.2432785265683439 3.528332510055748e-05 3.528332510055748e-05 3.528332510055748e-05 3.528332510055748e-05 3.528332510055748e-05 3.528332510055748e-05 0.08111636440618165 3.528332510055748e-05 3.528332510055748e-05 3.528332510055748e-05 3.528332510055748e-05 3.528332510055748e-05 3.528332510055748e-05 3.528332510055748e-05 3.528332510055748e-05 3.528332510055748e-05 3.528332510055748e-05 3.528332510055748e-05 3.528332510055748e-05 3.528332510055748e-05 3.528332510055748e-05 3.528332510055748e-05 3.528332510055748e-05 3.528332510055748e-05 3.528332510055748e-05 3.528332510055748e-05 3.528332510055748e-05 3.528332510055748e-05 3.528332510055748e-05 3.528332510055748e-05 3.528332510055748e-05 3.528332510055748e-05 3.528332510055748e-05 3.528332510055748e-05 3.528332510055748e-05 3.528332510055748e-05 3.528332510055748e-05 3.528332510055748e-05 3.528332510055748e-05 3.528332510055748e-05 3.528332510055748e-05 3.528332510055748e-05 3.528332510055748e-05 3.528332510055748e-05 3.528332510055748e-05 3.528332510055748e-05 3.528332510055748e-05 3.528332510055748e-05 3.528332510055748e-05 3.528332510055748e-05 3.528332510055748e-05 3.528332510055748e-05 3.528332510055748e-05 3.528332510055748e-05 1.773754115109549e-06 1.773754115109549e-06 1.773754115109549e-06 1.773754115109549e-06 0.002039817232375982 0.008153947667158597 1.773754115109549e-06 0.01087133897150643 0.02377894766715861 0.01019199114541947 1.773754115109549e-06 1.773754115109549e-06 1.773754115109549e-06 1.773754115109549e-06 1.773754115109549e-06 1.773754115109549e-06 1.773754115109549e-06 1.773754115109549e-06 1.773754115109549e-06 1.773754115109549e-06 0.01358873027585426 0.01019199114541947 1.773754115109549e-06 1.773754115109549e-06 1.773754115109549e-06 1.773754115109549e-06 1.773754115109549e-06 0.001360469406289024 1.773754115109549e-06 1.773754115109549e-06 1.773754115109549e-06 1.773754115109549e-06 0.01834416505846296 0.002039817232375982 1.773754115109549e-06 1.773754115109549e-06 1.773754115109549e-06 1.773754115109549e-06 1.773754115109549e-06 0.004077860710636853 1.773754115109549e-06 0.008153947667158597 1.773754115109549e-06 1.773754115109549e-06 0.004077860710636853 0.0006811215802020669 1.773754115109549e-06 1.773754115109549e-06 1.773754115109549e-06 1.773754115109549e-06 1.773754115109549e-06 0.002039817232375982 1.773754115109549e-06 1.773754115109549e-06 1.773754115109549e-06 1.773754115109549e-06 1.773754115109549e-06 0.003398512884549896 0.006115904188897726 1.773754115109549e-06 0.004077860710636853 0.002039817232375982 1.773754115109549e-06 0.03125177375411515 0.008833295493245555 1.773754115109549e-06 1.773754115109549e-06 1.773754115109549e-06 1.773754115109549e-06 0.004077860710636853 1.773754115109549e-06 1.773754115109549e-06 1.773754115109549e-06 1.773754115109549e-06 1.773754115109549e-06 1.773754115109549e-06 0.008153947667158597 1.773754115109549e-06 1.773754115109549e-06 1.773754115109549e-06 1.773754115109549e-06 1.773754115109549e-06 0.01087133897150643 1.773754115109549e-06 1.773754115109549e-06 0.01426807810194122 1.773754115109549e-06 1.773754115109549e-06 1.773754115109549e-06 1.773754115109549e-06 1.773754115109549e-06 1.773754115109549e-06 1.773754115109549e-06 0.001360469406289024 0.02174090418889774 0.01223003462368034 1.773754115109549e-06 0.006115904188897726 0.006795252014984683 0.002719165058462939 0.002039817232375982 1.773754115109549e-06 1.773754115109549e-06 1.773754115109549e-06 1.773754115109549e-06 0.008153947667158597 0.01970286071063687 0.005436556362810768 1.773754115109549e-06 1.773754115109549e-06 1.773754115109549e-06 0.005436556362810768 0.006795252014984683 1.773754115109549e-06 1.773754115109549e-06 0.001360469406289024 0.004077860710636853 0.008153947667158597 0.01426807810194122 0.002719165058462939 1.773754115109549e-06 0.01562677375411513 1.773754115109549e-06 1.773754115109549e-06 1.773754115109549e-06 1.773754115109549e-06 0.00747459984107164 0.008153947667158597 1.773754115109549e-06 1.773754115109549e-06 1.773754115109549e-06 1.773754115109549e-06 1.773754115109549e-06 0.008153947667158597 1.773754115109549e-06 0.01223003462368034 1.773754115109549e-06 0.01087133897150643 1.773754115109549e-06 1.773754115109549e-06 0.01223003462368034 0.004077860710636853 0.006115904188897726 1.773754115109549e-06 1.773754115109549e-06 0.006795252014984683 1.773754115109549e-06 1.773754115109549e-06 1.773754115109549e-06 1.773754115109549e-06 1.773754115109549e-06 0.005436556362810768 0.0006811215802020669 1.773754115109549e-06 1.773754115109549e-06 1.773754115109549e-06 1.773754115109549e-06 1.773754115109549e-06 0.0006811215802020669 1.773754115109549e-06 1.773754115109549e-06 1.773754115109549e-06 1.773754115109549e-06 1.773754115109549e-06 1.773754115109549e-06 1.773754115109549e-06 1.773754115109549e-06 1.773754115109549e-06 1.773754115109549e-06 1.773754115109549e-06 1.773754115109549e-06 0.01834416505846296 0.003398512884549896 1.773754115109549e-06 1.773754115109549e-06 0.004077860710636853 0.01223003462368034 1.773754115109549e-06 1.773754115109549e-06 1.773754115109549e-06 1.773754115109549e-06 1.773754115109549e-06 1.773754115109549e-06 0.00747459984107164 0.001360469406289024 1.773754115109549e-06 0.01087133897150643 0.004077860710636853 0.002719165058462939 1.773754115109549e-06 1.773754115109549e-06 1.773754115109549e-06 1.773754115109549e-06 0.01358873027585426 1.773754115109549e-06 1.773754115109549e-06 1.773754115109549e-06 1.773754115109549e-06 1.773754115109549e-06 1.773754115109549e-06 1.773754115109549e-06 1.773754115109549e-06 1.773754115109549e-06 0.005436556362810768 1.773754115109549e-06 0.005436556362810768 0.01223003462368034 0.008153947667158597 0.01630612158020209 1.773754115109549e-06 1.773754115109549e-06 1.773754115109549e-06 1.773754115109549e-06 0.004077860710636853 1.773754115109549e-06 1.773754115109549e-06 1.773754115109549e-06 1.773754115109549e-06 1.773754115109549e-06 1.773754115109549e-06 1.773754115109549e-06 1.773754115109549e-06 1.773754115109549e-06 1.773754115109549e-06 1.773754115109549e-06 1.773754115109549e-06 1.773754115109549e-06 1.773754115109549e-06 0.001360469406289024 0.002039817232375982 1.773754115109549e-06 0.01019199114541947 1.773754115109549e-06 1.773754115109549e-06 1.773754115109549e-06 0.002039817232375982 0.001360469406289024 1.773754115109549e-06 1.773754115109549e-06 1.773754115109549e-06 1.773754115109549e-06 1.773754115109549e-06 1.773754115109549e-06 1.773754115109549e-06 0.002719165058462939 0.0006811215802020669 1.773754115109549e-06 0.004077860710636853 1.773754115109549e-06 1.773754115109549e-06 1.773754115109549e-06 0.01902351288454992 1.773754115109549e-06 1.773754115109549e-06 0.01494742592802817 1.773754115109549e-06 1.773754115109549e-06 0.003398512884549896 0.001360469406289024 0.004077860710636853 0.01087133897150643 0.01019199114541947 0.01902351288454992 1.773754115109549e-06 1.773754115109549e-06 0.002719165058462939 1.773754115109549e-06 1.773754115109549e-06 0.0006811215802020669 0.01223003462368034 1.773754115109549e-06 0.002039817232375982 0.008153947667158597 1.773754115109549e-06 1.773754115109549e-06 1.773754115109549e-06 1.773754115109549e-06 1.773754115109549e-06 1.773754115109549e-06 1.773754115109549e-06 1.773754115109549e-06 1.773754115109549e-06 1.773754115109549e-06 1.773754115109549e-06 1.773754115109549e-06 1.773754115109549e-06 1.773754115109549e-06 1.773754115109549e-06 0.01494742592802817 1.773754115109549e-06 1.773754115109549e-06 1.773754115109549e-06 0.01630612158020209 0.003398512884549896 1.773754115109549e-06 1.773754115109549e-06 1.773754115109549e-06 0.01019199114541947 0.006795252014984683 0.01358873027585426 0.002719165058462939 1.773754115109549e-06 1.773754115109549e-06 1.773754115109549e-06 1.773754115109549e-06 1.773754115109549e-06 1.773754115109549e-06 1.773754115109549e-06 1.773754115109549e-06 0.001360469406289024 1.773754115109549e-06 1.773754115109549e-06 1.773754115109549e-06 0.003398512884549896 1.773754115109549e-06 1.773754115109549e-06 1.773754115109549e-06 0.004077860710636853 1.773754115109549e-06 0.006795252014984683 1.773754115109549e-06 1.773754115109549e-06 1.773754115109549e-06 0.004077860710636853 1.773754115109549e-06 0.005436556362810768 0.0129093824497673 0.005436556362810768 1.773754115109549e-06 0.004077860710636853 0.008153947667158597 1.773754115109549e-06 1.773754115109549e-06 0.001360469406289024 1.773754115109549e-06 1.773754115109549e-06 0.01358873027585426 1.773754115109549e-06 1.773754115109549e-06 0.01970286071063687 0.01358873027585426 1.773754115109549e-06 0.004077860710636853 1.773754115109549e-06 1.773754115109549e-06 1.773754115109549e-06 0.01494742592802817 1.773754115109549e-06 0.01426807810194122 0.005436556362810768 1.773754115109549e-06 1.773754115109549e-06 1.773754115109549e-06 0.01630612158020209 0.002719165058462939 0.001360469406289024 1.773754115109549e-06 1.773754115109549e-06 1.773754115109549e-06 0.01087133897150643 0.008153947667158597 1.773754115109549e-06 0.01087133897150643 0.005436556362810768 1.773754115109549e-06 1.773754115109549e-06 0.002039817232375982 1.773754115109549e-06 1.773754115109549e-06 1.773754115109549e-06 0.0006811215802020669 1.773754115109549e-06 1.773754115109549e-06 1.773754115109549e-06 1.773754115109549e-06 1.773754115109549e-06 1.773754115109549e-06 0.009512643319332513 0.01426807810194122 0.003398512884549896 1.773754115109549e-06 1.773754115109549e-06 1.773754115109549e-06 0.01461974004845019 0.003655829587052284 0.003655829587052284 1.192766586313959e-06 1.192766586313959e-06 1.192766586313959e-06 0.00411265918961053 0.003198999984494038 0.002742170381935792 0.005483147997285269 0.001828511176819299 0.001828511176819299 0.002742170381935792 1.192766586313959e-06 1.192766586313959e-06 0.007767296010076501 0.003655829587052284 0.002285340779377545 0.003655829587052284 1.192766586313959e-06 1.192766586313959e-06 1.192766586313959e-06 1.192766586313959e-06 1.192766586313959e-06 0.0004580223691445602 1.192766586313959e-06 0.0009148519717028065 0.0009148519717028065 0.008224125612634747 0.001828511176819299 0.001371681574261053 1.192766586313959e-06 0.009137784817751239 0.01005144402286773 0.001371681574261053 0.00411265918961053 0.007310466407518255 0.001828511176819299 0.0004580223691445602 0.009594614420309486 0.0009148519717028065 1.192766586313959e-06 0.006396807202401761 0.004569488792168777 0.001371681574261053 1.192766586313959e-06 1.192766586313959e-06 1.192766586313959e-06 0.003655829587052284 0.002742170381935792 0.004569488792168777 1.192766586313959e-06 0.01096510322798423 0.009137784817751239 1.192766586313959e-06 0.003198999984494038 0.00411265918961053 0.001828511176819299 1.192766586313959e-06 0.002742170381935792 1.192766586313959e-06 1.192766586313959e-06 0.0137060808433337 0.01324925124077546 0.02010169527914915 0.0004580223691445602 0.001371681574261053 0.005483147997285269 0.01050827362542598 1.192766586313959e-06 0.002742170381935792 0.001371681574261053 0.003655829587052284 0.004569488792168777 0.001371681574261053 0.00411265918961053 1.192766586313959e-06 0.001371681574261053 0.0009148519717028065 0.001371681574261053 0.0004580223691445602 0.01461974004845019 1.192766586313959e-06 1.192766586313959e-06 0.0009148519717028065 0.003198999984494038 0.002742170381935792 0.002742170381935792 1.192766586313959e-06 0.001828511176819299 0.001371681574261053 1.192766586313959e-06 0.0004580223691445602 1.192766586313959e-06 1.192766586313959e-06 1.192766586313959e-06 0.004569488792168777 0.006853636804960008 1.192766586313959e-06 1.192766586313959e-06 1.192766586313959e-06 0.001828511176819299 0.009137784817751239 1.192766586313959e-06 0.004569488792168777 1.192766586313959e-06 1.192766586313959e-06 0.005483147997285269 0.008680955215192994 0.00411265918961053 0.01005144402286773 0.001828511176819299 0.001828511176819299 0.001371681574261053 0.008224125612634747 1.192766586313959e-06 1.192766586313959e-06 1.192766586313959e-06 1.192766586313959e-06 0.001828511176819299 0.004569488792168777 1.192766586313959e-06 0.001371681574261053 0.001371681574261053 0.001371681574261053 0.001828511176819299 1.192766586313959e-06 1.192766586313959e-06 0.002742170381935792 0.003655829587052284 0.005483147997285269 0.002742170381935792 0.008224125612634747 1.192766586313959e-06 0.002285340779377545 1.192766586313959e-06 0.006853636804960008 1.192766586313959e-06 1.192766586313959e-06 0.001371681574261053 0.002742170381935792 0.004569488792168777 1.192766586313959e-06 0.007310466407518255 0.004569488792168777 1.192766586313959e-06 1.192766586313959e-06 0.0009148519717028065 1.192766586313959e-06 1.192766586313959e-06 0.002742170381935792 1.192766586313959e-06 1.192766586313959e-06 0.003198999984494038 1.192766586313959e-06 1.192766586313959e-06 1.192766586313959e-06 1.192766586313959e-06 0.005483147997285269 0.0009148519717028065 1.192766586313959e-06 0.001371681574261053 1.192766586313959e-06 0.001371681574261053 0.002742170381935792 0.001828511176819299 0.0004580223691445602 1.192766586313959e-06 0.01005144402286773 0.001371681574261053 1.192766586313959e-06 1.192766586313959e-06 1.192766586313959e-06 0.02284267289449863 0.004569488792168777 1.192766586313959e-06 1.192766586313959e-06 0.001828511176819299 0.001828511176819299 1.192766586313959e-06 1.192766586313959e-06 0.03472024256101303 0.003198999984494038 0.001371681574261053 0.009137784817751239 0.002742170381935792 1.192766586313959e-06 1.192766586313959e-06 1.192766586313959e-06 0.001828511176819299 0.001371681574261053 1.192766586313959e-06 1.192766586313959e-06 1.192766586313959e-06 0.005483147997285269 1.192766586313959e-06 0.0004580223691445602 0.0009148519717028065 0.003655829587052284 0.001371681574261053 0.002285340779377545 1.192766586313959e-06 1.192766586313959e-06 0.008224125612634747 0.02010169527914915 1.192766586313959e-06 1.192766586313959e-06 0.008680955215192994 0.002742170381935792 0.0009148519717028065 1.192766586313959e-06 0.0004580223691445602 0.002742170381935792 1.192766586313959e-06 0.001371681574261053 1.192766586313959e-06 0.0009148519717028065 0.00411265918961053 1.192766586313959e-06 0.002742170381935792 1.192766586313959e-06 0.0009148519717028065 1.192766586313959e-06 1.192766586313959e-06 0.001371681574261053 1.192766586313959e-06 1.192766586313959e-06 0.0004580223691445602 0.002285340779377545 1.192766586313959e-06 0.005026318394727023 1.192766586313959e-06 0.0009148519717028065 0.001371681574261053 0.001828511176819299 1.192766586313959e-06 1.192766586313959e-06 1.192766586313959e-06 0.002285340779377545 1.192766586313959e-06 0.009137784817751239 1.192766586313959e-06 1.192766586313959e-06 1.192766586313959e-06 0.007310466407518255 1.192766586313959e-06 0.002285340779377545 1.192766586313959e-06 0.01279242163821721 0.001371681574261053 1.192766586313959e-06 1.192766586313959e-06 1.192766586313959e-06 0.001371681574261053 1.192766586313959e-06 0.01096510322798423 0.005483147997285269 1.192766586313959e-06 0.002742170381935792 1.192766586313959e-06 0.001828511176819299 0.001371681574261053 1.192766586313959e-06 0.005483147997285269 1.192766586313959e-06 0.001371681574261053 0.01279242163821721 0.02192901368938213 0.001828511176819299 1.192766586313959e-06 1.192766586313959e-06 1.192766586313959e-06 1.192766586313959e-06 0.001828511176819299 0.006396807202401761 1.192766586313959e-06 0.009137784817751239 0.004569488792168777 1.192766586313959e-06 0.001828511176819299 0.004569488792168777 1.192766586313959e-06 0.002742170381935792 1.192766586313959e-06 0.004569488792168777 1.192766586313959e-06 0.002285340779377545 0.0009148519717028065 1.192766586313959e-06 1.192766586313959e-06 0.01279242163821721 0.0009148519717028065 1.192766586313959e-06 1.192766586313959e-06 0.0009148519717028065 0.0009148519717028065 1.192766586313959e-06 1.192766586313959e-06 1.192766586313959e-06 1.192766586313959e-06 1.192766586313959e-06 0.002742170381935792 0.002742170381935792 0.005026318394727023 0.002742170381935792 0.0009148519717028065 0.003198999984494038 1.192766586313959e-06 1.192766586313959e-06 0.002742170381935792 1.192766586313959e-06 0.007310466407518255 0.0004580223691445602 0.0004580223691445602 0.002285340779377545 0.0009148519717028065 0.008224125612634747 0.004569488792168777 0.0004580223691445602 1.192766586313959e-06 1.192766586313959e-06 0.0004580223691445602 0.001371681574261053 0.002285340779377545 0.004569488792168777 1.192766586313959e-06 1.192766586313959e-06 0.0137060808433337 1.192766586313959e-06 1.192766586313959e-06 0.002742170381935792 1.192766586313959e-06 1.192766586313959e-06 0.003655829587052284 1.192766586313959e-06 1.192766586313959e-06 1.192766586313959e-06 0.006853636804960008 0.005483147997285269 1.192766586313959e-06 1.192766586313959e-06 0.01187876243310072 0.001828511176819299 0.007767296010076501 0.001371681574261053 0.01187876243310072 1.192766586313959e-06 0.002285340779377545 0.004569488792168777 1.192766586313959e-06 0.002742170381935792 1.192766586313959e-06 0.001828511176819299 1.192766586313959e-06 1.192766586313959e-06 0.001828511176819299 0.005939977599843515 0.002742170381935792 0.001828511176819299 0.006396807202401761 0.006853636804960008 0.005483147997285269 1.192766586313959e-06 1.192766586313959e-06 0.006853636804960008 0.002285340779377545 0.002742170381935792 0.001371681574261053 0.001371681574261053 1.192766586313959e-06 1.192766586313959e-06 0.01005144402286773 0.006853636804960008 0.004569488792168777 0.01781754726635792 1.192766586313959e-06 1.192766586313959e-06 1.192766586313959e-06 1.192766586313959e-06 0.001828511176819299 0.001371681574261053 1.192766586313959e-06 0.0004580223691445602 2.683418352971486e-06 0.003085931105917209 0.008224677251857606 0.001030432647541051 2.683418352971486e-06 2.683418352971486e-06 0.008224677251857606 2.683418352971486e-06 2.683418352971486e-06 0.007196928022669526 0.003085931105917209 0.005141429564293368 2.683418352971486e-06 0.03494615721074766 0.05241789410694501 0.01233567416860992 0.006169178793481446 2.683418352971486e-06 0.004113680335105288 0.006169178793481446 2.683418352971486e-06 2.683418352971486e-06 0.009252426481045684 0.006169178793481446 0.006169178793481446 0.00205818187672913 2.683418352971486e-06 2.683418352971486e-06 2.683418352971486e-06 0.001030432647541051 2.683418352971486e-06 0.00205818187672913 2.683418352971486e-06 2.683418352971486e-06 2.683418352971486e-06 2.683418352971486e-06 0.007196928022669526 0.006169178793481446 0.00205818187672913 0.005141429564293368 2.683418352971486e-06 2.683418352971486e-06 2.683418352971486e-06 2.683418352971486e-06 2.683418352971486e-06 2.683418352971486e-06 0.003085931105917209 0.003085931105917209 2.683418352971486e-06 2.683418352971486e-06 2.683418352971486e-06 2.683418352971486e-06 0.01541892185617416 0.01541892185617416 2.683418352971486e-06 2.683418352971486e-06 2.683418352971486e-06 2.683418352971486e-06 2.683418352971486e-06 2.683418352971486e-06 2.683418352971486e-06 2.683418352971486e-06 2.683418352971486e-06 2.683418352971486e-06 2.683418352971486e-06 2.683418352971486e-06 0.005141429564293368 2.683418352971486e-06 0.005141429564293368 2.683418352971486e-06 2.683418352971486e-06 2.683418352971486e-06 2.683418352971486e-06 0.004113680335105288 2.683418352971486e-06 2.683418352971486e-06 2.683418352971486e-06 2.683418352971486e-06 0.00205818187672913 0.005141429564293368 2.683418352971486e-06 2.683418352971486e-06 2.683418352971486e-06 0.006169178793481446 2.683418352971486e-06 2.683418352971486e-06 0.003085931105917209 2.683418352971486e-06 0.004113680335105288 2.683418352971486e-06 2.683418352971486e-06 0.004113680335105288 2.683418352971486e-06 2.683418352971486e-06 2.683418352971486e-06 2.683418352971486e-06 0.00205818187672913 2.683418352971486e-06 2.683418352971486e-06 2.683418352971486e-06 2.683418352971486e-06 0.008224677251857606 0.01644667108536224 0.0185021695437384 0.01233567416860992 2.683418352971486e-06 2.683418352971486e-06 2.683418352971486e-06 2.683418352971486e-06 2.683418352971486e-06 2.683418352971486e-06 0.02672416337724303 2.683418352971486e-06 2.683418352971486e-06 0.004113680335105288 2.683418352971486e-06 2.683418352971486e-06 2.683418352971486e-06 2.683418352971486e-06 2.683418352971486e-06 2.683418352971486e-06 2.683418352971486e-06 2.683418352971486e-06 2.683418352971486e-06 2.683418352971486e-06 2.683418352971486e-06 2.683418352971486e-06 2.683418352971486e-06 0.004113680335105288 0.004113680335105288 2.683418352971486e-06 2.683418352971486e-06 0.005141429564293368 2.683418352971486e-06 2.683418352971486e-06 2.683418352971486e-06 0.003085931105917209 2.683418352971486e-06 0.001030432647541051 2.683418352971486e-06 2.683418352971486e-06 2.683418352971486e-06 2.683418352971486e-06 2.683418352971486e-06 2.683418352971486e-06 2.683418352971486e-06 0.008224677251857606 0.004113680335105288 0.008224677251857606 0.01747442031455032 0.01747442031455032 2.683418352971486e-06 2.683418352971486e-06 0.009252426481045684 0.013363423397798 0.003085931105917209 0.005141429564293368 0.006169178793481446 2.683418352971486e-06 2.683418352971486e-06 0.005141429564293368 0.01541892185617416 0.003085931105917209 0.00205818187672913 0.003085931105917209 2.683418352971486e-06 0.006169178793481446 0.00205818187672913 2.683418352971486e-06 0.006169178793481446 0.001030432647541051 2.683418352971486e-06 2.683418352971486e-06 2.683418352971486e-06 2.683418352971486e-06 2.683418352971486e-06 2.683418352971486e-06 2.683418352971486e-06 2.683418352971486e-06 0.01130792493942184 0.003085931105917209 2.683418352971486e-06 2.683418352971486e-06 2.683418352971486e-06 2.683418352971486e-06 2.683418352971486e-06 2.683418352971486e-06 2.683418352971486e-06 2.683418352971486e-06 2.683418352971486e-06 2.683418352971486e-06 0.005141429564293368 0.009252426481045684 2.683418352971486e-06 0.006169178793481446 2.683418352971486e-06 2.683418352971486e-06 2.683418352971486e-06 2.683418352971486e-06 2.683418352971486e-06 2.683418352971486e-06 0.006169178793481446 0.003085931105917209 2.683418352971486e-06 2.683418352971486e-06 2.683418352971486e-06 2.683418352971486e-06 2.683418352971486e-06 2.683418352971486e-06 2.683418352971486e-06 0.00205818187672913 2.683418352971486e-06 0.001030432647541051 2.683418352971486e-06 2.683418352971486e-06 0.001030432647541051 2.683418352971486e-06 2.683418352971486e-06 0.01028017571023376 2.683418352971486e-06 0.01130792493942184 0.007196928022669526 0.00205818187672913 2.683418352971486e-06 0.003085931105917209 0.00205818187672913 2.683418352971486e-06 0.004113680335105288 2.683418352971486e-06 2.683418352971486e-06 2.683418352971486e-06 2.683418352971486e-06 0.01028017571023376 2.683418352971486e-06 2.683418352971486e-06 2.683418352971486e-06 2.683418352971486e-06 2.683418352971486e-06 2.683418352971486e-06 2.683418352971486e-06 2.683418352971486e-06 0.009252426481045684 0.006169178793481446 0.0185021695437384 2.683418352971486e-06 2.683418352971486e-06 2.683418352971486e-06 2.683418352971486e-06 2.683418352971486e-06 2.683418352971486e-06 0.013363423397798 2.683418352971486e-06 0.02055766800211456 2.683418352971486e-06 2.683418352971486e-06 2.683418352971486e-06 2.683418352971486e-06 2.683418352971486e-06 2.683418352971486e-06 2.683418352971486e-06 2.683418352971486e-06 2.683418352971486e-06 2.683418352971486e-06 2.683418352971486e-06 0.006169178793481446 2.683418352971486e-06 2.683418352971486e-06 2.683418352971486e-06 2.683418352971486e-06 2.683418352971486e-06 2.683418352971486e-06 2.683418352971486e-06 2.683418352971486e-06 2.683418352971486e-06 2.683418352971486e-06 0.00205818187672913 2.683418352971486e-06 0.02261316646049072 0.006169178793481446 0.01233567416860992 0.005141429564293368 0.013363423397798 2.683418352971486e-06 0.008224677251857606 2.683418352971486e-06 0.006169178793481446 0.001030432647541051 2.683418352971486e-06 2.683418352971486e-06 0.004113680335105288 2.683418352971486e-06 0.009252426481045684 2.683418352971486e-06 2.683418352971486e-06 2.683418352971486e-06 2.683418352971486e-06 0.006169178793481446 2.683418352971486e-06 2.683418352971486e-06 2.683418352971486e-06 2.683418352971486e-06 2.683418352971486e-06 2.683418352971486e-06 2.683418352971486e-06 2.683418352971486e-06 0.005141429564293368 2.683418352971486e-06 2.683418352971486e-06 0.01233567416860992 2.683418352971486e-06 0.009252426481045684 0.01233567416860992 2.683418352971486e-06 2.683418352971486e-06 0.003085931105917209 0.00205818187672913 2.683418352971486e-06 2.683418352971486e-06 2.683418352971486e-06 2.683418352971486e-06 0.00205818187672913 0.001030432647541051 0.003085931105917209 2.683418352971486e-06 2.683418352971486e-06 2.683418352971486e-06 2.683418352971486e-06 2.683418352971486e-06 2.683418352971486e-06 2.683418352971486e-06 2.683418352971486e-06 0.006169178793481446 0.02158541723130264 2.683418352971486e-06 0.007196928022669526 2.683418352971486e-06 2.683418352971486e-06 0.003085931105917209 2.683418352971486e-06 2.683418352971486e-06 2.683418352971486e-06 2.683418352971486e-06 2.683418352971486e-06 0.001030432647541051 2.683418352971486e-06 2.683418352971486e-06 2.683418352971486e-06 2.683418352971486e-06 2.683418352971486e-06 2.683418352971486e-06 2.683418352971486e-06 0.00205818187672913 2.683418352971486e-06 2.683418352971486e-06 2.683418352971486e-06 2.683418352971486e-06 0.008224677251857606 2.683418352971486e-06 2.683418352971486e-06 2.683418352971486e-06 2.683418352971486e-06 2.683418352971486e-06 2.683418352971486e-06 2.683418352971486e-06 0.01028017571023376 0.001030432647541051 0.003085931105917209 0.004113680335105288 0.006169178793481446 0.006169178793481446 2.683418352971486e-06 0.0328906587523715 0.003085931105917209 0.007196928022669526 2.683418352971486e-06 0.006169178793481446 0.02158541723130264 2.683418352971486e-06 2.683418352971486e-06 2.683418352971486e-06 0.006169178793481446 0.004113680335105288 2.683418352971486e-06 5.439512619669275e-05 5.439512619669275e-05 5.439512619669275e-05 5.439512619669275e-05 5.439512619669275e-05 5.439512619669275e-05 5.439512619669275e-05 5.439512619669275e-05 5.439512619669275e-05 5.439512619669275e-05 5.439512619669275e-05 5.439512619669275e-05 5.439512619669275e-05 5.439512619669275e-05 5.439512619669275e-05 5.439512619669275e-05 5.439512619669275e-05 5.439512619669275e-05 5.439512619669275e-05 5.439512619669275e-05 5.439512619669275e-05 5.439512619669275e-05 5.439512619669275e-05 5.439512619669275e-05 5.439512619669275e-05 5.439512619669275e-05 5.439512619669275e-05 5.439512619669275e-05 5.439512619669275e-05 5.439512619669275e-05 5.439512619669275e-05 5.439512619669275e-05 5.439512619669275e-05 5.439512619669275e-05 5.439512619669275e-05 5.439512619669275e-05 5.439512619669275e-05 5.439512619669275e-05 5.439512619669275e-05 5.439512619669275e-05 5.439512619669275e-05 5.439512619669275e-05 5.439512619669275e-05 5.439512619669275e-05 5.439512619669275e-05 5.439512619669275e-05 5.439512619669275e-05 5.439512619669275e-05 5.439512619669275e-05 5.439512619669275e-05 5.439512619669275e-05 5.439512619669275e-05 5.439512619669275e-05 5.439512619669275e-05 0.08338772845952998 5.439512619669275e-05 5.439512619669275e-05 5.439512619669275e-05 5.439512619669275e-05 5.439512619669275e-05 5.439512619669275e-05 5.439512619669275e-05 5.439512619669275e-05 5.439512619669275e-05 5.439512619669275e-05 5.439512619669275e-05 5.439512619669275e-05 5.439512619669275e-05 5.439512619669275e-05 5.439512619669275e-05 5.439512619669275e-05 5.439512619669275e-05 5.439512619669275e-05 5.439512619669275e-05 5.439512619669275e-05 5.439512619669275e-05 5.439512619669275e-05 5.439512619669275e-05 0.06255439512619666 5.439512619669275e-05 5.439512619669275e-05 5.439512619669275e-05 5.439512619669275e-05 5.439512619669275e-05 5.439512619669275e-05 5.439512619669275e-05 5.439512619669275e-05 5.439512619669275e-05 5.439512619669275e-05 5.439512619669275e-05 5.439512619669275e-05 5.439512619669275e-05 5.439512619669275e-05 5.439512619669275e-05 5.439512619669275e-05 5.439512619669275e-05 5.439512619669275e-05 5.439512619669275e-05 5.439512619669275e-05 5.439512619669275e-05 5.439512619669275e-05 0.08338772845952998 0.1250543951261966 5.439512619669275e-05 5.439512619669275e-05 5.439512619669275e-05 5.439512619669275e-05 5.439512619669275e-05 5.439512619669275e-05 5.439512619669275e-05 5.439512619669275e-05 5.439512619669275e-05 5.439512619669275e-05 5.439512619669275e-05 5.439512619669275e-05 5.439512619669275e-05 5.439512619669275e-05 5.439512619669275e-05 5.439512619669275e-05 5.439512619669275e-05 5.439512619669275e-05 5.439512619669275e-05 5.439512619669275e-05 5.439512619669275e-05 5.439512619669275e-05 5.439512619669275e-05 5.439512619669275e-05 5.439512619669275e-05 5.439512619669275e-05 5.439512619669275e-05 5.439512619669275e-05 5.439512619669275e-05 5.439512619669275e-05 5.439512619669275e-05 5.439512619669275e-05 5.439512619669275e-05 5.439512619669275e-05 5.439512619669275e-05 5.439512619669275e-05 5.439512619669275e-05 5.439512619669275e-05 5.439512619669275e-05 5.439512619669275e-05 5.439512619669275e-05 5.439512619669275e-05 5.439512619669275e-05 5.439512619669275e-05 5.439512619669275e-05 5.439512619669275e-05 5.439512619669275e-05 5.439512619669275e-05 5.439512619669275e-05 5.439512619669275e-05 5.439512619669275e-05 5.439512619669275e-05 5.439512619669275e-05 5.439512619669275e-05 5.439512619669275e-05 5.439512619669275e-05 5.439512619669275e-05 5.439512619669275e-05 5.439512619669275e-05 0.1042210617928633 5.439512619669275e-05 5.439512619669275e-05 5.439512619669275e-05 5.439512619669275e-05 5.439512619669275e-05 5.439512619669275e-05 5.439512619669275e-05 5.439512619669275e-05 5.439512619669275e-05 5.439512619669275e-05 5.439512619669275e-05 5.439512619669275e-05 5.439512619669275e-05 5.439512619669275e-05 5.439512619669275e-05 5.439512619669275e-05 5.439512619669275e-05 5.439512619669275e-05 5.439512619669275e-05 5.439512619669275e-05 5.439512619669275e-05 5.439512619669275e-05 5.439512619669275e-05 5.439512619669275e-05 5.439512619669275e-05 5.439512619669275e-05 5.439512619669275e-05 5.439512619669275e-05 5.439512619669275e-05 5.439512619669275e-05 5.439512619669275e-05 5.439512619669275e-05 5.439512619669275e-05 5.439512619669275e-05 5.439512619669275e-05 5.439512619669275e-05 5.439512619669275e-05 5.439512619669275e-05 5.439512619669275e-05 5.439512619669275e-05 5.439512619669275e-05 5.439512619669275e-05 5.439512619669275e-05 5.439512619669275e-05 5.439512619669275e-05 5.439512619669275e-05 5.439512619669275e-05 5.439512619669275e-05 5.439512619669275e-05 5.439512619669275e-05 5.439512619669275e-05 5.439512619669275e-05 0.02088772845953001 5.439512619669275e-05 5.439512619669275e-05 5.439512619669275e-05 5.439512619669275e-05 5.439512619669275e-05 5.439512619669275e-05 5.439512619669275e-05 0.06255439512619666 5.439512619669275e-05 5.439512619669275e-05 0.1250543951261966 0.06255439512619666 5.439512619669275e-05 5.439512619669275e-05 5.439512619669275e-05 5.439512619669275e-05 5.439512619669275e-05 5.439512619669275e-05 5.439512619669275e-05 5.439512619669275e-05 5.439512619669275e-05 5.439512619669275e-05 5.439512619669275e-05 5.439512619669275e-05 5.439512619669275e-05 5.439512619669275e-05 5.439512619669275e-05 5.439512619669275e-05 5.439512619669275e-05 5.439512619669275e-05 5.439512619669275e-05 5.439512619669275e-05 5.439512619669275e-05 5.439512619669275e-05 5.439512619669275e-05 5.439512619669275e-05 5.439512619669275e-05 5.439512619669275e-05 5.439512619669275e-05 5.439512619669275e-05 5.439512619669275e-05 5.439512619669275e-05 5.439512619669275e-05 5.439512619669275e-05 5.439512619669275e-05 5.439512619669275e-05 5.439512619669275e-05 5.439512619669275e-05 5.439512619669275e-05 5.439512619669275e-05 5.439512619669275e-05 5.439512619669275e-05 5.439512619669275e-05 5.439512619669275e-05 5.439512619669275e-05 5.439512619669275e-05 5.439512619669275e-05 5.439512619669275e-05 5.439512619669275e-05 5.439512619669275e-05 5.439512619669275e-05 0.08338772845952998 5.439512619669275e-05 0.04172106179286334 5.439512619669275e-05 5.439512619669275e-05 5.439512619669275e-05 5.439512619669275e-05 5.439512619669275e-05 5.439512619669275e-05 5.439512619669275e-05 5.439512619669275e-05 5.439512619669275e-05 5.439512619669275e-05 5.439512619669275e-05 5.439512619669275e-05 5.439512619669275e-05 5.439512619669275e-05 5.439512619669275e-05 5.439512619669275e-05 5.439512619669275e-05 5.439512619669275e-05 5.439512619669275e-05 5.439512619669275e-05 5.439512619669275e-05 5.439512619669275e-05 5.439512619669275e-05 5.439512619669275e-05 5.439512619669275e-05 5.439512619669275e-05 5.439512619669275e-05 5.439512619669275e-05 5.439512619669275e-05 5.439512619669275e-05 5.439512619669275e-05 5.439512619669275e-05 5.439512619669275e-05 5.439512619669275e-05 5.439512619669275e-05 5.439512619669275e-05 5.439512619669275e-05 5.439512619669275e-05 5.439512619669275e-05 5.439512619669275e-05 5.439512619669275e-05 5.439512619669275e-05 5.439512619669275e-05 5.439512619669275e-05 5.439512619669275e-05 5.439512619669275e-05 5.439512619669275e-05 5.439512619669275e-05 5.439512619669275e-05 5.439512619669275e-05 5.439512619669275e-05 5.439512619669275e-05 5.439512619669275e-05 5.439512619669275e-05 5.439512619669275e-05 5.439512619669275e-05 5.439512619669275e-05 5.439512619669275e-05 5.439512619669275e-05 5.439512619669275e-05 5.439512619669275e-05 5.439512619669275e-05 5.439512619669275e-05 5.439512619669275e-05 5.439512619669275e-05 5.439512619669275e-05 5.439512619669275e-05 5.439512619669275e-05 5.439512619669275e-05 5.439512619669275e-05 5.439512619669275e-05 5.439512619669275e-05 5.439512619669275e-05 5.439512619669275e-05 5.439512619669275e-05 5.439512619669275e-05 5.439512619669275e-05 5.439512619669275e-05 5.439512619669275e-05 5.439512619669275e-05 5.439512619669275e-05 5.439512619669275e-05 5.439512619669275e-05 5.439512619669275e-05 5.439512619669275e-05 5.439512619669275e-05 5.439512619669275e-05 5.439512619669275e-05 5.439512619669275e-05 5.439512619669275e-05 5.439512619669275e-05 5.439512619669275e-05 5.439512619669275e-05 5.439512619669275e-05 5.439512619669275e-05 5.439512619669275e-05 0.1250543951261966 5.439512619669275e-05 5.439512619669275e-05 5.439512619669275e-05 5.439512619669275e-05 5.439512619669275e-05 5.439512619669275e-05</probabilities>
		</cpt>
		<cpt id="Make">
			<state id="SAlfa_Romeo" />
			<state id="Audi" />
			<state id="BMW" />
			<state id="Cadillac" />
			<state id="Chevrolet" />
			<state id="Chrysler" />
			<state id="Dodge" />
			<state id="FIAT" />
			<state id="Ford" />
			<state id="GMC" />
			<state id="Honda" />
			<state id="HUMMER" />
			<state id="Hyundai" />
			<state id="Infiniti" />
			<state id="Kia" />
			<state id="SLand_Rover" />
			<state id="Lexus" />
			<state id="Lincoln" />
			<state id="Lotus" />
			<state id="Maserati" />
			<state id="Mazda" />
			<state id="SMercedes_Benz" />
			<state id="Mitsubishi" />
			<state id="Nissan" />
			<state id="Plymouth" />
			<state id="Pontiac" />
			<state id="Porsche" />
			<state id="Saab" />
			<state id="Subaru" />
			<state id="Suzuki" />
			<state id="Toyota" />
			<state id="Volkswagen" />
			<state id="Volvo" />
			<parents>Model</parents>
			<probabilities>0.0009182736455463729 0.0009182736455463729 0.0009182736455463729 0.0009182736455463729 0.0009182736455463729 0.0009182736455463729 0.0009182736455463729 0.0009182736455463729 0.0009182736455463729 0.0009182736455463729 0.0009182736455463729 0.0009182736455463729 0.0009182736455463729 0.0009182736455463729 0.0009182736455463729 0.0009182736455463729 0.0009182736455463729 0.0009182736455463729 0.0009182736455463729 0.0009182736455463729 0.0009182736455463729 0.0009182736455463729 0.0009182736455463729 0.0009182736455463729 0.0009182736455463729 0.0009182736455463729 0.0009182736455463729 0.9706152433425161 0.0009182736455463729 0.0009182736455463729 0.0009182736455463729 0.0009182736455463729 0.0009182736455463729 0.002525252525252525 0.002525252525252525 0.002525252525252525 0.002525252525252525 0.002525252525252525 0.002525252525252525 0.002525252525252525 0.002525252525252525 0.002525252525252525 0.002525252525252525 0.002525252525252525 0.002525252525252525 0.002525252525252525 0.002525252525252525 0.002525252525252525 0.002525252525252525 0.002525252525252525 0.002525252525252525 0.002525252525252525 0.002525252525252525 0.002525252525252525 0.002525252525252525 0.002525252525252525 0.002525252525252525 0.002525252525252525 0.002525252525252525 0.002525252525252525 0.919191919191919 0.002525252525252525 0.002525252525252525 0.002525252525252525 0.002525252525252525 0.002525252525252525 0.0017825311942959 0.0017825311942959 0.9429590017825309 0.0017825311942959 0.0017825311942959 0.0017825311942959 0.0017825311942959 0.0017825311942959 0.0017825311942959 0.0017825311942959 0.0017825311942959 0.0017825311942959 0.0017825311942959 0.0017825311942959 0.0017825311942959 0.0017825311942959 0.0017825311942959 0.0017825311942959 0.0017825311942959 0.0017825311942959 0.0017825311942959 0.0017825311942959 0.0017825311942959 0.0017825311942959 0.0017825311942959 0.0017825311942959 0.0017825311942959 0.0017825311942959 0.0017825311942959 0.0017825311942959 0.0017825311942959 0.0017825311942959 0.0017825311942959 0.01515151515151516 0.01515151515151516 0.5151515151515152 0.01515151515151516 0.01515151515151516 0.01515151515151516 0.01515151515151516 0.01515151515151516 0.01515151515151516 0.01515151515151516 0.01515151515151516 0.01515151515151516 0.01515151515151516 0.01515151515151516 0.01515151515151516 0.01515151515151516 0.01515151515151516 0.01515151515151516 0.01515151515151516 0.01515151515151516 0.01515151515151516 0.01515151515151516 0.01515151515151516 0.01515151515151516 0.01515151515151516 0.01515151515151516 0.01515151515151516 0.01515151515151516 0.01515151515151516 0.01515151515151516 0.01515151515151516 0.01515151515151516 0.01515151515151516 0.007575757575757578 0.007575757575757578 0.007575757575757578 0.007575757575757578 0.007575757575757578 0.007575757575757578 0.007575757575757578 0.7575757575757578 0.007575757575757578 0.007575757575757578 0.007575757575757578 0.007575757575757578 0.007575757575757578 0.007575757575757578 0.007575757575757578 0.007575757575757578 0.007575757575757578 0.007575757575757578 0.007575757575757578 0.007575757575757578 0.007575757575757578 0.007575757575757578 0.007575757575757578 0.007575757575757578 0.007575757575757578 0.007575757575757578 0.007575757575757578 0.007575757575757578 0.007575757575757578 0.007575757575757578 0.007575757575757578 0.007575757575757578 0.007575757575757578 0.002331002331002331 0.002331002331002331 0.002331002331002331 0.002331002331002331 0.002331002331002331 0.002331002331002331 0.002331002331002331 0.002331002331002331 0.002331002331002331 0.002331002331002331 0.002331002331002331 0.002331002331002331 0.002331002331002331 0.002331002331002331 0.002331002331002331 0.002331002331002331 0.002331002331002331 0.002331002331002331 0.002331002331002331 0.002331002331002331 0.9254079254079252 0.002331002331002331 0.002331002331002331 0.002331002331002331 0.002331002331002331 0.002331002331002331 0.002331002331002331 0.002331002331002331 0.002331002331002331 0.002331002331002331 0.002331002331002331 0.002331002331002331 0.002331002331002331 0.001683501683501683 0.001683501683501683 0.9461279461279458 0.001683501683501683 0.001683501683501683 0.001683501683501683 0.001683501683501683 0.001683501683501683 0.001683501683501683 0.001683501683501683 0.001683501683501683 0.001683501683501683 0.001683501683501683 0.001683501683501683 0.001683501683501683 0.001683501683501683 0.001683501683501683 0.001683501683501683 0.001683501683501683 0.001683501683501683 0.001683501683501683 0.001683501683501683 0.001683501683501683 0.001683501683501683 0.001683501683501683 0.001683501683501683 0.001683501683501683 0.001683501683501683 0.001683501683501683 0.001683501683501683 0.001683501683501683 0.001683501683501683 0.001683501683501683 0.001262626262626262 0.001262626262626262 0.001262626262626262 0.001262626262626262 0.001262626262626262 0.9595959595959594 0.001262626262626262 0.001262626262626262 0.001262626262626262 0.001262626262626262 0.001262626262626262 0.001262626262626262 0.001262626262626262 0.001262626262626262 0.001262626262626262 0.001262626262626262 0.001262626262626262 0.001262626262626262 0.001262626262626262 0.001262626262626262 0.001262626262626262 0.001262626262626262 0.001262626262626262 0.001262626262626262 0.001262626262626262 0.001262626262626262 0.001262626262626262 0.001262626262626262 0.001262626262626262 0.001262626262626262 0.001262626262626262 0.001262626262626262 0.001262626262626262 0.0007215007215007215 0.1435786435786436 0.0007215007215007215 0.0007215007215007215 0.0007215007215007215 0.0007215007215007215 0.0007215007215007215 0.0007215007215007215 0.0007215007215007215 0.0007215007215007215 0.0007215007215007215 0.0007215007215007215 0.0007215007215007215 0.0007215007215007215 0.0007215007215007215 0.0007215007215007215 0.0007215007215007215 0.0007215007215007215 0.0007215007215007215 0.0007215007215007215 0.834054834054834 0.0007215007215007215 0.0007215007215007215 0.0007215007215007215 0.0007215007215007215 0.0007215007215007215 0.0007215007215007215 0.0007215007215007215 0.0007215007215007215 0.0007215007215007215 0.0007215007215007215 0.0007215007215007215 0.0007215007215007215 0.0008658008658008657 0.0008658008658008657 0.9722943722943722 0.0008658008658008657 0.0008658008658008657 0.0008658008658008657 0.0008658008658008657 0.0008658008658008657 0.0008658008658008657 0.0008658008658008657 0.0008658008658008657 0.0008658008658008657 0.0008658008658008657 0.0008658008658008657 0.0008658008658008657 0.0008658008658008657 0.0008658008658008657 0.0008658008658008657 0.0008658008658008657 0.0008658008658008657 0.0008658008658008657 0.0008658008658008657 0.0008658008658008657 0.0008658008658008657 0.0008658008658008657 0.0008658008658008657 0.0008658008658008657 0.0008658008658008657 0.0008658008658008657 0.0008658008658008657 0.0008658008658008657 0.0008658008658008657 0.0008658008658008657 0.003787878787878789 0.003787878787878789 0.878787878787879 0.003787878787878789 0.003787878787878789 0.003787878787878789 0.003787878787878789 0.003787878787878789 0.003787878787878789 0.003787878787878789 0.003787878787878789 0.003787878787878789 0.003787878787878789 0.003787878787878789 0.003787878787878789 0.003787878787878789 0.003787878787878789 0.003787878787878789 0.003787878787878789 0.003787878787878789 0.003787878787878789 0.003787878787878789 0.003787878787878789 0.003787878787878789 0.003787878787878789 0.003787878787878789 0.003787878787878789 0.003787878787878789 0.003787878787878789 0.003787878787878789 0.003787878787878789 0.003787878787878789 0.003787878787878789 0.003030303030303028 0.003030303030303028 0.003030303030303028 0.003030303030303028 0.003030303030303028 0.9030303030303024 0.003030303030303028 0.003030303030303028 0.003030303030303028 0.003030303030303028 0.003030303030303028 0.003030303030303028 0.003030303030303028 0.003030303030303028 0.003030303030303028 0.003030303030303028 0.003030303030303028 0.003030303030303028 0.003030303030303028 0.003030303030303028 0.003030303030303028 0.003030303030303028 0.003030303030303028 0.003030303030303028 0.003030303030303028 0.003030303030303028 0.003030303030303028 0.003030303030303028 0.003030303030303028 0.003030303030303028 0.003030303030303028 0.003030303030303028 0.003030303030303028 0.00432900432900433 0.00432900432900433 0.00432900432900433 0.00432900432900433 0.00432900432900433 0.8614718614718616 0.00432900432900433 0.00432900432900433 0.00432900432900433 0.00432900432900433 0.00432900432900433 0.00432900432900433 0.00432900432900433 0.00432900432900433 0.00432900432900433 0.00432900432900433 0.00432900432900433 0.00432900432900433 0.00432900432900433 0.00432900432900433 0.00432900432900433 0.00432900432900433 0.00432900432900433 0.00432900432900433 0.00432900432900433 0.00432900432900433 0.00432900432900433 0.00432900432900433 0.00432900432900433 0.00432900432900433 0.00432900432900433 0.00432900432900433 0.00432900432900433 0.0008658008658008658 0.0008658008658008658 0.0008658008658008658 0.0008658008658008658 0.0008658008658008658 0.0008658008658008658 0.0008658008658008658 0.0008658008658008658 0.0008658008658008658 0.0008658008658008658 0.0008658008658008658 0.0008658008658008658 0.0008658008658008658 0.0008658008658008658 0.0008658008658008658 0.0008658008658008658 0.0008658008658008658 0.0008658008658008658 0.0008658008658008658 0.0008658008658008658 0.0008658008658008658 0.0008658008658008658 0.0008658008658008658 0.9722943722943723 0.0008658008658008658 0.0008658008658008658 0.0008658008658008658 0.0008658008658008658 0.0008658008658008658 0.0008658008658008658 0.0008658008658008658 0.0008658008658008658 0.0008658008658008658 0.0005827505827505828 0.0005827505827505828 0.0005827505827505828 0.0005827505827505828 0.0005827505827505828 0.0005827505827505828 0.0005827505827505828 0.0005827505827505828 0.0005827505827505828 0.0005827505827505828 0.0005827505827505828 0.0005827505827505828 0.0005827505827505828 0.0005827505827505828 0.0005827505827505828 0.0005827505827505828 0.0005827505827505828 0.0005827505827505828 0.0005827505827505828 0.0005827505827505828 0.0005827505827505828 0.0005827505827505828 0.0005827505827505828 0.9813519813519814 0.0005827505827505828 0.0005827505827505828 0.0005827505827505828 0.0005827505827505828 0.0005827505827505828 0.0005827505827505828 0.0005827505827505828 0.0005827505827505828 0.0005827505827505828 0.00101010101010101 0.00101010101010101 0.9676767676767675 0.00101010101010101 0.00101010101010101 0.00101010101010101 0.00101010101010101 0.00101010101010101 0.00101010101010101 0.00101010101010101 0.00101010101010101 0.00101010101010101 0.00101010101010101 0.00101010101010101 0.00101010101010101 0.00101010101010101 0.00101010101010101 0.00101010101010101 0.00101010101010101 0.00101010101010101 0.00101010101010101 0.00101010101010101 0.00101010101010101 0.00101010101010101 0.00101010101010101 0.00101010101010101 0.00101010101010101 0.00101010101010101 0.00101010101010101 0.00101010101010101 0.00101010101010101 0.00101010101010101 0.00101010101010101 0.002020202020202019 0.002020202020202019 0.935353535353535 0.002020202020202019 0.002020202020202019 0.002020202020202019 0.002020202020202019 0.002020202020202019 0.002020202020202019 0.002020202020202019 0.002020202020202019 0.002020202020202019 0.002020202020202019 0.002020202020202019 0.002020202020202019 0.002020202020202019 0.002020202020202019 0.002020202020202019 0.002020202020202019 0.002020202020202019 0.002020202020202019 0.002020202020202019 0.002020202020202019 0.002020202020202019 0.002020202020202019 0.002020202020202019 0.002020202020202019 0.002020202020202019 0.002020202020202019 0.002020202020202019 0.002020202020202019 0.002020202020202019 0.002020202020202019 0.8383838383838385 0.005050505050505051 0.005050505050505051 0.005050505050505051 0.005050505050505051 0.005050505050505051 0.005050505050505051 0.005050505050505051 0.005050505050505051 0.005050505050505051 0.005050505050505051 0.005050505050505051 0.005050505050505051 0.005050505050505051 0.005050505050505051 0.005050505050505051 0.005050505050505051 0.005050505050505051 0.005050505050505051 0.005050505050505051 0.005050505050505051 0.005050505050505051 0.005050505050505051 0.005050505050505051 0.005050505050505051 0.005050505050505051 0.005050505050505051 0.005050505050505051 0.005050505050505051 0.005050505050505051 0.005050505050505051 0.005050505050505051 0.005050505050505051 0.00233100233100233 0.00233100233100233 0.925407925407925 0.00233100233100233 0.00233100233100233 0.00233100233100233 0.00233100233100233 0.00233100233100233 0.00233100233100233 0.00233100233100233 0.00233100233100233 0.00233100233100233 0.00233100233100233 0.00233100233100233 0.00233100233100233 0.00233100233100233 0.00233100233100233 0.00233100233100233 0.00233100233100233 0.00233100233100233 0.00233100233100233 0.00233100233100233 0.00233100233100233 0.00233100233100233 0.00233100233100233 0.00233100233100233 0.00233100233100233 0.00233100233100233 0.00233100233100233 0.00233100233100233 0.00233100233100233 0.00233100233100233 0.00233100233100233 0.00432900432900433 0.00432900432900433 0.8614718614718616 0.00432900432900433 0.00432900432900433 0.00432900432900433 0.00432900432900433 0.00432900432900433 0.00432900432900433 0.00432900432900433 0.00432900432900433 0.00432900432900433 0.00432900432900433 0.00432900432900433 0.00432900432900433 0.00432900432900433 0.00432900432900433 0.00432900432900433 0.00432900432900433 0.00432900432900433 0.00432900432900433 0.00432900432900433 0.00432900432900433 0.00432900432900433 0.00432900432900433 0.00432900432900433 0.00432900432900433 0.00432900432900433 0.00432900432900433 0.00432900432900433 0.00432900432900433 0.00432900432900433 0.00432900432900433 0.001443001443001443 0.001443001443001443 0.001443001443001443 0.001443001443001443 0.001443001443001443 0.001443001443001443 0.001443001443001443 0.9538239538239536 0.001443001443001443 0.001443001443001443 0.001443001443001443 0.001443001443001443 0.001443001443001443 0.001443001443001443 0.001443001443001443 0.001443001443001443 0.001443001443001443 0.001443001443001443 0.001443001443001443 0.001443001443001443 0.001443001443001443 0.001443001443001443 0.001443001443001443 0.001443001443001443 0.001443001443001443 0.001443001443001443 0.001443001443001443 0.001443001443001443 0.001443001443001443 0.001443001443001443 0.001443001443001443 0.001443001443001443 0.001443001443001443 0.001893939393939393 0.001893939393939393 0.001893939393939393 0.001893939393939393 0.001893939393939393 0.001893939393939393 0.001893939393939393 0.939393939393939 0.001893939393939393 0.001893939393939393 0.001893939393939393 0.001893939393939393 0.001893939393939393 0.001893939393939393 0.001893939393939393 0.001893939393939393 0.001893939393939393 0.001893939393939393 0.001893939393939393 0.001893939393939393 0.001893939393939393 0.001893939393939393 0.001893939393939393 0.001893939393939393 0.001893939393939393 0.001893939393939393 0.001893939393939393 0.001893939393939393 0.001893939393939393 0.001893939393939393 0.001893939393939393 0.001893939393939393 0.001893939393939393 0.003030303030303028 0.003030303030303028 0.9030303030303024 0.003030303030303028 0.003030303030303028 0.003030303030303028 0.003030303030303028 0.003030303030303028 0.003030303030303028 0.003030303030303028 0.003030303030303028 0.003030303030303028 0.003030303030303028 0.003030303030303028 0.003030303030303028 0.003030303030303028 0.003030303030303028 0.003030303030303028 0.003030303030303028 0.003030303030303028 0.003030303030303028 0.003030303030303028 0.003030303030303028 0.003030303030303028 0.003030303030303028 0.003030303030303028 0.003030303030303028 0.003030303030303028 0.003030303030303028 0.003030303030303028 0.003030303030303028 0.003030303030303028 0.003030303030303028 0.00432900432900433 0.00432900432900433 0.8614718614718616 0.00432900432900433 0.00432900432900433 0.00432900432900433 0.00432900432900433 0.00432900432900433 0.00432900432900433 0.00432900432900433 0.00432900432900433 0.00432900432900433 0.00432900432900433 0.00432900432900433 0.00432900432900433 0.00432900432900433 0.00432900432900433 0.00432900432900433 0.00432900432900433 0.00432900432900433 0.00432900432900433 0.00432900432900433 0.00432900432900433 0.00432900432900433 0.00432900432900433 0.00432900432900433 0.00432900432900433 0.00432900432900433 0.00432900432900433 0.00432900432900433 0.00432900432900433 0.00432900432900433 0.00432900432900433 0.003787878787878789 0.003787878787878789 0.878787878787879 0.003787878787878789 0.003787878787878789 0.003787878787878789 0.003787878787878789 0.003787878787878789 0.003787878787878789 0.003787878787878789 0.003787878787878789 0.003787878787878789 0.003787878787878789 0.003787878787878789 0.003787878787878789 0.003787878787878789 0.003787878787878789 0.003787878787878789 0.003787878787878789 0.003787878787878789 0.003787878787878789 0.003787878787878789 0.003787878787878789 0.003787878787878789 0.003787878787878789 0.003787878787878789 0.003787878787878789 0.003787878787878789 0.003787878787878789 0.003787878787878789 0.003787878787878789 0.003787878787878789 0.003787878787878789 0.0101010101010101 0.0101010101010101 0.0101010101010101 0.0101010101010101 0.0101010101010101 0.0101010101010101 0.0101010101010101 0.0101010101010101 0.0101010101010101 0.0101010101010101 0.0101010101010101 0.0101010101010101 0.0101010101010101 0.0101010101010101 0.0101010101010101 0.0101010101010101 0.0101010101010101 0.0101010101010101 0.0101010101010101 0.0101010101010101 0.0101010101010101 0.0101010101010101 0.0101010101010101 0.0101010101010101 0.0101010101010101 0.0101010101010101 0.6767676767676768 0.0101010101010101 0.0101010101010101 0.0101010101010101 0.0101010101010101 0.0101010101010101 0.0101010101010101 0.0101010101010101 0.0101010101010101 0.0101010101010101 0.0101010101010101 0.0101010101010101 0.0101010101010101 0.0101010101010101 0.0101010101010101 0.0101010101010101 0.0101010101010101 0.0101010101010101 0.0101010101010101 0.0101010101010101 0.0101010101010101 0.0101010101010101 0.0101010101010101 0.0101010101010101 0.0101010101010101 0.0101010101010101 0.0101010101010101 0.0101010101010101 0.0101010101010101 0.0101010101010101 0.0101010101010101 0.0101010101010101 0.0101010101010101 0.0101010101010101 0.0101010101010101 0.0101010101010101 0.0101010101010101 0.6767676767676768 0.0101010101010101 0.0101010101010101 0.006060606060606062 0.006060606060606062 0.006060606060606062 0.006060606060606062 0.006060606060606062 0.006060606060606062 0.006060606060606062 0.006060606060606062 0.006060606060606062 0.006060606060606062 0.006060606060606062 0.006060606060606062 0.006060606060606062 0.006060606060606062 0.006060606060606062 0.006060606060606062 0.006060606060606062 0.006060606060606062 0.006060606060606062 0.006060606060606062 0.006060606060606062 0.006060606060606062 0.006060606060606062 0.006060606060606062 0.006060606060606062 0.006060606060606062 0.006060606060606062 0.8060606060606063 0.006060606060606062 0.006060606060606062 0.006060606060606062 0.006060606060606062 0.006060606060606062 0.001594896331738437 0.001594896331738437 0.001594896331738437 0.001594896331738437 0.001594896331738437 0.001594896331738437 0.001594896331738437 0.001594896331738437 0.001594896331738437 0.001594896331738437 0.001594896331738437 0.001594896331738437 0.001594896331738437 0.001594896331738437 0.001594896331738437 0.001594896331738437 0.001594896331738437 0.001594896331738437 0.001594896331738437 0.001594896331738437 0.001594896331738437 0.001594896331738437 0.001594896331738437 0.001594896331738437 0.001594896331738437 0.001594896331738437 0.001594896331738437 0.9489633173843699 0.001594896331738437 0.001594896331738437 0.001594896331738437 0.001594896331738437 0.001594896331738437 0.005050505050505051 0.005050505050505051 0.005050505050505051 0.005050505050505051 0.005050505050505051 0.005050505050505051 0.005050505050505051 0.005050505050505051 0.005050505050505051 0.005050505050505051 0.005050505050505051 0.005050505050505051 0.005050505050505051 0.005050505050505051 0.005050505050505051 0.005050505050505051 0.005050505050505051 0.005050505050505051 0.005050505050505051 0.005050505050505051 0.005050505050505051 0.005050505050505051 0.005050505050505051 0.005050505050505051 0.005050505050505051 0.005050505050505051 0.005050505050505051 0.8383838383838385 0.005050505050505051 0.005050505050505051 0.005050505050505051 0.005050505050505051 0.005050505050505051 0.007575757575757578 0.007575757575757578 0.007575757575757578 0.007575757575757578 0.007575757575757578 0.007575757575757578 0.007575757575757578 0.007575757575757578 0.007575757575757578 0.007575757575757578 0.007575757575757578 0.007575757575757578 0.007575757575757578 0.007575757575757578 0.007575757575757578 0.007575757575757578 0.007575757575757578 0.007575757575757578 0.007575757575757578 0.007575757575757578 0.007575757575757578 0.007575757575757578 0.007575757575757578 0.007575757575757578 0.007575757575757578 0.007575757575757578 0.007575757575757578 0.7575757575757578 0.007575757575757578 0.007575757575757578 0.007575757575757578 0.007575757575757578 0.007575757575757578 0.0101010101010101 0.0101010101010101 0.0101010101010101 0.0101010101010101 0.0101010101010101 0.0101010101010101 0.0101010101010101 0.0101010101010101 0.0101010101010101 0.0101010101010101 0.0101010101010101 0.0101010101010101 0.0101010101010101 0.0101010101010101 0.0101010101010101 0.0101010101010101 0.0101010101010101 0.0101010101010101 0.0101010101010101 0.0101010101010101 0.0101010101010101 0.0101010101010101 0.0101010101010101 0.0101010101010101 0.0101010101010101 0.0101010101010101 0.6767676767676768 0.0101010101010101 0.0101010101010101 0.0101010101010101 0.0101010101010101 0.0101010101010101 0.0101010101010101 0.0006313131313131311 0.9797979797979796 0.0006313131313131311 0.0006313131313131311 0.0006313131313131311 0.0006313131313131311 0.0006313131313131311 0.0006313131313131311 0.0006313131313131311 0.0006313131313131311 0.0006313131313131311 0.0006313131313131311 0.0006313131313131311 0.0006313131313131311 0.0006313131313131311 0.0006313131313131311 0.0006313131313131311 0.0006313131313131311 0.0006313131313131311 0.0006313131313131311 0.0006313131313131311 0.0006313131313131311 0.0006313131313131311 0.0006313131313131311 0.0006313131313131311 0.0006313131313131311 0.0006313131313131311 0.0006313131313131311 0.0006313131313131311 0.0006313131313131311 0.0006313131313131311 0.0006313131313131311 0.0006313131313131311 0.001165501165501165 0.9627039627039624 0.001165501165501165 0.001165501165501165 0.001165501165501165 0.001165501165501165 0.001165501165501165 0.001165501165501165 0.001165501165501165 0.001165501165501165 0.001165501165501165 0.001165501165501165 0.001165501165501165 0.001165501165501165 0.001165501165501165 0.001165501165501165 0.001165501165501165 0.001165501165501165 0.001165501165501165 0.001165501165501165 0.001165501165501165 0.001165501165501165 0.001165501165501165 0.001165501165501165 0.001165501165501165 0.001165501165501165 0.001165501165501165 0.001165501165501165 0.001165501165501165 0.001165501165501165 0.001165501165501165 0.001165501165501165 0.001165501165501165 0.007575757575757578 0.7575757575757578 0.007575757575757578 0.007575757575757578 0.007575757575757578 0.007575757575757578 0.007575757575757578 0.007575757575757578 0.007575757575757578 0.007575757575757578 0.007575757575757578 0.007575757575757578 0.007575757575757578 0.007575757575757578 0.007575757575757578 0.007575757575757578 0.007575757575757578 0.007575757575757578 0.007575757575757578 0.007575757575757578 0.007575757575757578 0.007575757575757578 0.007575757575757578 0.007575757575757578 0.007575757575757578 0.007575757575757578 0.007575757575757578 0.007575757575757578 0.007575757575757578 0.007575757575757578 0.007575757575757578 0.007575757575757578 0.007575757575757578 0.003030303030303028 0.9030303030303024 0.003030303030303028 0.003030303030303028 0.003030303030303028 0.003030303030303028 0.003030303030303028 0.003030303030303028 0.003030303030303028 0.003030303030303028 0.003030303030303028 0.003030303030303028 0.003030303030303028 0.003030303030303028 0.003030303030303028 0.003030303030303028 0.003030303030303028 0.003030303030303028 0.003030303030303028 0.003030303030303028 0.003030303030303028 0.003030303030303028 0.003030303030303028 0.003030303030303028 0.003030303030303028 0.003030303030303028 0.003030303030303028 0.003030303030303028 0.003030303030303028 0.003030303030303028 0.003030303030303028 0.003030303030303028 0.003030303030303028 0.001262626262626262 0.9595959595959594 0.001262626262626262 0.001262626262626262 0.001262626262626262 0.001262626262626262 0.001262626262626262 0.001262626262626262 0.001262626262626262 0.001262626262626262 0.001262626262626262 0.001262626262626262 0.001262626262626262 0.001262626262626262 0.001262626262626262 0.001262626262626262 0.001262626262626262 0.001262626262626262 0.001262626262626262 0.001262626262626262 0.001262626262626262 0.001262626262626262 0.001262626262626262 0.001262626262626262 0.001262626262626262 0.001262626262626262 0.001262626262626262 0.001262626262626262 0.001262626262626262 0.001262626262626262 0.001262626262626262 0.001262626262626262 0.001262626262626262 0.002754820936639117 0.9118457300275478 0.002754820936639117 0.002754820936639117 0.002754820936639117 0.002754820936639117 0.002754820936639117 0.002754820936639117 0.002754820936639117 0.002754820936639117 0.002754820936639117 0.002754820936639117 0.002754820936639117 0.002754820936639117 0.002754820936639117 0.002754820936639117 0.002754820936639117 0.002754820936639117 0.002754820936639117 0.002754820936639117 0.002754820936639117 0.002754820936639117 0.002754820936639117 0.002754820936639117 0.002754820936639117 0.002754820936639117 0.002754820936639117 0.002754820936639117 0.002754820936639117 0.002754820936639117 0.002754820936639117 0.002754820936639117 0.002754820936639117 0.007575757575757578 0.7575757575757578 0.007575757575757578 0.007575757575757578 0.007575757575757578 0.007575757575757578 0.007575757575757578 0.007575757575757578 0.007575757575757578 0.007575757575757578 0.007575757575757578 0.007575757575757578 0.007575757575757578 0.007575757575757578 0.007575757575757578 0.007575757575757578 0.007575757575757578 0.007575757575757578 0.007575757575757578 0.007575757575757578 0.007575757575757578 0.007575757575757578 0.007575757575757578 0.007575757575757578 0.007575757575757578 0.007575757575757578 0.007575757575757578 0.007575757575757578 0.007575757575757578 0.007575757575757578 0.007575757575757578 0.007575757575757578 0.007575757575757578 0.0009182736455463727 0.0009182736455463727 0.0009182736455463727 0.0009182736455463727 0.0009182736455463727 0.0009182736455463727 0.0009182736455463727 0.0009182736455463727 0.0009182736455463727 0.9706152433425159 0.0009182736455463727 0.0009182736455463727 0.0009182736455463727 0.0009182736455463727 0.0009182736455463727 0.0009182736455463727 0.0009182736455463727 0.0009182736455463727 0.0009182736455463727 0.0009182736455463727 0.0009182736455463727 0.0009182736455463727 0.0009182736455463727 0.0009182736455463727 0.0009182736455463727 0.0009182736455463727 0.0009182736455463727 0.0009182736455463727 0.0009182736455463727 0.0009182736455463727 0.0009182736455463727 0.0009182736455463727 0.0009182736455463727 0.0101010101010101 0.0101010101010101 0.0101010101010101 0.0101010101010101 0.0101010101010101 0.0101010101010101 0.0101010101010101 0.0101010101010101 0.0101010101010101 0.6767676767676768 0.0101010101010101 0.0101010101010101 0.0101010101010101 0.0101010101010101 0.0101010101010101 0.0101010101010101 0.0101010101010101 0.0101010101010101 0.0101010101010101 0.0101010101010101 0.0101010101010101 0.0101010101010101 0.0101010101010101 0.0101010101010101 0.0101010101010101 0.0101010101010101 0.0101010101010101 0.0101010101010101 0.0101010101010101 0.0101010101010101 0.0101010101010101 0.0101010101010101 0.0101010101010101 0.00233100233100233 0.00233100233100233 0.00233100233100233 0.00233100233100233 0.00233100233100233 0.00233100233100233 0.00233100233100233 0.00233100233100233 0.00233100233100233 0.00233100233100233 0.00233100233100233 0.00233100233100233 0.925407925407925 0.00233100233100233 0.00233100233100233 0.00233100233100233 0.00233100233100233 0.00233100233100233 0.00233100233100233 0.00233100233100233 0.00233100233100233 0.00233100233100233 0.00233100233100233 0.00233100233100233 0.00233100233100233 0.00233100233100233 0.00233100233100233 0.00233100233100233 0.00233100233100233 0.00233100233100233 0.00233100233100233 0.00233100233100233 0.00233100233100233 0.002020202020202019 0.002020202020202019 0.002020202020202019 0.002020202020202019 0.002020202020202019 0.002020202020202019 0.002020202020202019 0.002020202020202019 0.002020202020202019 0.002020202020202019 0.935353535353535 0.002020202020202019 0.002020202020202019 0.002020202020202019 0.002020202020202019 0.002020202020202019 0.002020202020202019 0.002020202020202019 0.002020202020202019 0.002020202020202019 0.002020202020202019 0.002020202020202019 0.002020202020202019 0.002020202020202019 0.002020202020202019 0.002020202020202019 0.002020202020202019 0.002020202020202019 0.002020202020202019 0.002020202020202019 0.002020202020202019 0.002020202020202019 0.002020202020202019 0.002754820936639117 0.002754820936639117 0.002754820936639117 0.002754820936639117 0.002754820936639117 0.002754820936639117 0.002754820936639117 0.002754820936639117 0.002754820936639117 0.002754820936639117 0.9118457300275479 0.002754820936639117 0.002754820936639117 0.002754820936639117 0.002754820936639117 0.002754820936639117 0.002754820936639117 0.002754820936639117 0.002754820936639117 0.002754820936639117 0.002754820936639117 0.002754820936639117 0.002754820936639117 0.002754820936639117 0.002754820936639117 0.002754820936639117 0.002754820936639117 0.002754820936639117 0.002754820936639117 0.002754820936639117 0.002754820936639117 0.002754820936639117 0.002754820936639117 0.003030303030303029 0.003030303030303029 0.003030303030303029 0.003030303030303029 0.003030303030303029 0.003030303030303029 0.003030303030303029 0.003030303030303029 0.003030303030303029 0.003030303030303029 0.9030303030303026 0.003030303030303029 0.003030303030303029 0.003030303030303029 0.003030303030303029 0.003030303030303029 0.003030303030303029 0.003030303030303029 0.003030303030303029 0.003030303030303029 0.003030303030303029 0.003030303030303029 0.003030303030303029 0.003030303030303029 0.003030303030303029 0.003030303030303029 0.003030303030303029 0.003030303030303029 0.003030303030303029 0.003030303030303029 0.003030303030303029 0.003030303030303029 0.003030303030303029 0.01515151515151516 0.01515151515151516 0.01515151515151516 0.01515151515151516 0.01515151515151516 0.01515151515151516 0.01515151515151516 0.01515151515151516 0.01515151515151516 0.01515151515151516 0.5151515151515152 0.01515151515151516 0.01515151515151516 0.01515151515151516 0.01515151515151516 0.01515151515151516 0.01515151515151516 0.01515151515151516 0.01515151515151516 0.01515151515151516 0.01515151515151516 0.01515151515151516 0.01515151515151516 0.01515151515151516 0.01515151515151516 0.01515151515151516 0.01515151515151516 0.01515151515151516 0.01515151515151516 0.01515151515151516 0.01515151515151516 0.01515151515151516 0.01515151515151516 0.007575757575757578 0.007575757575757578 0.7575757575757578 0.007575757575757578 0.007575757575757578 0.007575757575757578 0.007575757575757578 0.007575757575757578 0.007575757575757578 0.007575757575757578 0.007575757575757578 0.007575757575757578 0.007575757575757578 0.007575757575757578 0.007575757575757578 0.007575757575757578 0.007575757575757578 0.007575757575757578 0.007575757575757578 0.007575757575757578 0.007575757575757578 0.007575757575757578 0.007575757575757578 0.007575757575757578 0.007575757575757578 0.007575757575757578 0.007575757575757578 0.007575757575757578 0.007575757575757578 0.007575757575757578 0.007575757575757578 0.007575757575757578 0.007575757575757578 0.007575757575757578 0.007575757575757578 0.7575757575757578 0.007575757575757578 0.007575757575757578 0.007575757575757578 0.007575757575757578 0.007575757575757578 0.007575757575757578 0.007575757575757578 0.007575757575757578 0.007575757575757578 0.007575757575757578 0.007575757575757578 0.007575757575757578 0.007575757575757578 0.007575757575757578 0.007575757575757578 0.007575757575757578 0.007575757575757578 0.007575757575757578 0.007575757575757578 0.007575757575757578 0.007575757575757578 0.007575757575757578 0.007575757575757578 0.007575757575757578 0.007575757575757578 0.007575757575757578 0.007575757575757578 0.007575757575757578 0.007575757575757578 0.007575757575757578 0.003367003367003364 0.8922558922558916 0.003367003367003364 0.003367003367003364 0.003367003367003364 0.003367003367003364 0.003367003367003364 0.003367003367003364 0.003367003367003364 0.003367003367003364 0.003367003367003364 0.003367003367003364 0.003367003367003364 0.003367003367003364 0.003367003367003364 0.003367003367003364 0.003367003367003364 0.003367003367003364 0.003367003367003364 0.003367003367003364 0.003367003367003364 0.003367003367003364 0.003367003367003364 0.003367003367003364 0.003367003367003364 0.003367003367003364 0.003367003367003364 0.003367003367003364 0.003367003367003364 0.003367003367003364 0.003367003367003364 0.003367003367003364 0.003367003367003364 0.00432900432900433 0.8614718614718616 0.00432900432900433 0.00432900432900433 0.00432900432900433 0.00432900432900433 0.00432900432900433 0.00432900432900433 0.00432900432900433 0.00432900432900433 0.00432900432900433 0.00432900432900433 0.00432900432900433 0.00432900432900433 0.00432900432900433 0.00432900432900433 0.00432900432900433 0.00432900432900433 0.00432900432900433 0.00432900432900433 0.00432900432900433 0.00432900432900433 0.00432900432900433 0.00432900432900433 0.00432900432900433 0.00432900432900433 0.00432900432900433 0.00432900432900433 0.00432900432900433 0.00432900432900433 0.00432900432900433 0.00432900432900433 0.00432900432900433 0.002754820936639118 0.002754820936639118 0.002754820936639118 0.002754820936639118 0.002754820936639118 0.002754820936639118 0.002754820936639118 0.002754820936639118 0.002754820936639118 0.002754820936639118 0.002754820936639118 0.002754820936639118 0.002754820936639118 0.002754820936639118 0.002754820936639118 0.002754820936639118 0.002754820936639118 0.002754820936639118 0.002754820936639118 0.002754820936639118 0.002754820936639118 0.002754820936639118 0.002754820936639118 0.911845730027548 0.002754820936639118 0.002754820936639118 0.002754820936639118 0.002754820936639118 0.002754820936639118 0.002754820936639118 0.002754820936639118 0.002754820936639118 0.002754820936639118 0.007575757575757578 0.007575757575757578 0.007575757575757578 0.007575757575757578 0.007575757575757578 0.007575757575757578 0.007575757575757578 0.007575757575757578 0.007575757575757578 0.007575757575757578 0.007575757575757578 0.007575757575757578 0.007575757575757578 0.007575757575757578 0.007575757575757578 0.007575757575757578 0.007575757575757578 0.007575757575757578 0.007575757575757578 0.007575757575757578 0.007575757575757578 0.007575757575757578 0.007575757575757578 0.7575757575757578 0.007575757575757578 0.007575757575757578 0.007575757575757578 0.007575757575757578 0.007575757575757578 0.007575757575757578 0.007575757575757578 0.007575757575757578 0.007575757575757578 0.0007575757575757575 0.0007575757575757575 0.0007575757575757575 0.9757575757575756 0.0007575757575757575 0.0007575757575757575 0.0007575757575757575 0.0007575757575757575 0.0007575757575757575 0.0007575757575757575 0.0007575757575757575 0.0007575757575757575 0.0007575757575757575 0.0007575757575757575 0.0007575757575757575 0.0007575757575757575 0.0007575757575757575 0.0007575757575757575 0.0007575757575757575 0.0007575757575757575 0.0007575757575757575 0.0007575757575757575 0.0007575757575757575 0.0007575757575757575 0.0007575757575757575 0.0007575757575757575 0.0007575757575757575 0.0007575757575757575 0.0007575757575757575 0.0007575757575757575 0.0007575757575757575 0.0007575757575757575 0.0007575757575757575 0.0008417508417508416 0.0008417508417508416 0.0008417508417508416 0.973063973063973 0.0008417508417508416 0.0008417508417508416 0.0008417508417508416 0.0008417508417508416 0.0008417508417508416 0.0008417508417508416 0.0008417508417508416 0.0008417508417508416 0.0008417508417508416 0.0008417508417508416 0.0008417508417508416 0.0008417508417508416 0.0008417508417508416 0.0008417508417508416 0.0008417508417508416 0.0008417508417508416 0.0008417508417508416 0.0008417508417508416 0.0008417508417508416 0.0008417508417508416 0.0008417508417508416 0.0008417508417508416 0.0008417508417508416 0.0008417508417508416 0.0008417508417508416 0.0008417508417508416 0.0008417508417508416 0.0008417508417508416 0.0008417508417508416 0.006060606060606062 0.006060606060606062 0.006060606060606062 0.8060606060606063 0.006060606060606062 0.006060606060606062 0.006060606060606062 0.006060606060606062 0.006060606060606062 0.006060606060606062 0.006060606060606062 0.006060606060606062 0.006060606060606062 0.006060606060606062 0.006060606060606062 0.006060606060606062 0.006060606060606062 0.006060606060606062 0.006060606060606062 0.006060606060606062 0.006060606060606062 0.006060606060606062 0.006060606060606062 0.006060606060606062 0.006060606060606062 0.006060606060606062 0.006060606060606062 0.006060606060606062 0.006060606060606062 0.006060606060606062 0.006060606060606062 0.006060606060606062 0.006060606060606062 0.003787878787878789 0.003787878787878789 0.003787878787878789 0.003787878787878789 0.003787878787878789 0.003787878787878789 0.003787878787878789 0.003787878787878789 0.003787878787878789 0.003787878787878789 0.003787878787878789 0.003787878787878789 0.003787878787878789 0.003787878787878789 0.003787878787878789 0.003787878787878789 0.003787878787878789 0.003787878787878789 0.003787878787878789 0.003787878787878789 0.003787878787878789 0.003787878787878789 0.003787878787878789 0.003787878787878789 0.003787878787878789 0.003787878787878789 0.003787878787878789 0.003787878787878789 0.003787878787878789 0.003787878787878789 0.878787878787879 0.003787878787878789 0.003787878787878789 0.00303030303030303 0.00303030303030303 0.00303030303030303 0.00303030303030303 0.00303030303030303 0.00303030303030303 0.00303030303030303 0.00303030303030303 0.00303030303030303 0.00303030303030303 0.00303030303030303 0.00303030303030303 0.00303030303030303 0.00303030303030303 0.00303030303030303 0.00303030303030303 0.00303030303030303 0.00303030303030303 0.00303030303030303 0.00303030303030303 0.00303030303030303 0.00303030303030303 0.00303030303030303 0.00303030303030303 0.00303030303030303 0.00303030303030303 0.00303030303030303 0.00303030303030303 0.00303030303030303 0.00303030303030303 0.903030303030303 0.00303030303030303 0.00303030303030303 0.003030303030303028 0.003030303030303028 0.003030303030303028 0.003030303030303028 0.003030303030303028 0.003030303030303028 0.9030303030303024 0.003030303030303028 0.003030303030303028 0.003030303030303028 0.003030303030303028 0.003030303030303028 0.003030303030303028 0.003030303030303028 0.003030303030303028 0.003030303030303028 0.003030303030303028 0.003030303030303028 0.003030303030303028 0.003030303030303028 0.003030303030303028 0.003030303030303028 0.003030303030303028 0.003030303030303028 0.003030303030303028 0.003030303030303028 0.003030303030303028 0.003030303030303028 0.003030303030303028 0.003030303030303028 0.003030303030303028 0.003030303030303028 0.003030303030303028 0.003030303030303028 0.003030303030303028 0.003030303030303028 0.003030303030303028 0.9030303030303024 0.003030303030303028 0.003030303030303028 0.003030303030303028 0.003030303030303028 0.003030303030303028 0.003030303030303028 0.003030303030303028 0.003030303030303028 0.003030303030303028 0.003030303030303028 0.003030303030303028 0.003030303030303028 0.003030303030303028 0.003030303030303028 0.003030303030303028 0.003030303030303028 0.003030303030303028 0.003030303030303028 0.003030303030303028 0.003030303030303028 0.003030303030303028 0.003030303030303028 0.003030303030303028 0.003030303030303028 0.003030303030303028 0.003030303030303028 0.003030303030303028 0.003030303030303028 0.00432900432900433 0.00432900432900433 0.00432900432900433 0.00432900432900433 0.00432900432900433 0.00432900432900433 0.00432900432900433 0.00432900432900433 0.00432900432900433 0.00432900432900433 0.00432900432900433 0.00432900432900433 0.8614718614718616 0.00432900432900433 0.00432900432900433 0.00432900432900433 0.00432900432900433 0.00432900432900433 0.00432900432900433 0.00432900432900433 0.00432900432900433 0.00432900432900433 0.00432900432900433 0.00432900432900433 0.00432900432900433 0.00432900432900433 0.00432900432900433 0.00432900432900433 0.00432900432900433 0.00432900432900433 0.00432900432900433 0.00432900432900433 0.00432900432900433 0.00432900432900433 0.00432900432900433 0.00432900432900433 0.00432900432900433 0.00432900432900433 0.00432900432900433 0.00432900432900433 0.00432900432900433 0.00432900432900433 0.00432900432900433 0.00432900432900433 0.00432900432900433 0.00432900432900433 0.00432900432900433 0.00432900432900433 0.00432900432900433 0.00432900432900433 0.00432900432900433 0.00432900432900433 0.00432900432900433 0.00432900432900433 0.00432900432900433 0.00432900432900433 0.00432900432900433 0.00432900432900433 0.8614718614718616 0.00432900432900433 0.00432900432900433 0.00432900432900433 0.00432900432900433 0.00432900432900433 0.00432900432900433 0.00432900432900433 0.007575757575757578 0.007575757575757578 0.007575757575757578 0.007575757575757578 0.007575757575757578 0.007575757575757578 0.007575757575757578 0.007575757575757578 0.007575757575757578 0.007575757575757578 0.007575757575757578 0.007575757575757578 0.007575757575757578 0.007575757575757578 0.007575757575757578 0.007575757575757578 0.007575757575757578 0.007575757575757578 0.007575757575757578 0.007575757575757578 0.007575757575757578 0.7575757575757578 0.007575757575757578 0.007575757575757578 0.007575757575757578 0.007575757575757578 0.007575757575757578 0.007575757575757578 0.007575757575757578 0.007575757575757578 0.007575757575757578 0.007575757575757578 0.007575757575757578 0.0009775171065493646 0.0009775171065493646 0.0009775171065493646 0.0009775171065493646 0.0009775171065493646 0.0009775171065493646 0.0009775171065493646 0.0009775171065493646 0.0009775171065493646 0.0009775171065493646 0.0009775171065493646 0.0009775171065493646 0.0009775171065493646 0.0009775171065493646 0.0009775171065493646 0.0009775171065493646 0.0009775171065493646 0.0009775171065493646 0.0009775171065493646 0.0009775171065493646 0.0009775171065493646 0.0009775171065493646 0.0009775171065493646 0.0009775171065493646 0.0009775171065493646 0.0009775171065493646 0.0009775171065493646 0.0009775171065493646 0.9687194525904204 0.0009775171065493646 0.0009775171065493646 0.0009775171065493646 0.0009775171065493646 0.0003987240829346092 0.0003987240829346092 0.0003987240829346092 0.0003987240829346092 0.0003987240829346092 0.0003987240829346092 0.0003987240829346092 0.0003987240829346092 0.0003987240829346092 0.0003987240829346092 0.0003987240829346092 0.0003987240829346092 0.0003987240829346092 0.0003987240829346092 0.0003987240829346092 0.0003987240829346092 0.0003987240829346092 0.0003987240829346092 0.0003987240829346092 0.0003987240829346092 0.0003987240829346092 0.0003987240829346092 0.0003987240829346092 0.0003987240829346092 0.0003987240829346092 0.0003987240829346092 0.0003987240829346092 0.0003987240829346092 0.0003987240829346092 0.0003987240829346092 0.0003987240829346092 0.9872408293460924 0.0003987240829346092 0.0005224660397074191 0.0005224660397074191 0.0005224660397074191 0.0005224660397074191 0.0005224660397074191 0.0005224660397074191 0.0005224660397074191 0.0005224660397074191 0.0005224660397074191 0.0005224660397074191 0.0005224660397074191 0.0005224660397074191 0.0005224660397074191 0.0005224660397074191 0.0005224660397074191 0.0005224660397074191 0.0005224660397074191 0.0005224660397074191 0.0005224660397074191 0.0005224660397074191 0.0005224660397074191 0.0005224660397074191 0.0005224660397074191 0.0005224660397074191 0.0005224660397074191 0.0005224660397074191 0.0005224660397074191 0.0005224660397074191 0.0005224660397074191 0.0005224660397074191 0.0005224660397074191 0.9832810867293625 0.0005224660397074191 0.01515151515151515 0.01515151515151515 0.01515151515151515 0.01515151515151515 0.01515151515151515 0.01515151515151515 0.01515151515151515 0.01515151515151515 0.01515151515151515 0.01515151515151515 0.01515151515151515 0.01515151515151515 0.01515151515151515 0.01515151515151515 0.01515151515151515 0.01515151515151515 0.01515151515151515 0.01515151515151515 0.01515151515151515 0.01515151515151515 0.01515151515151515 0.01515151515151515 0.01515151515151515 0.01515151515151515 0.01515151515151515 0.5151515151515151 0.01515151515151515 0.01515151515151515 0.01515151515151515 0.01515151515151515 0.01515151515151515 0.01515151515151515 0.01515151515151515 0.003367003367003366 0.003367003367003366 0.003367003367003366 0.003367003367003366 0.003367003367003366 0.003367003367003366 0.003367003367003366 0.003367003367003366 0.003367003367003366 0.003367003367003366 0.003367003367003366 0.003367003367003366 0.003367003367003366 0.003367003367003366 0.003367003367003366 0.003367003367003366 0.003367003367003366 0.003367003367003366 0.003367003367003366 0.003367003367003366 0.003367003367003366 0.003367003367003366 0.003367003367003366 0.003367003367003366 0.003367003367003366 0.003367003367003366 0.8922558922558922 0.003367003367003366 0.003367003367003366 0.003367003367003366 0.003367003367003366 0.003367003367003366 0.003367003367003366 0.002331002331002331 0.002331002331002331 0.002331002331002331 0.002331002331002331 0.002331002331002331 0.002331002331002331 0.002331002331002331 0.002331002331002331 0.002331002331002331 0.002331002331002331 0.002331002331002331 0.002331002331002331 0.002331002331002331 0.002331002331002331 0.002331002331002331 0.002331002331002331 0.002331002331002331 0.002331002331002331 0.002331002331002331 0.002331002331002331 0.002331002331002331 0.002331002331002331 0.002331002331002331 0.002331002331002331 0.002331002331002331 0.002331002331002331 0.002331002331002331 0.002331002331002331 0.9254079254079254 0.002331002331002331 0.002331002331002331 0.002331002331002331 0.002331002331002331 0.001044932079414838 0.001044932079414838 0.001044932079414838 0.001044932079414838 0.001044932079414838 0.001044932079414838 0.001044932079414838 0.001044932079414838 