<?xml version="1.0" encoding="ISO-8859-1"?>
<!-- This network was created in GeNIe Academic, which can be used for educational and research purposes only -->
<smile version="1.0" id="Unnamed" numsamples="1000" discsamples="10000">
	<nodes>
		<cpt id="Price">
			<state id="s01_below_10000" />
			<state id="s02_10000_20000" />
			<state id="s03_20000_30000" />
			<state id="s04_30000_40000" />
			<state id="s05_40000_50000" />
			<state id="s06_50000_60000" />
			<state id="s07_60000_70000" />
			<state id="s08_70000_80000" />
			<probabilities>0.006549873737373737 0.1100852272727273 0.366819234006734 0.2771727693602694 0.1519623316498316 0.05410879629629629 0.02107007575757576 0.01223169191919192</probabilities>
		</cpt>
		<cpt id="Model">
			<state id="A3" />
			<state id="A4" />
			<state id="A4_allroad" />
			<state id="A5" />
			<state id="A6" />
			<state id="A7" />
			<state id="A8" />
			<state id="Acadia" />
			<state id="Acadia_Limited" />
			<state id="Accent" />
			<state id="Accord" />
			<state id="Accord_Crosstour" />
			<state id="Accord_Hybrid" />
			<state id="Accord_Plug_In_Hybrid" />
			<state id="ActiveHybrid_5" />
			<state id="ActiveHybrid_7" />
			<state id="allroad" />
			<state id="allroad_quattro" />
			<state id="Altima" />
			<state id="Altima_Hybrid" />
			<state id="ATS" />
			<state id="ATS_Coupe" />
			<state id="ATS_V" />
			<state id="Avalon" />
			<state id="Avalon_Hybrid" />
			<state id="Avenger" />
			<state id="Aveo" />
			<state id="Azera" />
			<state id="Aztek" />
			<state id="B9_Tribeca" />
			<state id="B_Class_Electric_Drive" />
			<state id="Beetle" />
			<state id="Beetle_Convertible" />
			<state id="Bonneville" />
			<state id="Boxster" />
			<state id="BRZ" />
			<state id="C30" />
			<state id="C70" />
			<state id="C_Class" />
			<state id="C_Max_Hybrid" />
			<state id="Cadenza" />
			<state id="Camaro" />
			<state id="Camry" />
			<state id="Camry_Hybrid" />
			<state id="Captiva_Sport" />
			<state id="Catera" />
			<state id="Cayenne" />
			<state id="Cayman" />
			<state id="Cayman_S" />
			<state id="CC" />
			<state id="Celica" />
			<state id="Challenger" />
			<state id="Charger" />
			<state id="Civic" />
			<state id="CLA_Class" />
			<state id="CLK_Class" />
			<state id="CLS_Class" />
			<state id="Cobalt" />
			<state id="Concorde" />
			<state id="Continental" />
			<state id="Contour_SVT" />
			<state id="Corolla_iM" />
			<state id="CR_V" />
			<state id="CR_Z" />
			<state id="Crossfire" />
			<state id="Crosstour" />
			<state id="Crosstrek" />
			<state id="Cruze" />
			<state id="CT6" />
			<state id="CT_200h" />
			<state id="CTS" />
			<state id="CTS_Coupe" />
			<state id="CTS_Wagon" />
			<state id="CX_3" />
			<state id="CX_5" />
			<state id="CX_7" />
			<state id="CX_9" />
			<state id="Discovery_Sport" />
			<state id="Durango" />
			<state id="E_Class" />
			<state id="Eclipse" />
			<state id="Eclipse_Spyder" />
			<state id="Edge" />
			<state id="Elantra" />
			<state id="Elantra_GT" />
			<state id="Elantra_Touring" />
			<state id="Element" />
			<state id="Elise" />
			<state id="Endeavor" />
			<state id="Equinox" />
			<state id="ES_300" />
			<state id="ES_300h" />
			<state id="ES_330" />
			<state id="ES_350" />
			<state id="Escape" />
			<state id="Escape_Hybrid" />
			<state id="Evora" />
			<state id="EX" />
			<state id="EX35" />
			<state id="Exige" />
			<state id="Explorer" />
			<state id="Fiesta" />
			<state id="Firebird" />
			<state id="Fit" />
			<state id="Flex" />
			<state id="Focus" />
			<state id="Focus_RS" />
			<state id="Focus_ST" />
			<state id="Forester" />
			<state id="Forte" />
			<state id="Freelander" />
			<state id="Freestyle" />
			<state id="Fusion" />
			<state id="Fusion_Hybrid" />
			<state id="FX" />
			<state id="FX35" />
			<state id="G20" />
			<state id="G3" />
			<state id="G35" />
			<state id="G37" />
			<state id="G37_Convertible" />
			<state id="G37_Coupe" />
			<state id="G37_Sedan" />
			<state id="G6" />
			<state id="G8" />
			<state id="G_Convertible" />
			<state id="G_Coupe" />
			<state id="G_Sedan" />
			<state id="Genesis" />
			<state id="Genesis_Coupe" />
			<state id="Ghibli" />
			<state id="GL_Class" />
			<state id="GLA_Class" />
			<state id="GLC_Class" />
			<state id="GLE_Class" />
			<state id="GLE_Class_Coupe" />
			<state id="GLI" />
			<state id="GLK_Class" />
			<state id="GLS_Class" />
			<state id="Golf" />
			<state id="Golf_Alltrack" />
			<state id="Golf_GTI" />
			<state id="Golf_R" />
			<state id="Golf_SportWagen" />
			<state id="Grand_Vitara" />
			<state id="GS_200t" />
			<state id="GS_300" />
			<state id="GS_350" />
			<state id="GS_450h" />
			<state id="GTI" />
			<state id="H3" />
			<state id="HHR" />
			<state id="Highlander" />
			<state id="Highlander_Hybrid" />
			<state id="HR_V" />
			<state id="HS_250h" />
			<state id="i3" />
			<state id="I30" />
			<state id="I35" />
			<state id="Impala" />
			<state id="Impala_Limited" />
			<state id="Impreza" />
			<state id="Impreza_WRX" />
			<state id="Insight" />
			<state id="Intrepid" />
			<state id="IS_200t" />
			<state id="IS_250" />
			<state id="IS_250_C" />
			<state id="IS_300" />
			<state id="IS_350" />
			<state id="IS_350_C" />
			<state id="Jetta" />
			<state id="Jetta_GLI" />
			<state id="Jetta_Hybrid" />
			<state id="Jetta_SportWagen" />
			<state id="Journey" />
			<state id="Juke" />
			<state id="JX" />
			<state id="K900" />
			<state id="Lancer" />
			<state id="Lancer_Evolution" />
			<state id="Lancer_Sportback" />
			<state id="Legacy" />
			<state id="Levante" />
			<state id="LHS" />
			<state id="LR2" />
			<state id="LR4" />
			<state id="LS" />
			<state id="M" />
			<state id="M2" />
			<state id="M3" />
			<state id="M35" />
			<state id="M37" />
			<state id="M4" />
			<state id="M_Class" />
			<state id="Macan" />
			<state id="Malibu" />
			<state id="Malibu_Hybrid" />
			<state id="Malibu_Maxx" />
			<state id="Matrix" />
			<state id="Maxima" />
			<state id="Mazdaspeed_3" />
			<state id="Mazdaspeed_6" />
			<state id="Mazdaspeed_MX_5_Miata" />
			<state id="Mazdaspeed_Protege" />
			<state id="Metro" />
			<state id="Millenia" />
			<state id="Mirage" />
			<state id="MKC" />
			<state id="MKS" />
			<state id="MKT" />
			<state id="MKX" />
			<state id="MKZ" />
			<state id="MKZ_Hybrid" />
			<state id="Monte_Carlo" />
			<state id="MR2_Spyder" />
			<state id="Murano" />
			<state id="Murano_CrossCabriolet" />
			<state id="Mustang" />
			<state id="MX_5_Miata" />
			<state id="Navigator" />
			<state id="Neon" />
			<state id="New_Beetle" />
			<state id="Nitro" />
			<state id="NX_200t" />
			<state id="NX_300h" />
			<state id="Optima" />
			<state id="Optima_Hybrid" />
			<state id="Outback" />
			<state id="Outlander" />
			<state id="Outlander_Sport" />
			<state id="Pacifica" />
			<state id="Panamera" />
			<state id="Passat" />
			<state id="Pathfinder" />
			<state id="Pilot" />
			<state id="Prelude" />
			<state id="Prius" />
			<state id="Prius_c" />
			<state id="Prius_Prime" />
			<state id="Prius_v" />
			<state id="Prowler" />
			<state id="Q3" />
			<state id="Q40" />
			<state id="Q5" />
			<state id="Q50" />
			<state id="Q60_Convertible" />
			<state id="Q60_Coupe" />
			<state id="Q7" />
			<state id="Q70" />
			<state id="QX4" />
			<state id="QX50" />
			<state id="QX60" />
			<state id="QX70" />
			<state id="R32" />
			<state id="R_Class" />
			<state id="Rabbit" />
			<state id="Range_Rover" />
			<state id="Range_Rover_Evoque" />
			<state id="Range_Rover_Sport" />
			<state id="RAV4" />
			<state id="RAV4_Hybrid" />
			<state id="RC_200t" />
			<state id="RC_300" />
			<state id="RC_350" />
			<state id="Reno" />
			<state id="Rio" />
			<state id="Rogue" />
			<state id="Rogue_Select" />
			<state id="RX_300" />
			<state id="RX_330" />
			<state id="RX_350" />
			<state id="RX_400h" />
			<state id="RX_450h" />
			<state id="S2000" />
			<state id="S3" />
			<state id="S4" />
			<state id="S40" />
			<state id="S5" />
			<state id="S60" />
			<state id="S60_Cross_Country" />
			<state id="S70" />
			<state id="S80" />
			<state id="S90" />
			<state id="S_09_03_2017" />
			<state id="S_09_05_2017" />
			<state id="S_124_Spider" />
			<state id="S_1_Series" />
			<state id="S_1_Series_M" />
			<state id="S_2" />
			<state id="S_200" />
			<state id="S_2_Series" />
			<state id="S_3" />
			<state id="S_300" />
			<state id="S_300M" />
			<state id="S_350Z" />
			<state id="S_370Z" />
			<state id="S_3_Series" />
			<state id="S_3_Series_Gran_Turismo" />
			<state id="S_4_Series" />
			<state id="S_4_Series_Gran_Coupe" />
			<state id="S_4C" />
			<state id="S_500" />
			<state id="S_500X" />
			<state id="S_5_Series" />
			<state id="S_5_Series_Gran_Turismo" />
			<state id="S_6_Series" />
			<state id="S_6_Series_Gran_Coupe" />
			<state id="S_718_Cayman" />
			<state id="S_7_Series" />
			<state id="S_86" />
			<state id="S_911" />
			<state id="S_9_2X" />
			<state id="S_9_3_Griffin" />
			<state id="S_9_4X" />
			<state id="S_9_7X" />
			<state id="S_S_4_Series_Gran_Coupe" />
			<state id="Santa_Fe" />
			<state id="Santa_Fe_Sport" />
			<state id="SC_300" />
			<state id="Sebring" />
			<state id="SL_Class" />
			<state id="SLC_Class" />
			<state id="SLK_Class" />
			<state id="Solstice" />
			<state id="Sonata" />
			<state id="Sonata_Hybrid" />
			<state id="Sonic" />
			<state id="Sorento" />
			<state id="Spark" />
			<state id="Spark_EV" />
			<state id="Sportage" />
			<state id="SQ5" />
			<state id="SRX" />
			<state id="Stratus" />
			<state id="STS" />
			<state id="Swift" />
			<state id="SX4" />
			<state id="Taurus" />
			<state id="Taurus_X" />
			<state id="Terrain" />
			<state id="Tiburon" />
			<state id="Tiguan" />
			<state id="Torrent" />
			<state id="Touareg" />
			<state id="Touareg_2" />
			<state id="Traverse" />
			<state id="Trax" />
			<state id="Tribeca" />
			<state id="Tribute" />
			<state id="Tribute_Hybrid" />
			<state id="TT" />
			<state id="TT_RS" />
			<state id="TTS" />
			<state id="Tucson" />
			<state id="V40" />
			<state id="V50" />
			<state id="V60" />
			<state id="V60_Cross_Country" />
			<state id="V70" />
			<state id="Veloster" />
			<state id="Venza" />
			<state id="Veracruz" />
			<state id="Versa_Note" />
			<state id="Vibe" />
			<state id="WRX" />
			<state id="X1" />
			<state id="X3" />
			<state id="X4" />
			<state id="X5" />
			<state id="X6" />
			<state id="XC" />
			<state id="XC60" />
			<state id="XC70" />
			<state id="XC90" />
			<state id="XL7" />
			<state id="XT5" />
			<state id="XTS" />
			<state id="XV_Crosstrek" />
			<state id="Yaris" />
			<state id="Z3" />
			<state id="Z4" />
			<state id="Z4_M" />
			<state id="Zephyr" />
			<parents>Price</parents>
			<probabilities>8.138020833333333e-05 8.138020833333333e-05 8.138020833333333e-05 8.138020833333333e-05 8.138020833333333e-05 8.138020833333333e-05 8.138020833333333e-05 8.138020833333333e-05 8.138020833333333e-05 8.138020833333333e-05 8.138020833333333e-05 8.138020833333333e-05 8.138020833333333e-05 8.138020833333333e-05 8.138020833333333e-05 8.138020833333333e-05 8.138020833333333e-05 8.138020833333333e-05 8.138020833333333e-05 8.138020833333333e-05 8.138020833333333e-05 8.138020833333333e-05 8.138020833333333e-05 8.138020833333333e-05 8.138020833333333e-05 8.138020833333333e-05 8.138020833333333e-05 8.138020833333333e-05 8.138020833333333e-05 8.138020833333333e-05 8.138020833333333e-05 8.138020833333333e-05 8.138020833333333e-05 8.138020833333333e-05 8.138020833333333e-05 8.138020833333333e-05 8.138020833333333e-05 8.138020833333333e-05 8.138020833333333e-05 8.138020833333333e-05 8.138020833333333e-05 8.138020833333333e-05 8.138020833333333e-05 8.138020833333333e-05 8.138020833333333e-05 0.06258138020833333 8.138020833333333e-05 8.138020833333333e-05 8.138020833333333e-05 8.138020833333333e-05 8.138020833333333e-05 8.138020833333333e-05 8.138020833333333e-05 8.138020833333333e-05 8.138020833333333e-05 8.138020833333333e-05 8.138020833333333e-05 8.138020833333333e-05 8.138020833333333e-05 8.138020833333333e-05 0.03133138020833334 8.138020833333333e-05 8.138020833333333e-05 8.138020833333333e-05 8.138020833333333e-05 8.138020833333333e-05 8.138020833333333e-05 8.138020833333333e-05 8.138020833333333e-05 8.138020833333333e-05 8.138020833333333e-05 8.138020833333333e-05 8.138020833333333e-05 8.138020833333333e-05 8.138020833333333e-05 8.138020833333333e-05 8.138020833333333e-05 8.138020833333333e-05 8.138020833333333e-05 8.138020833333333e-05 8.138020833333333e-05 8.138020833333333e-05 8.138020833333333e-05 8.138020833333333e-05 8.138020833333333e-05 8.138020833333333e-05 8.138020833333333e-05 8.138020833333333e-05 8.138020833333333e-05 8.138020833333333e-05 8.138020833333333e-05 8.138020833333333e-05 8.138020833333333e-05 8.138020833333333e-05 8.138020833333333e-05 8.138020833333333e-05 8.138020833333333e-05 8.138020833333333e-05 8.138020833333333e-05 8.138020833333333e-05 8.138020833333333e-05 8.138020833333333e-05 0.06258138020833333 8.138020833333333e-05 8.138020833333333e-05 8.138020833333333e-05 8.138020833333333e-05 8.138020833333333e-05 8.138020833333333e-05 8.138020833333333e-05 8.138020833333333e-05 8.138020833333333e-05 8.138020833333333e-05 8.138020833333333e-05 8.138020833333333e-05 8.138020833333333e-05 0.06258138020833333 8.138020833333333e-05 8.138020833333333e-05 8.138020833333333e-05 8.138020833333333e-05 8.138020833333333e-05 8.138020833333333e-05 8.138020833333333e-05 8.138020833333333e-05 8.138020833333333e-05 8.138020833333333e-05 8.138020833333333e-05 8.138020833333333e-05 8.138020833333333e-05 8.138020833333333e-05 8.138020833333333e-05 8.138020833333333e-05 8.138020833333333e-05 8.138020833333333e-05 8.138020833333333e-05 8.138020833333333e-05 8.138020833333333e-05 8.138020833333333e-05 8.138020833333333e-05 8.138020833333333e-05 8.138020833333333e-05 8.138020833333333e-05 8.138020833333333e-05 8.138020833333333e-05 8.138020833333333e-05 8.138020833333333e-05 8.138020833333333e-05 8.138020833333333e-05 8.138020833333333e-05 8.138020833333333e-05 8.138020833333333e-05 8.138020833333333e-05 8.138020833333333e-05 8.138020833333333e-05 8.138020833333333e-05 8.138020833333333e-05 0.06258138020833333 8.138020833333333e-05 8.138020833333333e-05 8.138020833333333e-05 8.138020833333333e-05 8.138020833333333e-05 8.138020833333333e-05 8.138020833333333e-05 8.138020833333333e-05 8.138020833333333e-05 8.138020833333333e-05 8.138020833333333e-05 8.138020833333333e-05 8.138020833333333e-05 8.138020833333333e-05 8.138020833333333e-05 8.138020833333333e-05 8.138020833333333e-05 8.138020833333333e-05 8.138020833333333e-05 8.138020833333333e-05 8.138020833333333e-05 8.138020833333333e-05 8.138020833333333e-05 8.138020833333333e-05 8.138020833333333e-05 8.138020833333333e-05 0.03133138020833334 8.138020833333333e-05 8.138020833333333e-05 8.138020833333333e-05 8.138020833333333e-05 8.138020833333333e-05 8.138020833333333e-05 8.138020833333333e-05 8.138020833333333e-05 8.138020833333333e-05 8.138020833333333e-05 8.138020833333333e-05 8.138020833333333e-05 8.138020833333333e-05 8.138020833333333e-05 8.138020833333333e-05 8.138020833333333e-05 8.138020833333333e-05 8.138020833333333e-05 8.138020833333333e-05 8.138020833333333e-05 0.06258138020833333 0.06258138020833333 8.138020833333333e-05 8.138020833333333e-05 8.138020833333333e-05 8.138020833333333e-05 8.138020833333333e-05 8.138020833333333e-05 8.138020833333333e-05 8.138020833333333e-05 8.138020833333333e-05 8.138020833333333e-05 8.138020833333333e-05 8.138020833333333e-05 8.138020833333333e-05 8.138020833333333e-05 8.138020833333333e-05 8.138020833333333e-05 8.138020833333333e-05 8.138020833333333e-05 8.138020833333333e-05 8.138020833333333e-05 8.138020833333333e-05 8.138020833333333e-05 8.138020833333333e-05 8.138020833333333e-05 8.138020833333333e-05 8.138020833333333e-05 8.138020833333333e-05 8.138020833333333e-05 8.138020833333333e-05 0.06258138020833333 8.138020833333333e-05 8.138020833333333e-05 8.138020833333333e-05 8.138020833333333e-05 8.138020833333333e-05 8.138020833333333e-05 8.138020833333333e-05 8.138020833333333e-05 8.138020833333333e-05 8.138020833333333e-05 8.138020833333333e-05 8.138020833333333e-05 8.138020833333333e-05 8.138020833333333e-05 8.138020833333333e-05 8.138020833333333e-05 8.138020833333333e-05 8.138020833333333e-05 8.138020833333333e-05 8.138020833333333e-05 8.138020833333333e-05 8.138020833333333e-05 8.138020833333333e-05 8.138020833333333e-05 8.138020833333333e-05 8.138020833333333e-05 8.138020833333333e-05 8.138020833333333e-05 8.138020833333333e-05 8.138020833333333e-05 8.138020833333333e-05 8.138020833333333e-05 8.138020833333333e-05 8.138020833333333e-05 8.138020833333333e-05 8.138020833333333e-05 8.138020833333333e-05 8.138020833333333e-05 8.138020833333333e-05 8.138020833333333e-05 8.138020833333333e-05 8.138020833333333e-05 8.138020833333333e-05 8.138020833333333e-05 0.1875813802083333 8.138020833333333e-05 8.138020833333333e-05 8.138020833333333e-05 8.138020833333333e-05 8.138020833333333e-05 8.138020833333333e-05 8.138020833333333e-05 8.138020833333333e-05 8.138020833333333e-05 8.138020833333333e-05 8.138020833333333e-05 8.138020833333333e-05 8.138020833333333e-05 8.138020833333333e-05 8.138020833333333e-05 8.138020833333333e-05 8.138020833333333e-05 8.138020833333333e-05 8.138020833333333e-05 8.138020833333333e-05 8.138020833333333e-05 8.138020833333333e-05 8.138020833333333e-05 8.138020833333333e-05 8.138020833333333e-05 8.138020833333333e-05 8.138020833333333e-05 8.138020833333333e-05 8.138020833333333e-05 8.138020833333333e-05 8.138020833333333e-05 8.138020833333333e-05 8.138020833333333e-05 8.138020833333333e-05 8.138020833333333e-05 8.138020833333333e-05 8.138020833333333e-05 0.03133138020833334 8.138020833333333e-05 8.138020833333333e-05 8.138020833333333e-05 8.138020833333333e-05 8.138020833333333e-05 8.138020833333333e-05 8.138020833333333e-05 8.138020833333333e-05 8.138020833333333e-05 8.138020833333333e-05 8.138020833333333e-05 8.138020833333333e-05 8.138020833333333e-05 8.138020833333333e-05 8.138020833333333e-05 8.138020833333333e-05 0.1563313802083333 8.138020833333333e-05 8.138020833333333e-05 8.138020833333333e-05 8.138020833333333e-05 8.138020833333333e-05 8.138020833333333e-05 8.138020833333333e-05 8.138020833333333e-05 8.138020833333333e-05 8.138020833333333e-05 8.138020833333333e-05 8.138020833333333e-05 8.138020833333333e-05 8.138020833333333e-05 8.138020833333333e-05 8.138020833333333e-05 8.138020833333333e-05 8.138020833333333e-05 8.138020833333333e-05 8.138020833333333e-05 8.138020833333333e-05 8.138020833333333e-05 8.138020833333333e-05 8.138020833333333e-05 8.138020833333333e-05 8.138020833333333e-05 8.138020833333333e-05 8.138020833333333e-05 8.138020833333333e-05 8.138020833333333e-05 8.138020833333333e-05 8.138020833333333e-05 8.138020833333333e-05 8.138020833333333e-05 8.138020833333333e-05 8.138020833333333e-05 8.138020833333333e-05 8.138020833333333e-05 8.138020833333333e-05 8.138020833333333e-05 8.138020833333333e-05 8.138020833333333e-05 8.138020833333333e-05 0.09383138020833333 8.138020833333333e-05 8.138020833333333e-05 8.138020833333333e-05 4.969783715012718e-06 4.969783715012718e-06 4.969783715012718e-06 4.969783715012718e-06 4.969783715012718e-06 4.969783715012718e-06 4.969783715012718e-06 4.969783715012718e-06 4.969783715012718e-06 0.02290573314249362 4.969783715012718e-06 4.969783715012718e-06 4.969783715012718e-06 4.969783715012718e-06 4.969783715012718e-06 4.969783715012718e-06 4.969783715012718e-06 4.969783715012718e-06 4.969783715012718e-06 4.969783715012718e-06 4.969783715012718e-06 4.969783715012718e-06 4.969783715012718e-06 4.969783715012718e-06 4.969783715012718e-06 0.005730160623409664 0.01718054230279897 4.969783715012718e-06 0.00382176367684478 4.969783715012718e-06 4.969783715012718e-06 0.01908893924936385 4.969783715012718e-06 4.969783715012718e-06 4.969783715012718e-06 4.969783715012718e-06 4.969783715012718e-06 4.969783715012718e-06 4.969783715012718e-06 4.969783715012718e-06 4.969783715012718e-06 4.969783715012718e-06 4.969783715012718e-06 4.969783715012718e-06 4.969783715012718e-06 4.969783715012718e-06 4.969783715012718e-06 4.969783715012718e-06 4.969783715012718e-06 4.969783715012718e-06 0.01527214535623408 4.969783715012718e-06 4.969783715012718e-06 0.007638557569974549 4.969783715012718e-06 4.969783715012718e-06 4.969783715012718e-06 4.969783715012718e-06 4.969783715012718e-06 4.969783715012718e-06 4.969783715012718e-06 0.00382176367684478 4.969783715012718e-06 0.01145535146310432 4.969783715012718e-06 4.969783715012718e-06 4.969783715012718e-06 0.001913366730279897 4.969783715012718e-06 4.969783715012718e-06 4.969783715012718e-06 4.969783715012718e-06 4.969783715012718e-06 0.007638557569974549 0.001913366730279897 4.969783715012718e-06 4.969783715012718e-06 4.969783715012718e-06 4.969783715012718e-06 4.969783715012718e-06 0.009546954516539433 4.969783715012718e-06 4.969783715012718e-06 0.00382176367684478 0.01145535146310432 0.02290573314249362 0.007638557569974549 4.969783715012718e-06 4.969783715012718e-06 4.969783715012718e-06 4.969783715012718e-06 4.969783715012718e-06 4.969783715012718e-06 4.969783715012718e-06 4.969783715012718e-06 4.969783715012718e-06 4.969783715012718e-06 4.969783715012718e-06 4.969783715012718e-06 4.969783715012718e-06 4.969783715012718e-06 0.02099733619592873 0.00382176367684478 0.03435611482188292 4.969783715012718e-06 0.01718054230279897 4.969783715012718e-06 4.969783715012718e-06 4.969783715012718e-06 0.01718054230279897 4.969783715012718e-06 4.969783715012718e-06 4.969783715012718e-06 4.969783715012718e-06 4.969783715012718e-06 4.969783715012718e-06 0.00382176367684478 0.001913366730279897 4.969783715012718e-06 4.969783715012718e-06 4.969783715012718e-06 4.969783715012718e-06 4.969783715012718e-06 0.001913366730279897 4.969783715012718e-06 4.969783715012718e-06 4.969783715012718e-06 4.969783715012718e-06 4.969783715012718e-06 4.969783715012718e-06 4.969783715012718e-06 4.969783715012718e-06 4.969783715012718e-06 4.969783715012718e-06 4.969783715012718e-06 4.969783715012718e-06 4.969783715012718e-06 4.969783715012718e-06 4.969783715012718e-06 0.0248141300890585 4.969783715012718e-06 4.969783715012718e-06 4.969783715012718e-06 4.969783715012718e-06 0.009546954516539433 4.969783715012718e-06 4.969783715012718e-06 4.969783715012718e-06 4.969783715012718e-06 4.969783715012718e-06 4.969783715012718e-06 0.02099733619592873 4.969783715012718e-06 4.969783715012718e-06 0.01527214535623408 4.969783715012718e-06 4.969783715012718e-06 4.969783715012718e-06 4.969783715012718e-06 4.969783715012718e-06 4.969783715012718e-06 0.01718054230279897 4.969783715012718e-06 0.01908893924936385 4.969783715012718e-06 4.969783715012718e-06 4.969783715012718e-06 4.969783715012718e-06 4.969783715012718e-06 4.969783715012718e-06 4.969783715012718e-06 4.969783715012718e-06 4.969783715012718e-06 4.969783715012718e-06 4.969783715012718e-06 0.005730160623409664 0.005730160623409664 4.969783715012718e-06 4.969783715012718e-06 4.969783715012718e-06 4.969783715012718e-06 0.009546954516539433 4.969783715012718e-06 4.969783715012718e-06 4.969783715012718e-06 4.969783715012718e-06 4.969783715012718e-06 4.969783715012718e-06 4.969783715012718e-06 4.969783715012718e-06 4.969783715012718e-06 4.969783715012718e-06 4.969783715012718e-06 4.969783715012718e-06 4.969783715012718e-06 4.969783715012718e-06 4.969783715012718e-06 4.969783715012718e-06 0.01145535146310432 0.02290573314249362 4.969783715012718e-06 4.969783715012718e-06 4.969783715012718e-06 4.969783715012718e-06 0.00382176367684478 4.969783715012718e-06 4.969783715012718e-06 0.02672252703562339 4.969783715012718e-06 4.969783715012718e-06 4.969783715012718e-06 4.969783715012718e-06 4.969783715012718e-06 4.969783715012718e-06 0.005730160623409664 4.969783715012718e-06 4.969783715012718e-06 4.969783715012718e-06 4.969783715012718e-06 4.969783715012718e-06 4.969783715012718e-06 0.005730160623409664 0.04198970260814246 4.969783715012718e-06 4.969783715012718e-06 4.969783715012718e-06 4.969783715012718e-06 4.969783715012718e-06 4.969783715012718e-06 4.969783715012718e-06 0.01527214535623408 4.969783715012718e-06 4.969783715012718e-06 4.969783715012718e-06 4.969783715012718e-06 4.969783715012718e-06 4.969783715012718e-06 4.969783715012718e-06 0.0133637484096692 4.969783715012718e-06 4.969783715012718e-06 0.001913366730279897 4.969783715012718e-06 4.969783715012718e-06 4.969783715012718e-06 4.969783715012718e-06 4.969783715012718e-06 4.969783715012718e-06 4.969783715012718e-06 4.969783715012718e-06 4.969783715012718e-06 4.969783715012718e-06 4.969783715012718e-06 4.969783715012718e-06 4.969783715012718e-06 4.969783715012718e-06 0.04198970260814246 4.969783715012718e-06 4.969783715012718e-06 4.969783715012718e-06 4.969783715012718e-06 4.969783715012718e-06 4.969783715012718e-06 4.969783715012718e-06 4.969783715012718e-06 0.02863092398218827 0.01908893924936385 4.969783715012718e-06 0.007638557569974549 4.969783715012718e-06 4.969783715012718e-06 4.969783715012718e-06 4.969783715012718e-06 4.969783715012718e-06 4.969783715012718e-06 4.969783715012718e-06 4.969783715012718e-06 4.969783715012718e-06 4.969783715012718e-06 4.969783715012718e-06 4.969783715012718e-06 4.969783715012718e-06 4.969783715012718e-06 4.969783715012718e-06 4.969783715012718e-06 4.969783715012718e-06 4.969783715012718e-06 4.969783715012718e-06 4.969783715012718e-06 0.02290573314249362 4.969783715012718e-06 4.969783715012718e-06 0.01718054230279897 4.969783715012718e-06 4.969783715012718e-06 4.969783715012718e-06 4.969783715012718e-06 4.969783715012718e-06 4.969783715012718e-06 4.969783715012718e-06 4.969783715012718e-06 4.969783715012718e-06 0.03053932092875316 0.00382176367684478 4.969783715012718e-06 4.969783715012718e-06 4.969783715012718e-06 4.969783715012718e-06 4.969783715012718e-06 4.969783715012718e-06 4.969783715012718e-06 4.969783715012718e-06 4.969783715012718e-06 4.969783715012718e-06 4.969783715012718e-06 4.969783715012718e-06 4.969783715012718e-06 4.969783715012718e-06 4.969783715012718e-06 4.969783715012718e-06 0.007638557569974549 4.969783715012718e-06 4.969783715012718e-06 4.969783715012718e-06 4.969783715012718e-06 4.969783715012718e-06 4.969783715012718e-06 0.03435611482188292 4.969783715012718e-06 0.03435611482188292 4.969783715012718e-06 4.969783715012718e-06 4.969783715012718e-06 4.969783715012718e-06 0.005730160623409664 4.969783715012718e-06 0.001913366730279897 0.03817290871501269 4.969783715012718e-06 4.969783715012718e-06 4.969783715012718e-06 0.02672252703562339 4.969783715012718e-06 4.969783715012718e-06 4.969783715012718e-06 4.969783715012718e-06 4.969783715012718e-06 0.009546954516539433 4.969783715012718e-06 0.005730160623409664 4.969783715012718e-06 4.969783715012718e-06 4.969783715012718e-06 4.969783715012718e-06 4.969783715012718e-06 4.969783715012718e-06 4.969783715012718e-06 4.969783715012718e-06 4.969783715012718e-06 4.969783715012718e-06 0.0248141300890585 4.969783715012718e-06 4.969783715012718e-06 0.03053932092875316 0.01527214535623408 4.969783715012718e-06 4.969783715012718e-06 4.969783715012718e-06 4.969783715012718e-06 4.969783715012718e-06 4.969783715012718e-06 4.969783715012718e-06 4.969783715012718e-06 4.969783715012718e-06 4.969783715012718e-06 4.969783715012718e-06 4.969783715012718e-06 4.969783715012718e-06 4.969783715012718e-06 0.04008130566157758 4.969783715012718e-06 4.969783715012718e-06 4.969783715012718e-06 4.969783715012718e-06 0.001721676701070333 1.493214831804279e-06 1.493214831804279e-06 1.493214831804279e-06 1.493214831804279e-06 1.493214831804279e-06 1.493214831804279e-06 0.00114828220565749 1.493214831804279e-06 1.493214831804279e-06 0.003441860187308862 0.00114828220565749 0.002868465691896019 1.493214831804279e-06 1.493214831804279e-06 1.493214831804279e-06 1.493214831804279e-06 1.493214831804279e-06 0.004015254682721705 0.001721676701070333 1.493214831804279e-06 1.493214831804279e-06 1.493214831804279e-06 1.493214831804279e-06 1.493214831804279e-06 0.003441860187308862 1.493214831804279e-06 1.493214831804279e-06 0.002295071196483176 0.002295071196483176 1.493214831804279e-06 0.03440516293960239 0.02064369504969415 1.493214831804279e-06 1.493214831804279e-06 0.00688222715978592 0.003441860187308862 1.493214831804279e-06 1.493214831804279e-06 0.003441860187308862 0.0005748877102446473 0.00516204367354739 0.001721676701070333 0.00516204367354739 0.00688222715978592 0.0005748877102446473 1.493214831804279e-06 1.493214831804279e-06 1.493214831804279e-06 0.00114828220565749 0.004588649178134548 0.003441860187308862 0.00114828220565749 0.01376296110474004 0.00114828220565749 1.493214831804279e-06 1.493214831804279e-06 0.002295071196483176 0.001721676701070333 1.493214831804279e-06 1.493214831804279e-06 1.493214831804279e-06 0.01720332807721709 0.00688222715978592 0.00114828220565749 0.00516204367354739 0.005735438168960234 0.001721676701070333 1.493214831804279e-06 0.001721676701070333 1.493214831804279e-06 1.493214831804279e-06 1.493214831804279e-06 0.004588649178134548 0.01605653908639141 0.009749199636850135 0.002868465691896019 1.493214831804279e-06 0.001721676701070333 1.493214831804279e-06 0.00516204367354739 1.493214831804279e-06 0.00516204367354739 1.493214831804279e-06 1.493214831804279e-06 1.493214831804279e-06 0.009749199636850135 1.493214831804279e-06 0.00516204367354739 0.01261617211391435 0.001721676701070333 1.493214831804279e-06 0.00114828220565749 1.493214831804279e-06 0.006308832664373077 0.003441860187308862 1.493214831804279e-06 1.493214831804279e-06 0.0005748877102446473 1.493214831804279e-06 0.001721676701070333 0.0005748877102446473 0.0005748877102446473 1.493214831804279e-06 0.002295071196483176 0.004015254682721705 1.493214831804279e-06 0.001721676701070333 0.01204277761850151 0.004015254682721705 0.00516204367354739 0.009175805141437293 0.002868465691896019 0.004588649178134548 1.493214831804279e-06 1.493214831804279e-06 0.002295071196483176 1.493214831804279e-06 0.003441860187308862 1.493214831804279e-06 1.493214831804279e-06 1.493214831804279e-06 1.493214831804279e-06 0.00688222715978592 0.00114828220565749 1.493214831804279e-06 1.493214831804279e-06 0.0005748877102446473 1.493214831804279e-06 0.00688222715978592 1.493214831804279e-06 1.493214831804279e-06 0.0005748877102446473 1.493214831804279e-06 1.493214831804279e-06 1.493214831804279e-06 0.01261617211391435 1.493214831804279e-06 1.493214831804279e-06 0.008029016150611606 0.002295071196483176 0.02637764000382258 1.493214831804279e-06 0.003441860187308862 0.007455621655198762 1.493214831804279e-06 1.493214831804279e-06 1.493214831804279e-06 1.493214831804279e-06 0.04357947486620788 0.0005748877102446473 0.001721676701070333 0.002295071196483176 1.493214831804279e-06 0.004588649178134548 1.493214831804279e-06 1.493214831804279e-06 0.00114828220565749 0.001721676701070333 0.00114828220565749 0.00516204367354739 0.006308832664373077 0.00688222715978592 0.005735438168960234 0.0005748877102446473 1.493214831804279e-06 1.493214831804279e-06 1.493214831804279e-06 0.001721676701070333 1.493214831804279e-06 1.493214831804279e-06 0.01490975009556572 0.02523085101299689 0.004588649178134548 0.01032259413226298 0.01376296110474004 0.01548314459097857 1.493214831804279e-06 1.493214831804279e-06 0.0005748877102446473 1.493214831804279e-06 0.0005748877102446473 0.001721676701070333 1.493214831804279e-06 0.0005748877102446473 1.493214831804279e-06 1.493214831804279e-06 1.493214831804279e-06 1.493214831804279e-06 1.493214831804279e-06 1.493214831804279e-06 1.493214831804279e-06 1.493214831804279e-06 1.493214831804279e-06 1.493214831804279e-06 1.493214831804279e-06 0.004015254682721705 0.001721676701070333 0.002868465691896019 0.001721676701070333 0.0005748877102446473 0.001721676701070333 0.002295071196483176 0.001721676701070333 1.493214831804279e-06 1.493214831804279e-06 0.001721676701070333 1.493214831804279e-06 1.493214831804279e-06 1.493214831804279e-06 1.493214831804279e-06 1.493214831804279e-06 1.493214831804279e-06 1.493214831804279e-06 0.00114828220565749 0.003441860187308862 0.003441860187308862 1.493214831804279e-06 0.005735438168960234 0.01548314459097857 1.493214831804279e-06 1.493214831804279e-06 1.493214831804279e-06 0.01376296110474004 1.493214831804279e-06 1.493214831804279e-06 0.002868465691896019 0.003441860187308862 0.008029016150611606 0.01032259413226298 0.01146938312308866 0.004588649178134548 1.493214831804279e-06 0.002295071196483176 0.004588649178134548 0.003441860187308862 0.001721676701070333 0.01032259413226298 0.003441860187308862 0.00114828220565749 0.00688222715978592 1.493214831804279e-06 0.0005748877102446473 1.493214831804279e-06 1.493214831804279e-06 1.493214831804279e-06 1.493214831804279e-06 1.493214831804279e-06 1.493214831804279e-06 1.493214831804279e-06 1.493214831804279e-06 1.493214831804279e-06 1.493214831804279e-06 1.493214831804279e-06 0.0005748877102446473 1.493214831804279e-06 1.493214831804279e-06 1.493214831804279e-06 1.493214831804279e-06 1.493214831804279e-06 0.01146938312308866 0.001721676701070333 1.493214831804279e-06 1.493214831804279e-06 1.493214831804279e-06 1.493214831804279e-06 1.493214831804279e-06 0.01146938312308866 1.493214831804279e-06 1.493214831804279e-06 1.493214831804279e-06 1.493214831804279e-06 1.493214831804279e-06 1.493214831804279e-06 1.493214831804279e-06 1.493214831804279e-06 1.493214831804279e-06 0.003441860187308862 1.493214831804279e-06 1.493214831804279e-06 1.493214831804279e-06 1.493214831804279e-06 1.493214831804279e-06 1.493214831804279e-06 0.003441860187308862 1.493214831804279e-06 0.001721676701070333 0.002295071196483176 1.493214831804279e-06 1.493214831804279e-06 0.01318956660932719 1.493214831804279e-06 0.01490975009556572 1.493214831804279e-06 0.002295071196483176 0.003441860187308862 0.003441860187308862 1.493214831804279e-06 1.493214831804279e-06 1.493214831804279e-06 1.493214831804279e-06 1.493214831804279e-06 0.002295071196483176 0.007455621655198762 1.493214831804279e-06 1.493214831804279e-06 1.493214831804279e-06 1.493214831804279e-06 1.493214831804279e-06 1.493214831804279e-06 0.00114828220565749 1.493214831804279e-06 0.002295071196483176 0.002295071196483176 1.493214831804279e-06 1.493214831804279e-06 1.493214831804279e-06 0.002868465691896019 0.005735438168960234 1.493214831804279e-06 0.003441860187308862 1.493214831804279e-06 1.493214831804279e-06 1.493214831804279e-06 0.006308832664373077 0.003441860187308862 0.004588649178134548 0.0005748877102446473 0.01032259413226298 1.493214831804279e-06 0.003441860187308862 0.009175805141437293 1.493214831804279e-06 1.493214831804279e-06 0.004015254682721705 1.493214831804279e-06 1.493214831804279e-06 1.493214831804279e-06 0.00516204367354739 0.004588649178134548 0.01089598862767582 0.003441860187308862 0.008029016150611606 0.005735438168960234 1.493214831804279e-06 1.493214831804279e-06 0.002868465691896019 0.009749199636850135 0.0005748877102446473 0.01605653908639141 0.004015254682721705 1.493214831804279e-06 1.493214831804279e-06 1.493214831804279e-06 0.01376296110474004 0.002295071196483176 0.001721676701070333 1.493214831804279e-06 1.493214831804279e-06 1.493214831804279e-06 0.009749199636850135 0.007455621655198762 0.003441860187308862 1.493214831804279e-06 1.493214831804279e-06 0.008602410646024449 0.0005748877102446473 1.493214831804279e-06 1.493214831804279e-06 1.493214831804279e-06 1.493214831804279e-06 1.493214831804279e-06 1.493214831804279e-06 1.493214831804279e-06 1.493214831804279e-06 0.02236387853593268 1.493214831804279e-06 1.493214831804279e-06 0.008029016150611606 1.493214831804279e-06 0.00114828220565749 1.493214831804279e-06 1.493214831804279e-06 0.0005748877102446473 0.02579863745574101 0.01517648267577137 1.975847243297925e-06 0.003795602554375315 1.975847243297925e-06 1.975847243297925e-06 1.975847243297925e-06 0.01517648267577137 1.975847243297925e-06 1.975847243297925e-06 0.006071778578654524 0.006071778578654524 0.003036877212948911 0.0007607011886697013 1.975847243297925e-06 1.975847243297925e-06 0.002278151871522508 0.004554327895801718 0.002278151871522508 1.975847243297925e-06 0.01441775733434496 0.006830503920080927 1.975847243297925e-06 0.005313053237228122 0.006830503920080927 1.975847243297925e-06 1.975847243297925e-06 0.004554327895801718 1.975847243297925e-06 0.01972883472432978 0.002278151871522508 0.003795602554375315 0.01593520801719777 0.0007607011886697013 1.975847243297925e-06 1.975847243297925e-06 1.975847243297925e-06 0.002278151871522508 0.01365903199291856 1.975847243297925e-06 0.003036877212948911 0.003795602554375315 1.975847243297925e-06 1.975847243297925e-06 1.975847243297925e-06 1.975847243297925e-06 1.975847243297925e-06 1.975847243297925e-06 1.975847243297925e-06 0.02124628540718259 1.975847243297925e-06 1.975847243297925e-06 1.975847243297925e-06 1.975847243297925e-06 0.003036877212948911 1.975847243297925e-06 1.975847243297925e-06 1.975847243297925e-06 1.975847243297925e-06 1.975847243297925e-06 1.975847243297925e-06 1.975847243297925e-06 0.001519426530096105 1.975847243297925e-06 0.006071778578654524 0.01138285596863935 1.975847243297925e-06 1.975847243297925e-06 1.975847243297925e-06 1.975847243297925e-06 1.975847243297925e-06 0.004554327895801718 0.005313053237228122 1.975847243297925e-06 1.975847243297925e-06 0.002278151871522508 0.009865405285786541 0.004554327895801718 0.01062413062721294 1.975847243297925e-06 1.975847243297925e-06 0.002278151871522508 0.009865405285786541 1.975847243297925e-06 1.975847243297925e-06 1.975847243297925e-06 1.975847243297925e-06 1.975847243297925e-06 0.0007607011886697013 0.0007607011886697013 1.975847243297925e-06 0.002278151871522508 0.0007607011886697013 0.003036877212948911 1.975847243297925e-06 0.004554327895801718 1.975847243297925e-06 0.009106679944360138 0.008347954602933734 1.975847243297925e-06 0.009865405285786541 1.975847243297925e-06 1.975847243297925e-06 1.975847243297925e-06 0.009865405285786541 1.975847243297925e-06 0.0007607011886697013 1.975847243297925e-06 0.002278151871522508 1.975847243297925e-06 1.975847243297925e-06 1.975847243297925e-06 0.003795602554375315 0.001519426530096105 0.0007607011886697013 0.003036877212948911 1.975847243297925e-06 1.975847243297925e-06 0.007589229261507331 0.008347954602933734 1.975847243297925e-06 0.003036877212948911 0.003036877212948911 1.975847243297925e-06 1.975847243297925e-06 1.975847243297925e-06 0.006071778578654524 0.01365903199291856 0.003795602554375315 0.004554327895801718 1.975847243297925e-06 1.975847243297925e-06 0.003795602554375315 0.003036877212948911 1.975847243297925e-06 1.975847243297925e-06 1.975847243297925e-06 0.006830503920080927 1.975847243297925e-06 1.975847243297925e-06 0.0007607011886697013 0.003036877212948911 0.007589229261507331 1.975847243297925e-06 1.975847243297925e-06 1.975847243297925e-06 0.001519426530096105 1.975847243297925e-06 1.975847243297925e-06 1.975847243297925e-06 0.003795602554375315 1.975847243297925e-06 0.01138285596863935 1.975847243297925e-06 1.975847243297925e-06 0.004554327895801718 0.002278151871522508 1.975847243297925e-06 1.975847243297925e-06 0.002278151871522508 1.975847243297925e-06 1.975847243297925e-06 0.004554327895801718 1.975847243297925e-06 1.975847243297925e-06 0.001519426530096105 0.005313053237228122 0.001519426530096105 0.001519426530096105 0.003795602554375315 1.975847243297925e-06 1.975847243297925e-06 1.975847243297925e-06 1.975847243297925e-06 1.975847243297925e-06 0.003036877212948911 1.975847243297925e-06 0.001519426530096105 1.975847243297925e-06 1.975847243297925e-06 0.005313053237228122 1.975847243297925e-06 1.975847243297925e-06 1.975847243297925e-06 1.975847243297925e-06 0.006830503920080927 1.975847243297925e-06 0.004554327895801718 1.975847243297925e-06 1.975847243297925e-06 1.975847243297925e-06 1.975847243297925e-06 1.975847243297925e-06 1.975847243297925e-06 1.975847243297925e-06 1.975847243297925e-06 1.975847243297925e-06 1.975847243297925e-06 1.975847243297925e-06 1.975847243297925e-06 0.008347954602933734 1.975847243297925e-06 1.975847243297925e-06 1.975847243297925e-06 1.975847243297925e-06 1.975847243297925e-06 1.975847243297925e-06 1.975847243297925e-06 0.01062413062721294 0.004554327895801718 1.975847243297925e-06 0.006071778578654524 0.009106679944360138 0.0007607011886697013 1.975847243297925e-06 1.975847243297925e-06 0.01593520801719777 0.0007607011886697013 0.002278151871522508 0.0007607011886697013 1.975847243297925e-06 1.975847243297925e-06 1.975847243297925e-06 1.975847243297925e-06 0.009106679944360138 0.003795602554375315 0.002278151871522508 1.975847243297925e-06 0.004554327895801718 1.975847243297925e-06 1.975847243297925e-06 0.003036877212948911 1.975847243297925e-06 0.002278151871522508 0.01290030665149216 0.02959226416287303 1.975847243297925e-06 1.975847243297925e-06 1.975847243297925e-06 0.0007607011886697013 1.975847243297925e-06 1.975847243297925e-06 0.009865405285786541 0.001519426530096105 0.003795602554375315 0.01290030665149216 1.975847243297925e-06 0.005313053237228122 1.975847243297925e-06 1.975847243297925e-06 0.004554327895801718 0.006071778578654524 0.001519426530096105 1.975847243297925e-06 0.0007607011886697013 1.975847243297925e-06 1.975847243297925e-06 1.975847243297925e-06 0.002278151871522508 1.975847243297925e-06 0.003036877212948911 0.001519426530096105 0.001519426530096105 0.001519426530096105 0.002278151871522508 1.975847243297925e-06 1.975847243297925e-06 1.975847243297925e-06 1.975847243297925e-06 0.004554327895801718 0.004554327895801718 0.002278151871522508 0.002278151871522508 1.975847243297925e-06 0.005313053237228122 0.002278151871522508 1.975847243297925e-06 0.001519426530096105 1.975847243297925e-06 0.01365903199291856 1.975847243297925e-06 1.975847243297925e-06 0.002278151871522508 1.975847243297925e-06 0.01441775733434496 0.004554327895801718 1.975847243297925e-06 0.006071778578654524 1.975847243297925e-06 1.975847243297925e-06 1.975847243297925e-06 0.006830503920080927 1.975847243297925e-06 0.006830503920080927 0.001519426530096105 0.02124628540718259 0.01821138404147698 0.01821138404147698 0.002278151871522508 0.005313053237228122 0.003795602554375315 1.975847243297925e-06 1.975847243297925e-06 1.975847243297925e-06 1.975847243297925e-06 1.975847243297925e-06 1.975847243297925e-06 1.975847243297925e-06 1.975847243297925e-06 1.975847243297925e-06 1.975847243297925e-06 1.975847243297925e-06 1.975847243297925e-06 0.007589229261507331 0.003036877212948911 0.002278151871522508 0.0007607011886697013 0.009865405285786541 0.004554327895801718 1.975847243297925e-06 1.975847243297925e-06 1.975847243297925e-06 1.975847243297925e-06 1.975847243297925e-06 1.975847243297925e-06 0.003036877212948911 1.975847243297925e-06 1.975847243297925e-06 0.01290030665149216 1.975847243297925e-06 1.975847243297925e-06 0.001519426530096105 1.975847243297925e-06 0.003036877212948911 1.975847243297925e-06 1.975847243297925e-06 1.975847243297925e-06 1.975847243297925e-06 0.006830503920080927 0.003036877212948911 0.007589229261507331 1.975847243297925e-06 0.009106679944360138 1.975847243297925e-06 0.0007607011886697013 0.002278151871522508 0.01365903199291856 1.975847243297925e-06 0.003036877212948911 1.975847243297925e-06 0.0007607011886697013 0.001519426530096105 1.975847243297925e-06 1.975847243297925e-06 1.975847243297925e-06 1.975847243297925e-06 0.002278151871522508 0.009106679944360138 0.002278151871522508 0.003036877212948911 1.975847243297925e-06 0.01062413062721294 0.004554327895801718 1.975847243297925e-06 1.975847243297925e-06 0.007589229261507331 0.003795602554375315 0.006830503920080927 1.975847243297925e-06 1.975847243297925e-06 1.975847243297925e-06 0.0007607011886697013 0.01972883472432978 0.009865405285786541 0.001519426530096105 1.975847243297925e-06 0.0007607011886697013 1.975847243297925e-06 1.975847243297925e-06 1.975847243297925e-06 0.003036877212948911 1.975847243297925e-06 1.975847243297925e-06 1.975847243297925e-06 0.01383486053480867 0.006919231212540344 0.004152979483633012 0.005536105348086678 0.01521798639926234 3.601890272014755e-06 3.601890272014755e-06 0.01383486053480867 0.002769853619179346 3.601890272014755e-06 3.601890272014755e-06 3.601890272014755e-06 3.601890272014755e-06 3.601890272014755e-06 3.601890272014755e-06 3.601890272014755e-06 0.006919231212540344 3.601890272014755e-06 3.601890272014755e-06 3.601890272014755e-06 0.02766611917934533 0.03596487436606733 3.601890272014755e-06 3.601890272014755e-06 3.601890272014755e-06 3.601890272014755e-06 3.601890272014755e-06 3.601890272014755e-06 3.601890272014755e-06 3.601890272014755e-06 3.601890272014755e-06 3.601890272014755e-06 3.601890272014755e-06 3.601890272014755e-06 0.004152979483633012 3.601890272014755e-06 3.601890272014755e-06 3.601890272014755e-06 0.01383486053480867 3.601890272014755e-06 0.004152979483633012 3.601890272014755e-06 3.601890272014755e-06 3.601890272014755e-06 3.601890272014755e-06 3.601890272014755e-06 3.601890272014755e-06 0.004152979483633012 3.601890272014755e-06 0.002769853619179346 3.601890272014755e-06 3.601890272014755e-06 3.601890272014755e-06 3.601890272014755e-06 0.004152979483633012 0.004152979483633012 3.601890272014755e-06 3.601890272014755e-06 3.601890272014755e-06 0.005536105348086678 3.601890272014755e-06 3.601890272014755e-06 3.601890272014755e-06 3.601890272014755e-06 0.002769853619179346 3.601890272014755e-06 3.601890272014755e-06 3.601890272014755e-06 0.002769853619179346 3.601890272014755e-06 0.020750489857077 0.01660111226371601 0.020750489857077 3.601890272014755e-06 3.601890272014755e-06 3.601890272014755e-06 0.001386727754725681 0.004152979483633012 0.006919231212540344 0.01521798639926234 3.601890272014755e-06 3.601890272014755e-06 3.601890272014755e-06 3.601890272014755e-06 3.601890272014755e-06 3.601890272014755e-06 3.601890272014755e-06 0.005536105348086678 3.601890272014755e-06 3.601890272014755e-06 3.601890272014755e-06 3.601890272014755e-06 3.601890272014755e-06 3.601890272014755e-06 3.601890272014755e-06 3.601890272014755e-06 3.601890272014755e-06 3.601890272014755e-06 3.601890272014755e-06 3.601890272014755e-06 0.009685482941447675 3.601890272014755e-06 3.601890272014755e-06 3.601890272014755e-06 0.001386727754725681 3.601890272014755e-06 3.601890272014755e-06 3.601890272014755e-06 3.601890272014755e-06 3.601890272014755e-06 3.601890272014755e-06 3.601890272014755e-06 3.601890272014755e-06 3.601890272014755e-06 0.009685482941447675 0.002769853619179346 3.601890272014755e-06 3.601890272014755e-06 3.601890272014755e-06 0.002769853619179346 0.002769853619179346 0.001386727754725681 0.002769853619179346 3.601890272014755e-06 3.601890272014755e-06 0.00830235707699401 0.01245173467035501 0.005536105348086678 3.601890272014755e-06 3.601890272014755e-06 3.601890272014755e-06 3.601890272014755e-06 0.004152979483633012 3.601890272014755e-06 0.005536105348086678 3.601890272014755e-06 3.601890272014755e-06 3.601890272014755e-06 3.601890272014755e-06 3.601890272014755e-06 3.601890272014755e-06 3.601890272014755e-06 3.601890272014755e-06 3.601890272014755e-06 3.601890272014755e-06 0.004152979483633012 0.002769853619179346 0.00830235707699401 3.601890272014755e-06 3.601890272014755e-06 0.001386727754725681 3.601890272014755e-06 0.004152979483633012 0.00830235707699401 3.601890272014755e-06 3.601890272014755e-06 0.001386727754725681 3.601890272014755e-06 3.601890272014755e-06 3.601890272014755e-06 3.601890272014755e-06 3.601890272014755e-06 3.601890272014755e-06 3.601890272014755e-06 3.601890272014755e-06 3.601890272014755e-06 0.001386727754725681 0.001386727754725681 3.601890272014755e-06 0.001386727754725681 0.004152979483633012 3.601890272014755e-06 3.601890272014755e-06 3.601890272014755e-06 3.601890272014755e-06 3.601890272014755e-06 3.601890272014755e-06 3.601890272014755e-06 0.001386727754725681 3.601890272014755e-06 3.601890272014755e-06 3.601890272014755e-06 3.601890272014755e-06 3.601890272014755e-06 3.601890272014755e-06 3.601890272014755e-06 0.004152979483633012 3.601890272014755e-06 0.01383486053480867 0.002769853619179346 3.601890272014755e-06 0.00830235707699401 0.002769853619179346 3.601890272014755e-06 0.01106860880590134 0.004152979483633012 3.601890272014755e-06 3.601890272014755e-06 3.601890272014755e-06 3.601890272014755e-06 3.601890272014755e-06 3.601890272014755e-06 3.601890272014755e-06 3.601890272014755e-06 3.601890272014755e-06 3.601890272014755e-06 3.601890272014755e-06 3.601890272014755e-06 0.00830235707699401 0.004152979483633012 0.00830235707699401 0.01106860880590134 0.01106860880590134 3.601890272014755e-06 3.601890272014755e-06 3.601890272014755e-06 0.001386727754725681 0.002769853619179346 3.601890272014755e-06 3.601890272014755e-06 3.601890272014755e-06 3.601890272014755e-06 3.601890272014755e-06 3.601890272014755e-06 3.601890272014755e-06 3.601890272014755e-06 3.601890272014755e-06 3.601890272014755e-06 3.601890272014755e-06 3.601890272014755e-06 3.601890272014755e-06 3.601890272014755e-06 3.601890272014755e-06 3.601890272014755e-06 0.004152979483633012 0.004152979483633012 3.601890272014755e-06 3.601890272014755e-06 3.601890272014755e-06 3.601890272014755e-06 3.601890272014755e-06 0.004152979483633012 3.601890272014755e-06 3.601890272014755e-06 0.01660111226371601 0.02628299331489167 0.005536105348086678 0.01521798639926234 0.006919231212540344 0.01383486053480867 3.601890272014755e-06 3.601890272014755e-06 0.01106860880590134 0.00830235707699401 3.601890272014755e-06 0.006919231212540344 3.601890272014755e-06 3.601890272014755e-06 0.020750489857077 3.601890272014755e-06 3.601890272014755e-06 3.601890272014755e-06 3.601890272014755e-06 3.601890272014755e-06 0.004152979483633012 3.601890272014755e-06 3.601890272014755e-06 3.601890272014755e-06 3.601890272014755e-06 3.601890272014755e-06 3.601890272014755e-06 0.01106860880590134 0.004152979483633012 0.006919231212540344 3.601890272014755e-06 0.004152979483633012 0.00830235707699401 3.601890272014755e-06 0.002769853619179346 0.01245173467035501 0.001386727754725681 3.601890272014755e-06 0.006919231212540344 0.004152979483633012 0.009685482941447675 0.006919231212540344 3.601890272014755e-06 0.005536105348086678 0.001386727754725681 3.601890272014755e-06 3.601890272014755e-06 0.01106860880590134 3.601890272014755e-06 3.601890272014755e-06 3.601890272014755e-06 3.601890272014755e-06 0.029049245043799 0.01383486053480867 0.005536105348086678 0.02213361572153067 0.01106860880590134 3.601890272014755e-06 3.601890272014755e-06 3.601890272014755e-06 0.005536105348086678 3.601890272014755e-06 3.601890272014755e-06 3.601890272014755e-06 3.601890272014755e-06 3.601890272014755e-06 3.601890272014755e-06 3.601890272014755e-06 3.601890272014755e-06 0.005536105348086678 0.001386727754725681 3.601890272014755e-06 3.601890272014755e-06 3.601890272014755e-06 3.601890272014755e-06 3.601890272014755e-06 3.601890272014755e-06 3.601890272014755e-06 0.001386727754725681 0.004152979483633012 3.601890272014755e-06 3.601890272014755e-06 3.601890272014755e-06 3.601890272014755e-06 0.004152979483633012 3.601890272014755e-06 3.601890272014755e-06 3.601890272014755e-06 0.004152979483633012 0.02351674158598433 3.601890272014755e-06 0.006919231212540344 3.601890272014755e-06 3.601890272014755e-06 3.601890272014755e-06 3.601890272014755e-06 3.601890272014755e-06 3.601890272014755e-06 3.601890272014755e-06 3.601890272014755e-06 0.01245173467035501 3.601890272014755e-06 0.004152979483633012 3.601890272014755e-06 3.601890272014755e-06 3.601890272014755e-06 3.601890272014755e-06 0.005536105348086678 3.601890272014755e-06 0.005536105348086678 3.601890272014755e-06 3.601890272014755e-06 3.601890272014755e-06 0.01106860880590134 0.004152979483633012 3.601890272014755e-06 3.601890272014755e-06 3.601890272014755e-06 3.601890272014755e-06 3.601890272014755e-06 3.601890272014755e-06 3.601890272014755e-06 3.601890272014755e-06 0.004152979483633012 0.006919231212540344 3.601890272014755e-06 3.601890272014755e-06 3.601890272014755e-06 0.03873112609497466 0.006919231212540344 0.01383486053480867 3.601890272014755e-06 0.004152979483633012 0.01245173467035501 3.601890272014755e-06 3.601890272014755e-06 3.601890272014755e-06 0.004152979483633012 0.005536105348086678 3.601890272014755e-06 1.0093669250646e-05 1.0093669250646e-05 1.0093669250646e-05 1.0093669250646e-05 0.04264575258397935 1.0093669250646e-05 1.0093669250646e-05 1.0093669250646e-05 1.0093669250646e-05 1.0093669250646e-05 1.0093669250646e-05 1.0093669250646e-05 1.0093669250646e-05 1.0093669250646e-05 0.01163800064599484 1.0093669250646e-05 1.0093669250646e-05 1.0093669250646e-05 1.0093669250646e-05 1.0093669250646e-05 1.0093669250646e-05 1.0093669250646e-05 0.01551396963824291 1.0093669250646e-05 1.0093669250646e-05 1.0093669250646e-05 1.0093669250646e-05 1.0093669250646e-05 1.0093669250646e-05 1.0093669250646e-05 1.0093669250646e-05 1.0093669250646e-05 1.0093669250646e-05 1.0093669250646e-05 0.01163800064599484 1.0093669250646e-05 1.0093669250646e-05 1.0093669250646e-05 1.0093669250646e-05 1.0093669250646e-05 1.0093669250646e-05 1.0093669250646e-05 1.0093669250646e-05 1.0093669250646e-05 1.0093669250646e-05 1.0093669250646e-05 0.01551396963824291 0.01163800064599484 0.003886062661498711 1.0093669250646e-05 1.0093669250646e-05 1.0093669250646e-05 1.0093669250646e-05 1.0093669250646e-05 1.0093669250646e-05 0.01163800064599484 1.0093669250646e-05 1.0093669250646e-05 1.0093669250646e-05 1.0093669250646e-05 1.0093669250646e-05 1.0093669250646e-05 1.0093669250646e-05 1.0093669250646e-05 1.0093669250646e-05 1.0093669250646e-05 1.0093669250646e-05 1.0093669250646e-05 0.03876978359173129 1.0093669250646e-05 0.08915738049095613 1.0093669250646e-05 1.0093669250646e-05 1.0093669250646e-05 1.0093669250646e-05 1.0093669250646e-05 1.0093669250646e-05 1.0093669250646e-05 1.0093669250646e-05 0.09690931847545227 1.0093669250646e-05 1.0093669250646e-05 1.0093669250646e-05 1.0093669250646e-05 1.0093669250646e-05 1.0093669250646e-05 1.0093669250646e-05 0.01551396963824291 1.0093669250646e-05 1.0093669250646e-05 1.0093669250646e-05 1.0093669250646e-05 1.0093669250646e-05 1.0093669250646e-05 1.0093669250646e-05 1.0093669250646e-05 0.003886062661498711 1.0093669250646e-05 1.0093669250646e-05 1.0093669250646e-05 1.0093669250646e-05 1.0093669250646e-05 1.0093669250646e-05 1.0093669250646e-05 1.0093669250646e-05 1.0093669250646e-05 1.0093669250646e-05 1.0093669250646e-05 1.0093669250646e-05 1.0093669250646e-05 1.0093669250646e-05 1.0093669250646e-05 1.0093669250646e-05 1.0093669250646e-05 1.0093669250646e-05 1.0093669250646e-05 1.0093669250646e-05 1.0093669250646e-05 1.0093669250646e-05 1.0093669250646e-05 0.003886062661498711 1.0093669250646e-05 1.0093669250646e-05 1.0093669250646e-05 1.0093669250646e-05 0.007762031653746775 1.0093669250646e-05 1.0093669250646e-05 1.0093669250646e-05 1.0093669250646e-05 1.0093669250646e-05 0.01163800064599484 1.0093669250646e-05 1.0093669250646e-05 0.003886062661498711 1.0093669250646e-05 1.0093669250646e-05 1.0093669250646e-05 1.0093669250646e-05 1.0093669250646e-05 1.0093669250646e-05 1.0093669250646e-05 1.0093669250646e-05 1.0093669250646e-05 1.0093669250646e-05 0.003886062661498711 1.0093669250646e-05 0.01938993863049097 0.01163800064599484 1.0093669250646e-05 1.0093669250646e-05 1.0093669250646e-05 1.0093669250646e-05 1.0093669250646e-05 1.0093669250646e-05 1.0093669250646e-05 1.0093669250646e-05 1.0093669250646e-05 1.0093669250646e-05 1.0093669250646e-05 1.0093669250646e-05 1.0093669250646e-05 1.0093669250646e-05 1.0093669250646e-05 1.0093669250646e-05 1.0093669250646e-05 1.0093669250646e-05 1.0093669250646e-05 1.0093669250646e-05 1.0093669250646e-05 1.0093669250646e-05 1.0093669250646e-05 1.0093669250646e-05 1.0093669250646e-05 1.0093669250646e-05 1.0093669250646e-05 1.0093669250646e-05 1.0093669250646e-05 0.003886062661498711 1.0093669250646e-05 1.0093669250646e-05 1.0093669250646e-05 1.0093669250646e-05 1.0093669250646e-05 1.0093669250646e-05 1.0093669250646e-05 0.02326590762273903 1.0093669250646e-05 0.003886062661498711 1.0093669250646e-05 0.01163800064599484 1.0093669250646e-05 1.0093669250646e-05 0.003886062661498711 0.003886062661498711 0.003886062661498711 1.0093669250646e-05 1.0093669250646e-05 1.0093669250646e-05 1.0093669250646e-05 1.0093669250646e-05 1.0093669250646e-05 1.0093669250646e-05 1.0093669250646e-05 1.0093669250646e-05 1.0093669250646e-05 1.0093669250646e-05 1.0093669250646e-05 1.0093669250646e-05 1.0093669250646e-05 1.0093669250646e-05 0.007762031653746775 1.0093669250646e-05 1.0093669250646e-05 1.0093669250646e-05 1.0093669250646e-05 1.0093669250646e-05 1.0093669250646e-05 1.0093669250646e-05 1.0093669250646e-05 0.01551396963824291 1.0093669250646e-05 1.0093669250646e-05 1.0093669250646e-05 1.0093669250646e-05 1.0093669250646e-05 1.0093669250646e-05 1.0093669250646e-05 1.0093669250646e-05 1.0093669250646e-05 1.0093669250646e-05 1.0093669250646e-05 1.0093669250646e-05 1.0093669250646e-05 1.0093669250646e-05 1.0093669250646e-05 1.0093669250646e-05 1.0093669250646e-05 1.0093669250646e-05 1.0093669250646e-05 1.0093669250646e-05 1.0093669250646e-05 1.0093669250646e-05 1.0093669250646e-05 0.01163800064599484 1.0093669250646e-05 0.007762031653746775 1.0093669250646e-05 0.03101784560723516 0.01163800064599484 1.0093669250646e-05 1.0093669250646e-05 1.0093669250646e-05 1.0093669250646e-05 1.0093669250646e-05 0.003886062661498711 1.0093669250646e-05 1.0093669250646e-05 0.03876978359173129 0.01163800064599484 1.0093669250646e-05 1.0093669250646e-05 1.0093669250646e-05 1.0093669250646e-05 1.0093669250646e-05 1.0093669250646e-05 1.0093669250646e-05 1.0093669250646e-05 1.0093669250646e-05 1.0093669250646e-05 1.0093669250646e-05 1.0093669250646e-05 1.0093669250646e-05 0.007762031653746775 1.0093669250646e-05 1.0093669250646e-05 0.02326590762273903 1.0093669250646e-05 0.02326590762273903 0.003886062661498711 1.0093669250646e-05 1.0093669250646e-05 1.0093669250646e-05 0.003886062661498711 1.0093669250646e-05 1.0093669250646e-05 1.0093669250646e-05 1.0093669250646e-05 1.0093669250646e-05 1.0093669250646e-05 1.0093669250646e-05 1.0093669250646e-05 1.0093669250646e-05 1.0093669250646e-05 1.0093669250646e-05 1.0093669250646e-05 1.0093669250646e-05 1.0093669250646e-05 1.0093669250646e-05 0.02326590762273903 1.0093669250646e-05 0.01163800064599484 1.0093669250646e-05 1.0093669250646e-05 0.03101784560723516 0.02326590762273903 1.0093669250646e-05 1.0093669250646e-05 0.003886062661498711 1.0093669250646e-05 1.0093669250646e-05 1.0093669250646e-05 1.0093669250646e-05 1.0093669250646e-05 1.0093669250646e-05 1.0093669250646e-05 1.0093669250646e-05 1.0093669250646e-05 1.0093669250646e-05 1.0093669250646e-05 1.0093669250646e-05 1.0093669250646e-05 0.003886062661498711 0.01163800064599484 1.0093669250646e-05 1.0093669250646e-05 1.0093669250646e-05 1.0093669250646e-05 1.0093669250646e-05 1.0093669250646e-05 1.0093669250646e-05 1.0093669250646e-05 0.01163800064599484 1.0093669250646e-05 1.0093669250646e-05 0.007762031653746775 1.0093669250646e-05 1.0093669250646e-05 1.0093669250646e-05 1.0093669250646e-05 1.0093669250646e-05 1.0093669250646e-05 1.0093669250646e-05 1.0093669250646e-05 0.0271418766149871 1.0093669250646e-05 1.0093669250646e-05 1.0093669250646e-05 1.0093669250646e-05 1.0093669250646e-05 1.0093669250646e-05 1.0093669250646e-05 0.007762031653746775 1.0093669250646e-05 1.0093669250646e-05 1.0093669250646e-05 1.0093669250646e-05 0.003886062661498711 1.0093669250646e-05 1.0093669250646e-05 1.0093669250646e-05 1.0093669250646e-05 1.0093669250646e-05 1.0093669250646e-05 1.0093669250646e-05 1.0093669250646e-05 1.0093669250646e-05 1.0093669250646e-05 0.007762031653746775 0.03489381459948322 0.02326590762273903 1.0093669250646e-05 1.0093669250646e-05 1.0093669250646e-05 0.01551396963824291 1.0093669250646e-05 0.007762031653746775 0.04264575258397935 1.0093669250646e-05 1.0093669250646e-05 1.0093669250646e-05 0.01163800064599484 1.0093669250646e-05 1.0093669250646e-05 2.578382838283826e-05 2.578382838283826e-05 2.578382838283826e-05 2.578382838283826e-05 0.009926773927392734 0.09903568481848177 2.578382838283826e-05 2.578382838283826e-05 2.578382838283826e-05 2.578382838283826e-05 2.578382838283826e-05 2.578382838283826e-05 2.578382838283826e-05 2.578382838283826e-05 2.578382838283826e-05 2.578382838283826e-05 2.578382838283826e-05 2.578382838283826e-05 2.578382838283826e-05 2.578382838283826e-05 2.578382838283826e-05 2.578382838283826e-05 2.578382838283826e-05 2.578382838283826e-05 2.578382838283826e-05 2.578382838283826e-05 2.578382838283826e-05 2.578382838283826e-05 2.578382838283826e-05 2.578382838283826e-05 2.578382838283826e-05 2.578382838283826e-05 2.578382838283826e-05 2.578382838283826e-05 0.01982776402640262 2.578382838283826e-05 2.578382838283826e-05 2.578382838283826e-05 2.578382838283826e-05 2.578382838283826e-05 2.578382838283826e-05 2.578382838283826e-05 2.578382838283826e-05 2.578382838283826e-05 2.578382838283826e-05 2.578382838283826e-05 0.01982776402640262 0.01982776402640262 2.578382838283826e-05 2.578382838283826e-05 2.578382838283826e-05 2.578382838283826e-05 2.578382838283826e-05 2.578382838283826e-05 2.578382838283826e-05 2.578382838283826e-05 0.03962974422442242 2.578382838283826e-05 2.578382838283826e-05 2.578382838283826e-05 2.578382838283826e-05 2.578382838283826e-05 2.578382838283826e-05 2.578382838283826e-05 2.578382838283826e-05 2.578382838283826e-05 2.578382838283826e-05 2.578382838283826e-05 0.01982776402640262 2.578382838283826e-05 0.03962974422442242 2.578382838283826e-05 2.578382838283826e-05 2.578382838283826e-05 2.578382838283826e-05 2.578382838283826e-05 2.578382838283826e-05 2.578382838283826e-05 2.578382838283826e-05 0.01982776402640262 2.578382838283826e-05 2.578382838283826e-05 2.578382838283826e-05 2.578382838283826e-05 2.578382838283826e-05 2.578382838283826e-05 2.578382838283826e-05 2.578382838283826e-05 2.578382838283826e-05 2.578382838283826e-05 2.578382838283826e-05 2.578382838283826e-05 2.578382838283826e-05 2.578382838283826e-05 2.578382838283826e-05 2.578382838283826e-05 0.04953073432343231 2.578382838283826e-05 2.578382838283826e-05 0.0594317244224422 2.578382838283826e-05 2.578382838283826e-05 2.578382838283826e-05 2.578382838283826e-05 2.578382838283826e-05 2.578382838283826e-05 2.578382838283826e-05 2.578382838283826e-05 2.578382838283826e-05 2.578382838283826e-05 2.578382838283826e-05 2.578382838283826e-05 2.578382838283826e-05 2.578382838283826e-05 2.578382838283826e-05 2.578382838283826e-05 2.578382838283826e-05 2.578382838283826e-05 2.578382838283826e-05 2.578382838283826e-05 2.578382838283826e-05 2.578382838283826e-05 2.578382838283826e-05 2.578382838283826e-05 2.578382838283826e-05 2.578382838283826e-05 2.578382838283826e-05 2.578382838283826e-05 2.578382838283826e-05 2.578382838283826e-05 0.02972875412541252 0.01982776402640262 2.578382838283826e-05 2.578382838283826e-05 0.01982776402640262 0.01982776402640262 2.578382838283826e-05 2.578382838283826e-05 0.009926773927392734 2.578382838283826e-05 2.578382838283826e-05 2.578382838283826e-05 2.578382838283826e-05 2.578382838283826e-05 2.578382838283826e-05 2.578382838283826e-05 2.578382838283826e-05 2.578382838283826e-05 2.578382838283826e-05 2.578382838283826e-05 2.578382838283826e-05 2.578382838283826e-05 2.578382838283826e-05 2.578382838283826e-05 2.578382838283826e-05 2.578382838283826e-05 2.578382838283826e-05 2.578382838283826e-05 2.578382838283826e-05 2.578382838283826e-05 2.578382838283826e-05 2.578382838283826e-05 2.578382838283826e-05 2.578382838283826e-05 2.578382838283826e-05 2.578382838283826e-05 2.578382838283826e-05 2.578382838283826e-05 2.578382838283826e-05 2.578382838283826e-05 2.578382838283826e-05 2.578382838283826e-05 2.578382838283826e-05 2.578382838283826e-05 2.578382838283826e-05 2.578382838283826e-05 2.578382838283826e-05 2.578382838283826e-05 2.578382838283826e-05 2.578382838283826e-05 2.578382838283826e-05 2.578382838283826e-05 2.578382838283826e-05 0.009926773927392734 2.578382838283826e-05 2.578382838283826e-05 0.009926773927392734 2.578382838283826e-05 2.578382838283826e-05 2.578382838283826e-05 2.578382838283826e-05 2.578382838283826e-05 2.578382838283826e-05 0.04953073432343231 2.578382838283826e-05 0.02972875412541252 2.578382838283826e-05 2.578382838283826e-05 2.578382838283826e-05 2.578382838283826e-05 2.578382838283826e-05 2.578382838283826e-05 2.578382838283826e-05 2.578382838283826e-05 2.578382838283826e-05 2.578382838283826e-05 2.578382838283826e-05 2.578382838283826e-05 2.578382838283826e-05 2.578382838283826e-05 2.578382838283826e-05 2.578382838283826e-05 2.578382838283826e-05 2.578382838283826e-05 2.578382838283826e-05 2.578382838283826e-05 2.578382838283826e-05 2.578382838283826e-05 2.578382838283826e-05 2.578382838283826e-05 0.1386396452145214 2.578382838283826e-05 2.578382838283826e-05 2.578382838283826e-05 2.578382838283826e-05 2.578382838283826e-05 2.578382838283826e-05 2.578382838283826e-05 2.578382838283826e-05 2.578382838283826e-05 2.578382838283826e-05 2.578382838283826e-05 2.578382838283826e-05 2.578382838283826e-05 2.578382838283826e-05 2.578382838283826e-05 2.578382838283826e-05 2.578382838283826e-05 2.578382838283826e-05 2.578382838283826e-05 2.578382838283826e-05 2.578382838283826e-05 2.578382838283826e-05 2.578382838283826e-05 2.578382838283826e-05 2.578382838283826e-05 2.578382838283826e-05 2.578382838283826e-05 0.01982776402640262 2.578382838283826e-05 2.578382838283826e-05 2.578382838283826e-05 2.578382838283826e-05 2.578382838283826e-05 2.578382838283826e-05 2.578382838283826e-05 2.578382838283826e-05 2.578382838283826e-05 2.578382838283826e-05 0.06933271452145209 2.578382838283826e-05 2.578382838283826e-05 2.578382838283826e-05 2.578382838283826e-05 2.578382838283826e-05 2.578382838283826e-05 2.578382838283826e-05 2.578382838283826e-05 2.578382838283826e-05 2.578382838283826e-05 2.578382838283826e-05 2.578382838283826e-05 2.578382838283826e-05 2.578382838283826e-05 2.578382838283826e-05 2.578382838283826e-05 2.578382838283826e-05 2.578382838283826e-05 0.009926773927392734 2.578382838283826e-05 2.578382838283826e-05 2.578382838283826e-05 2.578382838283826e-05 2.578382838283826e-05 2.578382838283826e-05 2.578382838283826e-05 2.578382838283826e-05 2.578382838283826e-05 2.578382838283826e-05 2.578382838283826e-05 2.578382838283826e-05 2.578382838283826e-05 2.578382838283826e-05 2.578382838283826e-05 2.578382838283826e-05 2.578382838283826e-05 2.578382838283826e-05 2.578382838283826e-05 2.578382838283826e-05 2.578382838283826e-05 2.578382838283826e-05 0.01982776402640262 2.578382838283826e-05 2.578382838283826e-05 2.578382838283826e-05 2.578382838283826e-05 2.578382838283826e-05 2.578382838283826e-05 0.009926773927392734 0.009926773927392734 2.578382838283826e-05 2.578382838283826e-05 2.578382838283826e-05 2.578382838283826e-05 2.578382838283826e-05 2.578382838283826e-05 2.578382838283826e-05 2.578382838283826e-05 2.578382838283826e-05 2.578382838283826e-05 2.578382838283826e-05 2.578382838283826e-05 2.578382838283826e-05 2.578382838283826e-05 2.578382838283826e-05 2.578382838283826e-05 2.578382838283826e-05 2.578382838283826e-05 2.578382838283826e-05 2.578382838283826e-05 2.578382838283826e-05 2.578382838283826e-05 2.578382838283826e-05 2.578382838283826e-05 2.578382838283826e-05 2.578382838283826e-05 2.578382838283826e-05 2.578382838283826e-05 2.578382838283826e-05 2.578382838283826e-05 2.578382838283826e-05 2.578382838283826e-05 2.578382838283826e-05 2.578382838283826e-05 0.009926773927392734 2.578382838283826e-05 2.578382838283826e-05 2.578382838283826e-05 2.578382838283826e-05 2.578382838283826e-05 2.578382838283826e-05 2.578382838283826e-05 2.578382838283826e-05 2.578382838283826e-05 2.578382838283826e-05 2.578382838283826e-05 2.578382838283826e-05 2.578382838283826e-05 2.578382838283826e-05 2.578382838283826e-05 2.578382838283826e-05 2.578382838283826e-05 2.578382838283826e-05 2.578382838283826e-05 2.578382838283826e-05 2.578382838283826e-05 2.578382838283826e-05 2.578382838283826e-05 2.578382838283826e-05 2.578382838283826e-05 2.578382838283826e-05 2.578382838283826e-05 2.578382838283826e-05 2.578382838283826e-05 0.009926773927392734 2.578382838283826e-05 2.578382838283826e-05 0.06933271452145209 2.578382838283826e-05 2.578382838283826e-05 2.578382838283826e-05 0.02972875412541252 2.578382838283826e-05 2.578382838283826e-05 4.413841807909606e-05 4.413841807909606e-05 4.413841807909606e-05 4.413841807909606e-05 4.413841807909606e-05 4.413841807909606e-05 0.05089159604519776 4.413841807909606e-05 4.413841807909606e-05 4.413841807909606e-05 4.413841807909606e-05 4.413841807909606e-05 4.413841807909606e-05 4.413841807909606e-05 4.413841807909606e-05 0.05089159604519776 4.413841807909606e-05 4.413841807909606e-05 4.413841807909606e-05 4.413841807909606e-05 4.413841807909606e-05 4.413841807909606e-05 4.413841807909606e-05 4.413841807909606e-05 4.413841807909606e-05 4.413841807909606e-05 4.413841807909606e-05 4.413841807909606e-05 4.413841807909606e-05 4.413841807909606e-05 4.413841807909606e-05 4.413841807909606e-05 4.413841807909606e-05 4.413841807909606e-05 4.413841807909606e-05 4.413841807909606e-05 4.413841807909606e-05 4.413841807909606e-05 4.413841807909606e-05 4.413841807909606e-05 4.413841807909606e-05 4.413841807909606e-05 4.413841807909606e-05 4.413841807909606e-05 4.413841807909606e-05 4.413841807909606e-05 0.01699329096045199 4.413841807909606e-05 4.413841807909606e-05 4.413841807909606e-05 4.413841807909606e-05 4.413841807909606e-05 4.413841807909606e-05 4.413841807909606e-05 4.413841807909606e-05 4.413841807909606e-05 4.413841807909606e-05 4.413841807909606e-05 4.413841807909606e-05 4.413841807909606e-05 4.413841807909606e-05 4.413841807909606e-05 4.413841807909606e-05 4.413841807909606e-05 4.413841807909606e-05 4.413841807909606e-05 4.413841807909606e-05 4.413841807909606e-05 0.03394244350282487 4.413841807909606e-05 4.413841807909606e-05 4.413841807909606e-05 4.413841807909606e-05 4.413841807909606e-05 4.413841807909606e-05 4.413841807909606e-05 4.413841807909606e-05 4.413841807909606e-05 4.413841807909606e-05 4.413841807909606e-05 4.413841807909606e-05 4.413841807909606e-05 4.413841807909606e-05 4.413841807909606e-05 4.413841807909606e-05 4.413841807909606e-05 4.413841807909606e-05 4.413841807909606e-05 4.413841807909606e-05 4.413841807909606e-05 4.413841807909606e-05 4.413841807909606e-05 4.413841807909606e-05 4.413841807909606e-05 4.413841807909606e-05 4.413841807909606e-05 0.06784074858757065 4.413841807909606e-05 4.413841807909606e-05 4.413841807909606e-05 4.413841807909606e-05 4.413841807909606e-05 4.413841807909606e-05 4.413841807909606e-05 4.413841807909606e-05 4.413841807909606e-05 4.413841807909606e-05 4.413841807909606e-05 4.413841807909606e-05 4.413841807909606e-05 4.413841807909606e-05 4.413841807909606e-05 4.413841807909606e-05 4.413841807909606e-05 4.413841807909606e-05 4.413841807909606e-05 4.413841807909606e-05 4.413841807909606e-05 4.413841807909606e-05 4.413841807909606e-05 4.413841807909606e-05 4.413841807909606e-05 4.413841807909606e-05 4.413841807909606e-05 4.413841807909606e-05 4.413841807909606e-05 4.413841807909606e-05 4.413841807909606e-05 4.413841807909606e-05 4.413841807909606e-05 0.08478990112994354 4.413841807909606e-05 4.413841807909606e-05 4.413841807909606e-05 4.413841807909606e-05 4.413841807909606e-05 4.413841807909606e-05 4.413841807909606e-05 4.413841807909606e-05 4.413841807909606e-05 4.413841807909606e-05 4.413841807909606e-05 4.413841807909606e-05 4.413841807909606e-05 4.413841807909606e-05 4.413841807909606e-05 4.413841807909606e-05 4.413841807909606e-05 4.413841807909606e-05 4.413841807909606e-05 4.413841807909606e-05 4.413841807909606e-05 4.413841807909606e-05 4.413841807909606e-05 4.413841807909606e-05 4.413841807909606e-05 4.413841807909606e-05 4.413841807909606e-05 4.413841807909606e-05 4.413841807909606e-05 4.413841807909606e-05 4.413841807909606e-05 4.413841807909606e-05 4.413841807909606e-05 4.413841807909606e-05 4.413841807909606e-05 4.413841807909606e-05 4.413841807909606e-05 4.413841807909606e-05 4.413841807909606e-05 4.413841807909606e-05 4.413841807909606e-05 4.413841807909606e-05 4.413841807909606e-05 4.413841807909606e-05 4.413841807909606e-05 4.413841807909606e-05 4.413841807909606e-05 4.413841807909606e-05 4.413841807909606e-05 4.413841807909606e-05 4.413841807909606e-05 4.413841807909606e-05 0.01699329096045199 4.413841807909606e-05 4.413841807909606e-05 4.413841807909606e-05 4.413841807909606e-05 4.413841807909606e-05 4.413841807909606e-05 4.413841807909606e-05 4.413841807909606e-05 4.413841807909606e-05 4.413841807909606e-05 4.413841807909606e-05 0.01699329096045199 4.413841807909606e-05 4.413841807909606e-05 4.413841807909606e-05 4.413841807909606e-05 4.413841807909606e-05 4.413841807909606e-05 4.413841807909606e-05 4.413841807909606e-05 4.413841807909606e-05 4.413841807909606e-05 4.413841807909606e-05 4.413841807909606e-05 4.413841807909606e-05 4.413841807909606e-05 4.413841807909606e-05 4.413841807909606e-05 4.413841807909606e-05 4.413841807909606e-05 4.413841807909606e-05 4.413841807909606e-05 4.413841807909606e-05 4.413841807909606e-05 4.413841807909606e-05 4.413841807909606e-05 0.03394244350282487 4.413841807909606e-05 4.413841807909606e-05 4.413841807909606e-05 4.413841807909606e-05 4.413841807909606e-05 4.413841807909606e-05 4.413841807909606e-05 4.413841807909606e-05 4.413841807909606e-05 4.413841807909606e-05 4.413841807909606e-05 0.1017390536723164 4.413841807909606e-05 4.413841807909606e-05 4.413841807909606e-05 4.413841807909606e-05 4.413841807909606e-05 4.413841807909606e-05 4.413841807909606e-05 4.413841807909606e-05 4.413841807909606e-05 4.413841807909606e-05 4.413841807909606e-05 4.413841807909606e-05 4.413841807909606e-05 4.413841807909606e-05 4.413841807909606e-05 4.413841807909606e-05 4.413841807909606e-05 4.413841807909606e-05 4.413841807909606e-05 4.413841807909606e-05 4.413841807909606e-05 4.413841807909606e-05 4.413841807909606e-05 4.413841807909606e-05 0.06784074858757065 4.413841807909606e-05 0.01699329096045199 4.413841807909606e-05 4.413841807909606e-05 4.413841807909606e-05 4.413841807909606e-05 4.413841807909606e-05 4.413841807909606e-05 4.413841807909606e-05 4.413841807909606e-05 4.413841807909606e-05 4.413841807909606e-05 4.413841807909606e-05 4.413841807909606e-05 4.413841807909606e-05 4.413841807909606e-05 4.413841807909606e-05 4.413841807909606e-05 4.413841807909606e-05 4.413841807909606e-05 4.413841807909606e-05 4.413841807909606e-05 4.413841807909606e-05 4.413841807909606e-05 4.413841807909606e-05 4.413841807909606e-05 4.413841807909606e-05 4.413841807909606e-05 4.413841807909606e-05 4.413841807909606e-05 4.413841807909606e-05 4.413841807909606e-05 4.413841807909606e-05 4.413841807909606e-05 4.413841807909606e-05 4.413841807909606e-05 4.413841807909606e-05 4.413841807909606e-05 4.413841807909606e-05 4.413841807909606e-05 4.413841807909606e-05 4.413841807909606e-05 4.413841807909606e-05 4.413841807909606e-05 4.413841807909606e-05 4.413841807909606e-05 4.413841807909606e-05 4.413841807909606e-05 0.1525865112994351 0.1017390536723164 4.413841807909606e-05 0.1017390536723164 4.413841807909606e-05 0.03394244350282487 4.413841807909606e-05 4.413841807909606e-05 4.413841807909606e-05 4.413841807909606e-05 4.413841807909606e-05 4.413841807909606e-05 4.413841807909606e-05 4.413841807909606e-05 4.413841807909606e-05 0.03394244350282487 4.413841807909606e-05 4.413841807909606e-05 4.413841807909606e-05 4.413841807909606e-05 4.413841807909606e-05 4.413841807909606e-05 4.413841807909606e-05 4.413841807909606e-05 4.413841807909606e-05 4.413841807909606e-05 4.413841807909606e-05 4.413841807909606e-05 4.413841807909606e-05 4.413841807909606e-05 4.413841807909606e-05 4.413841807909606e-05 4.413841807909606e-05 4.413841807909606e-05 4.413841807909606e-05 4.413841807909606e-05 4.413841807909606e-05 4.413841807909606e-05 4.413841807909606e-05 4.413841807909606e-05 4.413841807909606e-05 4.413841807909606e-05 4.413841807909606e-05 4.413841807909606e-05 4.413841807909606e-05 4.413841807909606e-05 4.413841807909606e-05 4.413841807909606e-05 4.413841807909606e-05 4.413841807909606e-05 4.413841807909606e-05 4.413841807909606e-05 4.413841807909606e-05 4.413841807909606e-05 4.413841807909606e-05 4.413841807909606e-05 4.413841807909606e-05 4.413841807909606e-05 4.413841807909606e-05 4.413841807909606e-05 4.413841807909606e-05 4.413841807909606e-05 4.413841807909606e-05 4.413841807909606e-05 4.413841807909606e-05 4.413841807909606e-05 4.413841807909606e-05 4.413841807909606e-05 4.413841807909606e-05 4.413841807909606e-05 4.413841807909606e-05 4.413841807909606e-05 4.413841807909606e-05 4.413841807909606e-05 4.413841807909606e-05 4.413841807909606e-05 4.413841807909606e-05 4.413841807909606e-05</probabilities>
		</cpt>
		<cpt id="Make">
			<state id="Alfa_Romeo" />
			<state id="Audi" />
			<state id="BMW" />
			<state id="Cadillac" />
			<state id="Chevrolet" />
			<state id="Chrysler" />
			<state id="Dodge" />
			<state id="FIAT" />
			<state id="Ford" />
			<state id="GMC" />
			<state id="Honda" />
			<state id="HUMMER" />
			<state id="Hyundai" />
			<state id="Infiniti" />
			<state id="Kia" />
			<state id="Land_Rover" />
			<state id="Lexus" />
			<state id="Lincoln" />
			<state id="Lotus" />
			<state id="Maserati" />
			<state id="Mazda" />
			<state id="MercedesBenz" />
			<state id="Mitsubishi" />
			<state id="Nissan" />
			<state id="Plymouth" />
			<state id="Pontiac" />
			<state id="Porsche" />
			<state id="Saab" />
			<state id="Subaru" />
			<state id="Suzuki" />
			<state id="Toyota" />
			<state id="Volkswagen" />
			<state id="Volvo" />
			<parents>Model</parents>
			<probabilities>0.0006313131313131311 0.9797979797979796 0.0006313131313131311 0.0006313131313131311 0.0006313131313131311 0.0006313131313131311 0.0006313131313131311 0.0006313131313131311 0.0006313131313131311 0.0006313131313131311 0.0006313131313131311 0.0006313131313131311 0.0006313131313131311 0.0006313131313131311 0.0006313131313131311 0.0006313131313131311 0.0006313131313131311 0.0006313131313131311 0.0006313131313131311 0.0006313131313131311 0.0006313131313131311 0.0006313131313131311 0.0006313131313131311 0.0006313131313131311 0.0006313131313131311 0.0006313131313131311 0.0006313131313131311 0.0006313131313131311 0.0006313131313131311 0.0006313131313131311 0.0006313131313131311 0.0006313131313131311 0.0006313131313131311 0.001165501165501165 0.9627039627039624 0.001165501165501165 0.001165501165501165 0.001165501165501165 0.001165501165501165 0.001165501165501165 0.001165501165501165 0.001165501165501165 0.001165501165501165 0.001165501165501165 0.001165501165501165 0.001165501165501165 0.001165501165501165 0.001165501165501165 0.001165501165501165 0.001165501165501165 0.001165501165501165 0.001165501165501165 0.001165501165501165 0.001165501165501165 0.001165501165501165 0.001165501165501165 0.001165501165501165 0.001165501165501165 0.001165501165501165 0.001165501165501165 0.001165501165501165 0.001165501165501165 0.001165501165501165 0.001165501165501165 0.001165501165501165 0.001165501165501165 0.007575757575757578 0.7575757575757578 0.007575757575757578 0.007575757575757578 0.007575757575757578 0.007575757575757578 0.007575757575757578 0.007575757575757578 0.007575757575757578 0.007575757575757578 0.007575757575757578 0.007575757575757578 0.007575757575757578 0.007575757575757578 0.007575757575757578 0.007575757575757578 0.007575757575757578 0.007575757575757578 0.007575757575757578 0.007575757575757578 0.007575757575757578 0.007575757575757578 0.007575757575757578 0.007575757575757578 0.007575757575757578 0.007575757575757578 0.007575757575757578 0.007575757575757578 0.007575757575757578 0.007575757575757578 0.007575757575757578 0.007575757575757578 0.007575757575757578 0.003030303030303028 0.9030303030303024 0.003030303030303028 0.003030303030303028 0.003030303030303028 0.003030303030303028 0.003030303030303028 0.003030303030303028 0.003030303030303028 0.003030303030303028 0.003030303030303028 0.003030303030303028 0.003030303030303028 0.003030303030303028 0.003030303030303028 0.003030303030303028 0.003030303030303028 0.003030303030303028 0.003030303030303028 0.003030303030303028 0.003030303030303028 0.003030303030303028 0.003030303030303028 0.003030303030303028 0.003030303030303028 0.003030303030303028 0.003030303030303028 0.003030303030303028 0.003030303030303028 0.003030303030303028 0.003030303030303028 0.003030303030303028 0.003030303030303028 0.001262626262626262 0.9595959595959594 0.001262626262626262 0.001262626262626262 0.001262626262626262 0.001262626262626262 0.001262626262626262 0.001262626262626262 0.001262626262626262 0.001262626262626262 0.001262626262626262 0.001262626262626262 0.001262626262626262 0.001262626262626262 0.001262626262626262 0.001262626262626262 0.001262626262626262 0.001262626262626262 0.001262626262626262 0.001262626262626262 0.001262626262626262 0.001262626262626262 0.001262626262626262 0.001262626262626262 0.001262626262626262 0.001262626262626262 0.001262626262626262 0.001262626262626262 0.001262626262626262 0.001262626262626262 0.001262626262626262 0.001262626262626262 0.001262626262626262 0.002754820936639117 0.9118457300275478 0.002754820936639117 0.002754820936639117 0.002754820936639117 0.002754820936639117 0.002754820936639117 0.002754820936639117 0.002754820936639117 0.002754820936639117 0.002754820936639117 0.002754820936639117 0.002754820936639117 0.002754820936639117 0.002754820936639117 0.002754820936639117 0.002754820936639117 0.002754820936639117 0.002754820936639117 0.002754820936639117 0.002754820936639117 0.002754820936639117 0.002754820936639117 0.002754820936639117 0.002754820936639117 0.002754820936639117 0.002754820936639117 0.002754820936639117 0.002754820936639117 0.002754820936639117 0.002754820936639117 0.002754820936639117 0.002754820936639117 0.007575757575757578 0.7575757575757578 0.007575757575757578 0.007575757575757578 0.007575757575757578 0.007575757575757578 0.007575757575757578 0.007575757575757578 0.007575757575757578 0.007575757575757578 0.007575757575757578 0.007575757575757578 0.007575757575757578 0.007575757575757578 0.007575757575757578 0.007575757575757578 0.007575757575757578 0.007575757575757578 0.007575757575757578 0.007575757575757578 0.007575757575757578 0.007575757575757578 0.007575757575757578 0.007575757575757578 0.007575757575757578 0.007575757575757578 0.007575757575757578 0.007575757575757578 0.007575757575757578 0.007575757575757578 0.007575757575757578 0.007575757575757578 0.007575757575757578 0.0009182736455463727 0.0009182736455463727 0.0009182736455463727 0.0009182736455463727 0.0009182736455463727 0.0009182736455463727 0.0009182736455463727 0.0009182736455463727 0.0009182736455463727 0.9706152433425159 0.0009182736455463727 0.0009182736455463727 0.0009182736455463727 0.0009182736455463727 0.0009182736455463727 0.0009182736455463727 0.0009182736455463727 0.0009182736455463727 0.0009182736455463727 0.0009182736455463727 0.0009182736455463727 0.0009182736455463727 0.0009182736455463727 0.0009182736455463727 0.0009182736455463727 0.0009182736455463727 0.0009182736455463727 0.0009182736455463727 0.0009182736455463727 0.0009182736455463727 0.0009182736455463727 0.0009182736455463727 0.0009182736455463727 0.0101010101010101 0.0101010101010101 0.0101010101010101 0.0101010101010101 0.0101010101010101 0.0101010101010101 0.0101010101010101 0.0101010101010101 0.0101010101010101 0.6767676767676768 0.0101010101010101 0.0101010101010101 0.0101010101010101 0.0101010101010101 0.0101010101010101 0.0101010101010101 0.0101010101010101 0.0101010101010101 0.0101010101010101 0.0101010101010101 0.0101010101010101 0.0101010101010101 0.0101010101010101 0.0101010101010101 0.0101010101010101 0.0101010101010101 0.0101010101010101 0.0101010101010101 0.0101010101010101 0.0101010101010101 0.0101010101010101 0.0101010101010101 0.0101010101010101 0.00233100233100233 0.00233100233100233 0.00233100233100233 0.00233100233100233 0.00233100233100233 0.00233100233100233 0.00233100233100233 0.00233100233100233 0.00233100233100233 0.00233100233100233 0.00233100233100233 0.00233100233100233 0.925407925407925 0.00233100233100233 0.00233100233100233 0.00233100233100233 0.00233100233100233 0.00233100233100233 0.00233100233100233 0.00233100233100233 0.00233100233100233 0.00233100233100233 0.00233100233100233 0.00233100233100233 0.00233100233100233 0.00233100233100233 0.00233100233100233 0.00233100233100233 0.00233100233100233 0.00233100233100233 0.00233100233100233 0.00233100233100233 0.00233100233100233 0.002020202020202019 0.002020202020202019 0.002020202020202019 0.002020202020202019 0.002020202020202019 0.002020202020202019 0.002020202020202019 0.002020202020202019 0.002020202020202019 0.002020202020202019 0.935353535353535 0.002020202020202019 0.002020202020202019 0.002020202020202019 0.002020202020202019 0.002020202020202019 0.002020202020202019 0.002020202020202019 0.002020202020202019 0.002020202020202019 0.002020202020202019 0.002020202020202019 0.002020202020202019 0.002020202020202019 0.002020202020202019 0.002020202020202019 0.002020202020202019 0.002020202020202019 0.002020202020202019 0.002020202020202019 0.002020202020202019 0.002020202020202019 0.002020202020202019 0.002754820936639117 0.002754820936639117 0.002754820936639117 0.002754820936639117 0.002754820936639117 0.002754820936639117 0.002754820936639117 0.002754820936639117 0.002754820936639117 0.002754820936639117 0.9118457300275479 0.002754820936639117 0.002754820936639117 0.002754820936639117 0.002754820936639117 0.002754820936639117 0.002754820936639117 0.002754820936639117 0.002754820936639117 0.002754820936639117 0.002754820936639117 0.002754820936639117 0.002754820936639117 0.002754820936639117 0.002754820936639117 0.002754820936639117 0.002754820936639117 0.002754820936639117 0.002754820936639117 0.002754820936639117 0.002754820936639117 0.002754820936639117 0.002754820936639117 0.003030303030303029 0.003030303030303029 0.003030303030303029 0.003030303030303029 0.003030303030303029 0.003030303030303029 0.003030303030303029 0.003030303030303029 0.003030303030303029 0.003030303030303029 0.9030303030303026 0.003030303030303029 0.003030303030303029 0.003030303030303029 0.003030303030303029 0.003030303030303029 0.003030303030303029 0.003030303030303029 0.003030303030303029 0.003030303030303029 0.003030303030303029 0.003030303030303029 0.003030303030303029 0.003030303030303029 0.003030303030303029 0.003030303030303029 0.003030303030303029 0.003030303030303029 0.003030303030303029 0.003030303030303029 0.003030303030303029 0.003030303030303029 0.003030303030303029 0.01515151515151516 0.01515151515151516 0.01515151515151516 0.01515151515151516 0.01515151515151516 0.01515151515151516 0.01515151515151516 0.01515151515151516 0.01515151515151516 0.01515151515151516 0.5151515151515152 0.01515151515151516 0.01515151515151516 0.01515151515151516 0.01515151515151516 0.01515151515151516 0.01515151515151516 0.01515151515151516 0.01515151515151516 0.01515151515151516 0.01515151515151516 0.01515151515151516 0.01515151515151516 0.01515151515151516 0.01515151515151516 0.01515151515151516 0.01515151515151516 0.01515151515151516 0.01515151515151516 0.01515151515151516 0.01515151515151516 0.01515151515151516 0.01515151515151516 0.007575757575757578 0.007575757575757578 0.7575757575757578 0.007575757575757578 0.007575757575757578 0.007575757575757578 0.007575757575757578 0.007575757575757578 0.007575757575757578 0.007575757575757578 0.007575757575757578 0.007575757575757578 0.007575757575757578 0.007575757575757578 0.007575757575757578 0.007575757575757578 0.007575757575757578 0.007575757575757578 0.007575757575757578 0.007575757575757578 0.007575757575757578 0.007575757575757578 0.007575757575757578 0.007575757575757578 0.007575757575757578 0.007575757575757578 0.007575757575757578 0.007575757575757578 0.007575757575757578 0.007575757575757578 0.007575757575757578 0.007575757575757578 0.007575757575757578 0.007575757575757578 0.007575757575757578 0.7575757575757578 0.007575757575757578 0.007575757575757578 0.007575757575757578 0.007575757575757578 0.007575757575757578 0.007575757575757578 0.007575757575757578 0.007575757575757578 0.007575757575757578 0.007575757575757578 0.007575757575757578 0.007575757575757578 0.007575757575757578 0.007575757575757578 0.007575757575757578 0.007575757575757578 0.007575757575757578 0.007575757575757578 0.007575757575757578 0.007575757575757578 0.007575757575757578 0.007575757575757578 0.007575757575757578 0.007575757575757578 0.007575757575757578 0.007575757575757578 0.007575757575757578 0.007575757575757578 0.007575757575757578 0.007575757575757578 0.003367003367003364 0.8922558922558916 0.003367003367003364 0.003367003367003364 0.003367003367003364 0.003367003367003364 0.003367003367003364 0.003367003367003364 0.003367003367003364 0.003367003367003364 0.003367003367003364 0.003367003367003364 0.003367003367003364 0.003367003367003364 0.003367003367003364 0.003367003367003364 0.003367003367003364 0.003367003367003364 0.003367003367003364 0.003367003367003364 0.003367003367003364 0.003367003367003364 0.003367003367003364 0.003367003367003364 0.003367003367003364 0.003367003367003364 0.003367003367003364 0.003367003367003364 0.003367003367003364 0.003367003367003364 0.003367003367003364 0.003367003367003364 0.003367003367003364 0.00432900432900433 0.8614718614718616 0.00432900432900433 0.00432900432900433 0.00432900432900433 0.00432900432900433 0.00432900432900433 0.00432900432900433 0.00432900432900433 0.00432900432900433 0.00432900432900433 0.00432900432900433 0.00432900432900433 0.00432900432900433 0.00432900432900433 0.00432900432900433 0.00432900432900433 0.00432900432900433 0.00432900432900433 0.00432900432900433 0.00432900432900433 0.00432900432900433 0.00432900432900433 0.00432900432900433 0.00432900432900433 0.00432900432900433 0.00432900432900433 0.00432900432900433 0.00432900432900433 0.00432900432900433 0.00432900432900433 0.00432900432900433 0.00432900432900433 0.002754820936639118 0.002754820936639118 0.002754820936639118 0.002754820936639118 0.002754820936639118 0.002754820936639118 0.002754820936639118 0.002754820936639118 0.002754820936639118 0.002754820936639118 0.002754820936639118 0.002754820936639118 0.002754820936639118 0.002754820936639118 0.002754820936639118 0.002754820936639118 0.002754820936639118 0.002754820936639118 0.002754820936639118 0.002754820936639118 0.002754820936639118 0.002754820936639118 0.002754820936639118 0.911845730027548 0.002754820936639118 0.002754820936639118 0.002754820936639118 0.002754820936639118 0.002754820936639118 0.002754820936639118 0.002754820936639118 0.002754820936639118 0.002754820936639118 0.007575757575757578 0.007575757575757578 0.007575757575757578 0.007575757575757578 0.007575757575757578 0.007575757575757578 0.007575757575757578 0.007575757575757578 0.007575757575757578 0.007575757575757578 0.007575757575757578 0.007575757575757578 0.007575757575757578 0.007575757575757578 0.007575757575757578 0.007575757575757578 0.007575757575757578 0.007575757575757578 0.007575757575757578 0.007575757575757578 0.007575757575757578 0.007575757575757578 0.007575757575757578 0.7575757575757578 0.007575757575757578 0.007575757575757578 0.007575757575757578 0.007575757575757578 0.007575757575757578 0.007575757575757578 0.007575757575757578 0.007575757575757578 0.007575757575757578 0.0007575757575757575 0.0007575757575757575 0.0007575757575757575 0.9757575757575756 0.0007575757575757575 0.0007575757575757575 0.0007575757575757575 0.0007575757575757575 0.0007575757575757575 0.0007575757575757575 0.0007575757575757575 0.0007575757575757575 0.0007575757575757575 0.0007575757575757575 0.0007575757575757575 0.0007575757575757575 0.0007575757575757575 0.0007575757575757575 0.0007575757575757575 0.0007575757575757575 0.0007575757575757575 0.0007575757575757575 0.0007575757575757575 0.0007575757575757575 0.0007575757575757575 0.0007575757575757575 0.0007575757575757575 0.0007575757575757575 0.0007575757575757575 0.0007575757575757575 0.0007575757575757575 0.0007575757575757575 0.0007575757575757575 0.0008417508417508416 0.0008417508417508416 0.0008417508417508416 0.973063973063973 0.0008417508417508416 0.0008417508417508416 0.0008417508417508416 0.0008417508417508416 0.0008417508417508416 0.0008417508417508416 0.0008417508417508416 0.0008417508417508416 0.0008417508417508416 0.0008417508417508416 0.0008417508417508416 0.0008417508417508416 0.0008417508417508416 0.0008417508417508416 0.0008417508417508416 0.0008417508417508416 0.0008417508417508416 0.0008417508417508416 0.0008417508417508416 0.0008417508417508416 0.0008417508417508416 0.0008417508417508416 0.0008417508417508416 0.0008417508417508416 0.0008417508417508416 0.0008417508417508416 0.0008417508417508416 0.0008417508417508416 0.0008417508417508416 0.006060606060606062 0.006060606060606062 0.006060606060606062 0.8060606060606063 0.006060606060606062 0.006060606060606062 0.006060606060606062 0.006060606060606062 0.006060606060606062 0.006060606060606062 0.006060606060606062 0.006060606060606062 0.006060606060606062 0.006060606060606062 0.006060606060606062 0.006060606060606062 0.006060606060606062 0.006060606060606062 0.006060606060606062 0.006060606060606062 0.006060606060606062 0.006060606060606062 0.006060606060606062 0.006060606060606062 0.006060606060606062 0.006060606060606062 0.006060606060606062 0.006060606060606062 0.006060606060606062 0.006060606060606062 0.006060606060606062 0.006060606060606062 0.006060606060606062 0.003787878787878789 0.003787878787878789 0.003787878787878789 0.003787878787878789 0.003787878787878789 0.003787878787878789 0.003787878787878789 0.003787878787878789 0.003787878787878789 0.003787878787878789 0.003787878787878789 0.003787878787878789 0.003787878787878789 0.003787878787878789 0.003787878787878789 0.003787878787878789 0.003787878787878789 0.003787878787878789 0.003787878787878789 0.003787878787878789 0.003787878787878789 0.003787878787878789 0.003787878787878789 0.003787878787878789 0.003787878787878789 0.003787878787878789 0.003787878787878789 0.003787878787878789 0.003787878787878789 0.003787878787878789 0.878787878787879 0.003787878787878789 0.003787878787878789 0.00303030303030303 0.00303030303030303 0.00303030303030303 0.00303030303030303 0.00303030303030303 0.00303030303030303 0.00303030303030303 0.00303030303030303 0.00303030303030303 0.00303030303030303 0.00303030303030303 0.00303030303030303 0.00303030303030303 0.00303030303030303 0.00303030303030303 0.00303030303030303 0.00303030303030303 0.00303030303030303 0.00303030303030303 0.00303030303030303 0.00303030303030303 0.00303030303030303 0.00303030303030303 0.00303030303030303 0.00303030303030303 0.00303030303030303 0.00303030303030303 0.00303030303030303 0.00303030303030303 0.00303030303030303 0.903030303030303 0.00303030303030303 0.00303030303030303 0.003030303030303028 0.003030303030303028 0.003030303030303028 0.003030303030303028 0.003030303030303028 0.003030303030303028 0.9030303030303024 0.003030303030303028 0.003030303030303028 0.003030303030303028 0.003030303030303028 0.003030303030303028 0.003030303030303028 0.003030303030303028 0.003030303030303028 0.003030303030303028 0.003030303030303028 0.003030303030303028 0.003030303030303028 0.003030303030303028 0.003030303030303028 0.003030303030303028 0.003030303030303028 0.003030303030303028 0.003030303030303028 0.003030303030303028 0.003030303030303028 0.003030303030303028 0.003030303030303028 0.003030303030303028 0.003030303030303028 0.003030303030303028 0.003030303030303028 0.003030303030303028 0.003030303030303028 0.003030303030303028 0.003030303030303028 0.9030303030303024 0.003030303030303028 0.003030303030303028 0.003030303030303028 0.003030303030303028 0.003030303030303028 0.003030303030303028 0.003030303030303028 0.003030303030303028 0.003030303030303028 0.003030303030303028 0.003030303030303028 0.003030303030303028 0.003030303030303028 0.003030303030303028 0.003030303030303028 0.003030303030303028 0.003030303030303028 0.003030303030303028 0.003030303030303028 0.003030303030303028 0.003030303030303028 0.003030303030303028 0.003030303030303028 0.003030303030303028 0.003030303030303028 0.003030303030303028 0.003030303030303028 0.003030303030303028 0.00432900432900433 0.00432900432900433 0.00432900432900433 0.00432900432900433 0.00432900432900433 0.00432900432900433 0.00432900432900433 0.00432900432900433 0.00432900432900433 0.00432900432900433 0.00432900432900433 0.00432900432900433 0.8614718614718616 0.00432900432900433 0.00432900432900433 0.00432900432900433 0.00432900432900433 0.00432900432900433 0.00432900432900433 0.00432900432900433 0.00432900432900433 0.00432900432900433 0.00432900432900433 0.00432900432900433 0.00432900432900433 0.00432900432900433 0.00432900432900433 0.00432900432900433 0.00432900432900433 0.00432900432900433 0.00432900432900433 0.00432900432900433 0.00432900432900433 0.00432900432900433 0.00432900432900433 0.00432900432900433 0.00432900432900433 0.00432900432900433 0.00432900432900433 0.00432900432900433 0.00432900432900433 0.00432900432900433 0.00432900432900433 0.00432900432900433 0.00432900432900433 0.00432900432900433 0.00432900432900433 0.00432900432900433 0.00432900432900433 0.00432900432900433 0.00432900432900433 0.00432900432900433 0.00432900432900433 0.00432900432900433 0.00432900432900433 0.00432900432900433 0.00432900432900433 0.00432900432900433 0.8614718614718616 0.00432900432900433 0.00432900432900433 0.00432900432900433 0.00432900432900433 0.00432900432900433 0.00432900432900433 0.00432900432900433 0.0009775171065493646 0.0009775171065493646 0.0009775171065493646 0.0009775171065493646 0.0009775171065493646 0.0009775171065493646 0.0009775171065493646 0.0009775171065493646 0.0009775171065493646 0.0009775171065493646 0.0009775171065493646 0.0009775171065493646 0.0009775171065493646 0.0009775171065493646 0.0009775171065493646 0.0009775171065493646 0.0009775171065493646 0.0009775171065493646 0.0009775171065493646 0.0009775171065493646 0.0009775171065493646 0.0009775171065493646 0.0009775171065493646 0.0009775171065493646 0.0009775171065493646 0.0009775171065493646 0.0009775171065493646 0.0009775171065493646 0.9687194525904204 0.0009775171065493646 0.0009775171065493646 0.0009775171065493646 0.0009775171065493646 0.007575757575757578 0.007575757575757578 0.007575757575757578 0.007575757575757578 0.007575757575757578 0.007575757575757578 0.007575757575757578 0.007575757575757578 0.007575757575757578 0.007575757575757578 0.007575757575757578 0.007575757575757578 0.007575757575757578 0.007575757575757578 0.007575757575757578 0.007575757575757578 0.007575757575757578 0.007575757575757578 0.007575757575757578 0.007575757575757578 0.007575757575757578 0.7575757575757578 0.007575757575757578 0.007575757575757578 0.007575757575757578 0.007575757575757578 0.007575757575757578 0.007575757575757578 0.007575757575757578 0.007575757575757578 0.007575757575757578 0.007575757575757578 0.007575757575757578 0.0003987240829346092 0.0003987240829346092 0.0003987240829346092 0.0003987240829346092 0.0003987240829346092 0.0003987240829346092 0.0003987240829346092 0.0003987240829346092 0.0003987240829346092 0.0003987240829346092 0.0003987240829346092 0.0003987240829346092 0.0003987240829346092 0.0003987240829346092 0.0003987240829346092 0.0003987240829346092 0.0003987240829346092 0.0003987240829346092 0.0003987240829346092 0.0003987240829346092 0.0003987240829346092 0.0003987240829346092 0.0003987240829346092 0.0003987240829346092 0.0003987240829346092 0.0003987240829346092 0.0003987240829346092 0.0003987240829346092 0.0003987240829346092 0.0003987240829346092 0.0003987240829346092 0.9872408293460924 0.0003987240829346092 0.0005224660397074191 0.0005224660397074191 0.0005224660397074191 0.0005224660397074191 0.0005224660397074191 0.0005224660397074191 